0.17,0.21,0.47,0.37,-0.4,-0.47,0.09,0.31,0.31,-0.5,0.44,-0.13,0.32,-0.25,0.48,0.47,0.44,0.24,-0.11,0.29,0.42,-0.36,-0.13,0.43,-0.06,-0.09,-0.46,0.36,-0.01,-0.04,0.34,0.05,0.28,-0.45,0.43,-0.02,-0.24,-0.09,0.27,0.34,0.43,-0.02,0.48,0.28,-0.1,-0.38,0.11,-0.24,-0.05,0,0.49,0.49,0.11,0.33,0.06,-0.19,-0.11,-0.28,-0.05,-0.46,-0.37,-0.17,0,-0.07,0.13,-0.5,-0.35,-0.4,0.36,-0.26,-0.24,0,-0.03,-0.24,0.44,-0.15,-0.33,-0.01,0.32,0.06,-0.42,-0.16,-0.32,0.31,-0.19,0.4,-0.37,-0.48,-0.43,-0.23,-0.08,0.19,-0.34,-0.39,0.1,0.46,0.39,0.06,-0.26,-0.05,0.05,0.3,-0.04,-0.37,0.05,-0.03,0.48,-0.4,-0.25,0.09,-0.29,0.15,-0.07,-0.04,0.44,-0.34,0.35,-0.11,0,-0.34,-0.42,-0.44,0.22,-0.33,-0.47,0.15,-0.25,0.3,-0.47,-0.07,0.4,-0.21,-0.49,-0.19,-0.08,0.13,-0.29,0.16,-0.07,-0.41,-0.03,0.02,0.47,-0.36,0.07,-0.34,-0.09,0.45,-0.05,0.11,-0.2,-0.15,-0.3,-0.35,-0.33,0.02,0.41,-0.15,0.28,-0.02,-0.38,-0.38,0.18,-0.47,-0.18,0.01,-0.09,-0.19,0.14,-0.06,-0.5,0.49,-0.5,-0.5,0.12,0.3,0.34,0.23,-0.36,-0.42,-0.17,-0.37,0.32,-0.49,0.24,0.38,-0.07,0.24,0.17,-0.3,0.35,-0.49,-0.130006,0.311435,-0.350961,-0.130279,-0.300008,0.220325,-0.470007,0.178798,0.430502,-0.0201424,0.390256,-0.0299757,-0.0905935,0.460597,0.419815,0.350076,-0.440032,0.143133,0.317993,-0.0802841,-0.0800617,-0.119211,-0.209952,-0.451824,0.0310314,0.119469,0.0791947,0.0200775,-0.280717,-0.408628,0.188992,-0.289725,0.399979,-0.0300117,-0.0898924,-0.459635,-0.37005,0.370087,-0.0099294,-0.419099,0.189925,-0.270244,-0.0715191,0.0500271,0.100648,0.420071,0.45933,-0.109878,-0.260001,0.17,0.0600045,0.350015,-0.460002,0.230004,-0.309997,0.370038,-0.200003,0.0199899,-0.0500633,-0.339999,-0.029973,-0.359997,-2.79138e-05,-0.0799949,0.17,-0.05,0.47,0.23,0.04,0.26,0.4,0.48,-0.12,-0.33,-0.49,-0.28,-0.33,0.09,-0.13,0.46,0.47,-0.12,-0.22,0.07,0.33,0.27,-0.17,-0.47,0.43,-0.07,0.22,-0.15,0.21,-0.44,-0.05,0.25,0.34,0.33,0.29,-0.04,0.14,0.28,-0.12,-0.48,-0.5,0.39,0.33,-0.06,0.28,0.16,-0.03,0.48,-0.15,0.24,0.17,-0.4,0.32,-0.15,-0.4,-0.26,-0.28,-0.2,0.29,-0.12,-0.2,0.27,-0.22,0.01,0.26,-0.03,0.46,0.43,-0.19,-0.29,-0.21,-0.5,0.27,-0.15,0.39,0.03,0.27,0.18,0.32,0.46,-0.18,-0.35,0.01,0.1,0.25,-0.28,0,0.22,0.26,-0.35,0.05,0.37,0.06,0.3,-0.44,-0.02,-0.5,0.09,0.49,-0.38,-0.39,-0.23,0.46,0.02,0.25,-0.21,-0.22,0.27,0.02,0.28,-0.23,0.43,-0.45,0.18,0.25,0.09,0.18,-0.15,0.35,0.01,-0.42,-0.12,0.48,0.3,0.07,0.41,-0.42,0.11,-0.18,0.01,0.02,-0.13,-0.19,-0.13,0.16,0.2,-0.3,0.3,0.05,-0.38,-0.09,0.49,-0.2,-0.07,-0.28,0.35,0.22,0.37,-0.08,-0.2,-0.1,-0.07,-0.27,0.34,-0.31,0.26,-0.1,-0.09,0.46,-0.16,-0.5,0.46,-0.5,0.16,0.39,-0.28,-0.22,-0.04,-0.24,-0.39,-0.15,-0.31,0.06,0.1,-0.21,-0.05,-0.11,0.46,0.1,0.1,0.27,0.04,0.48,-0.33,-0.12,-0.41,0.21,-0.16,0,0.37,0.43,-0.27,-0.3,-0.45,0.43,0.47,0.01,0.22,0.46,0.06,0.4,-0.02,-0.04,0.06,-0.07,0.31,-0.2,0.01,0.13,0.44,0.12,0.4,0.42,-0.06,-0.42,-0.29,-0.5,0.26,0.06,-0.34,-0.47,-0.06,-0.34,0.22,0.09,-0.5,-0.16,-0.25,0.36,-0.15,0.35,0.42,0.17,0.41,-0.4,-0.34,0.03,-0.49,0.46,-0.25,0.42,-0.24,-0.32,0.08,-0.41,-0.23,-0.06,-0.27,-0.14,0.4,-0.33,-0.05,0.01,0.31,0.26,0.19,-0.440001,-0.439997,-0.219998,0.279985,-0.160001,-0.299997,-0.179999,0.409994,0.450015,-0.0100013,-0.229997,0.0600046,0.189994,0.39,-0.300002,0.33,-0.460003,-0.479985,-0.41001,0.239846,0.359996,0.380029,-0.379996,-0.46002,-0.209948,0.479948,0.290014,0.270017,-0.04002,0.110002,-0.0500088,0.0400016,-0.120041,-0.246447,-0.17259,0.0105887,-0.12008,0.0531376,-0.109955,-0.391635,0.141395,0.194697,0.250334,-0.199672,0.339926,0.180879,-0.300236,0.030245,-0.141072,0.287242,0.114706,-0.360077,-0.0205182,0.207114,-0.0598875,0.397051,-0.0170295,-0.340445,-0.0891571,-0.139087,0.289464,0.191605,0.0896223,-0.349266,-0.0671608,-0.164405,0.292888,-0.125588,-0.382978,-0.222001,0.188994,-0.281688,-0.266469,-0.0587974,0.302407,0.142963,0.0369362,-0.309157,-0.360475,-0.336877,-0.42384,0.334824,-0.335005,0.384377,0.447025,-0.115002,0.118696,-0.194809,0.312574,-0.436013,-0.347243,-0.397701,0.296041,-0.00870539,-0.0307874,0.0618621,0.246273,-0.344524,0.31279,0.453887,-0.482674,-0.00614971,-0.400786,-0.100137,0.185926,-0.484621,0.24249,0.26173,-0.402809,0.314001,-0.0423252,0.163063,-0.230884,0.0457728,-0.281966,0.215002,-0.243922,0.343213,0.420323,0.333153,-0.134243,-0.481286,-0.249488,0.00999816,-0.0707435,0.183418,-0.500479,0.123633,0.163795,0.372913,0.426064,-0.319197,0.10682,0.0631809,0.00960426,0.253539,0.0159007,-0.365442,-0.462946,0.377035,-0.00579014,-0.345499,-0.322027,0.300486,0.371991,-0.179718,-0.0775447,0.231864,-0.0311894,0.361039,0.324477,0.468086,-0.400071,0.261425,-0.0933837,-0.0298747,-0.135009,0.335188,-0.481304,-0.148457,0.181599,0.336111,-0.0183431,0.429856,-0.0441054,-0.124558,-0.138712,-0.410348,0.260187,-0.236022,0.441177,0.00852106,0.257731,-0.0871005,-0.166498,-0.306705,-0.476128,-0.142572,-0.365072,0.124054,0.473892,-0.00325771,0.239822,0.11092,-0.374707,-0.361097,-0.40559,0.325834,0.164999,-0.0886603,0.206642,-0.253433,0.401728,-0.396061,0.445049,-0.398752,-0.0333142,0.360264,-0.444059,-0.0838836,-0.153317,0.389451,-0.376797,-0.00894639,-0.229679,0.200637,-0.329152,-0.275197,0.226089,-0.298041,-0.272715,-0.0287175,0.324011,0.206268,-0.396354,0.311656,0.305997,-0.137596,0.0297293,-0.408044,-0.165874,0.010593,-0.0627925,0.480406,-0.262682,-0.413891,-0.350881,-0.284824,0.41176,-0.162638,-0.49713,-0.338453,0.206893,0.0998212,0.253713,0.150858,-0.0950868,-0.159709,0.0716243,0.299765,0.338593,0.076453,-0.223596,0.439987,-0.290284,0.230961,0.38859,0.330711,-0.153214,-0.504561,-0.431278,-0.439379,0.00525488,-0.459846,0.0668328,-0.458179,-0.321072,0.184475,0.0153619,0.3226,-0.0513778,-0.0080528,0.31728,-0.106993,0.304743,0.234899,-0.443085,-0.328744,-0.505889,-0.239777,-0.444263,-0.159141,-0.390126,-0.367573,-0.404757,-0.0645566,0.4294,-0.238177,-0.103238,-0.0945705,0.323492,-0.331284,-0.278066,0.0920117,0.144797,-0.249808,0.306285,-0.446455,-0.140011,0.290875,0.329479,-0.362583,0.27021,0.0202777,-0.0601662,0.385626,-0.339169,0.209901,-0.0996367,0.340303,-0.000208235,-0.19994,0.279315,-0.44547,-0.0500043,-0.119593,-0.00999675,0.119636,0.350076,-0.169958,0.360064,-0.420634,0.330352,0.109985,0.41004,-0.0399724,0.0699889,-0.279954,0.199997,0.33042,-0.17,0.26,-0.17,0.47,0.39,-0.3,0.22,0.1,-0.37,-0.15,0.45,-0.36,-0.08,0.31,-0.08,0.14,-0.18,0.02,-0.39,-0.33,0.05,0.36,0.29,-0.29,-0.31,0,0.33,-0.33,-0.03,0.48,-0.02,0.47,-0.04,0.15,-0.13,-0.32,-0.29,0.45,0.02,0.15,0.47,-0.33,0.13,0.37,-0.21,0.3,0.22,-0.19,-0.44,0.32,-0.47,-0.41,0.07,0.14,-0.19,-0.5,-0.3,-0.39,-0.02,-0.03,0.07,-0.4,0.46,-0.24,-0.15,0.12,0.25,0.42,0.37,0.16,-0.27,0.46,0.24,0,0.33,-0.02,-0.47,-0.39,-0.23,0.23,0.34,-0.21,-0.36,0.2,-0.26,0.25,0.01,0.31,0.25,-0.08,-0.04,0.33,0.28,0.23,-0.25,0.14,0.3,0.0600261,-0.42,-0.160007,0.470001,-0.3,0.43,0.149999,0.270048,-0.17,-0.139955,0.209997,0.0599956,-0.289998,-0.499975,-0.0599998,-0.129818,-0.140003,-0.439965,-0.180009,0.0199989,-0.330001,0.239987,0.300405,0.059979,0.339991,-0.0301604,0.169557,-0.45003,0.140023,-0.429985,0.360001,-0.0498887,0.240241,-0.110249,0.0798142,-0.140059,-0.189947,0.129929,0.459915,0.360431,0.289952,-0.329855,0.189869,0.0198034,-0.07994,-0.400098,0.250019,0.44916,-0.299868,0.389911,-0.260606,0.260032,-0.429926,0.150026,0.47983,-0.269789,-0.340163,-0.489938,0.240189,0.209975,-0.0798958,-0.0798525,-0.339998,0.302398,0.404208,-0.341724,-0.0830012,-0.259315,0.134467,-0.259655,0.465226,0.231951,-0.112715,0.480416,0.324368,0.399719,-0.468758,-0.449718,0.321478,0.127945,-0.448176,-0.323929,-0.139896,-0.479896,0.426856,-0.34991,0.29886,-0.2937,0.434067,-0.108332,0.307936,-0.0610451,-0.175524,0.0890609,0.44826,0.0885522,0.284925,0.464242,-0.542452,-0.339558,-0.38366,0.187567,-0.262874,0.0823548,0.18286,0.451434,-0.295138,-0.103046,0.0222905,0.427799,-0.194751,-0.0819453,0.365143,0.0502239,0.203649,-0.478746,-0.0993579,-0.0643357,-0.231739,-0.0288908,0.26347,-0.194587,-0.228337,0.0792695,-0.0563438,0.302537,-0.390362,-0.430272,0.429305,0.36354,-0.186982,0.225479,0.339284,0.292185,-0.0866626,-0.323702,-0.519798,-0.110023,0.0191945,0.247361,0.132918,0.275114,-0.133704,-0.323032,-0.397629,0.3157,0.34669,0.0558253,-0.433635,0.177113,0.286992,0.0810099,-0.473989,0.133932,0.334554,-0.240889,0.322593,-0.267946,0.527488,0.131323,0.0959152,0.265778,-0.487115,-0.277811,0.335939,0.215806,-0.00816354,-0.0126813,-0.393784,-0.159153,-0.287004,0.180767,0.198921,0.113463,0.0482345,0.118338,0.282734,0.111827,0.267684,-0.0535042,-0.074494,0.471737,-0.373368,-0.275003,0.341505,0.45143,-0.250721,-0.000152899,-0.451806,-0.121401,0.383348,-0.486855,0.212965,-0.21247,-0.451338,-0.485814,-0.432283,0.331014,0.0172932,0.486457,0.289784,0.190882,-0.238296,0.172662,0.404063,0.200852,-0.137483,-0.192191,0.319561,-0.0166796,0.140644,0.406723,0.0231607,0.179747,0.126004,0.183981,-0.0632333,-0.0619769,0.316026,0.0645528,0.1062,0.159335,-0.0972455,-0.207679,0.211309,0.154157,0.406083,-0.426835,-0.429892,-0.345955,-0.217565,0.182573,-0.168036,0.611188,-0.436048,-0.245775,-0.138303,-0.211482,-0.0981259,0.138566,0.597801,-0.03652,-0.0112022,-0.166838,-0.424031,-0.358174,-0.251634,0.529339,-0.239996,0.299814,0.114054,-0.00486841,0.438677,-0.113706,0.268929,0.0625784,0.194057,0.196456,-0.247859,0.214351,-0.469688,-0.171849,0.29298,0.578625,-0.397427,0.574045,0.467619,-0.371933,-0.0243796,-0.151608,-0.0996038,-0.468446,0.434327,-0.581315,0.2189,-0.140643,-0.171044,0.425635,-0.416745,0.343491,-0.246369,-0.197194,0.150226,0.0828459,-0.175194,-0.425266,0.0638249,0.261005,0.349071,0.41681,-0.0344269,0.00481063,-0.0245493,0.0863265,-0.539337,-0.300535,-0.479716,0.467049,0.493411,0.256584,0.312791,-0.0418734,0.0923866,-0.262796,-0.0522124,0.0786877,-0.203363,-0.163131,0.0792709,0.14617,-0.410664,0.459041,-0.162337,-0.0389218,0.103711,0.250868,0.168485,-0.0545597,-0.460368,-0.246629,-0.271364,0.129074,-0.204225,0.318599,0.175303,0.0038357,-0.431643,0.243117,-0.0611561,-0.345804,0.299969,0.0470076,-0.278251,-0.143093,0.276631,0.105483,-0.00781256,-0.336076,-0.107014,-0.3609,0.441465,0.329869,0.427143,-0.273625,-0.33126,-0.346491,-0.365995,0.0399237,0.254532,0.257691,-0.326974,-0.492404,0.291599,-0.185886,-0.0863734,-0.37042,-0.0396189,0.0449544,-0.28468,0.0433488,0.00851727,0.439735,-0.0984166,0.00324413,0.280315,0.254705,-0.329598,0.2198,0.469036,0.373997,-0.270534,-0.390009,0.180057,-0.310655,-0.351579,-0.321495,0.48995,0.150292,-0.279879,0.399671,0.149465,-0.0910024,0.260145,-0.3,0.17,0.09,0.36,-0.21,-0.28,-0.05,0.22,-0.23,-0.01,-0.21,-0.42,0.04,0.33,0.07,0.3,0.18,0.33,0.26,-0.2,-0.21,0.46,0,-0.35,-0.25,-0.11,-0.39,0.01,-0.35,-0.23,-0.31,-0.39,-0.32,-0.13,-0.28,0.12,0,-0.27,-0.23,0.22,-0.4,-0.16,0.32,0.33,-0.47,0.41,-0.16,-0.26,-0.07,-0.4,0.13,-0.04,0.21,0.03,0.26,-0.01,-0.12,-0.44,-0.5,0.48,0.49,0.3,0.29,0.15,0.34,-0.39,0.250117,-0.420018,0.18014,0.209615,-0.179945,-0.319342,-0.0802684,-0.370246,0.449879,0.429908,0.169354,0.00997102,0.109952,-0.340692,-0.360085,0.390168,-0.0995483,0.0497719,-0.359984,0.220022,0.439994,0.0304656,-0.0999786,-0.0600212,-0.160398,0.389038,-0.0102573,-0.17982,0.370143,0.17985,-0.201952,0.350308,-0.0404825,0.359529,-0.0705506,0.261935,-0.300086,0.357741,0.342575,-0.189467,0.0608852,-0.148248,-0.279908,0.480719,-0.329206,-0.420062,0.344999,-0.458656,-0.386772,-0.124885,-0.117252,0.222557,-0.238959,-0.390208,0.182555,-0.497419,0.0630256,0.0508735,-0.106695,-0.327305,-0.128416,-0.230789,-0.357584,-0.498945,0.297973,-0.226335,-0.115256,-0.119735,-0.0279838,-0.464633,-0.0222909,0.253885,-0.210048,0.497707,-0.374115,0.106573,0.29105,-0.142584,-0.469347,-0.331478,0.385732,0.201322,-0.2816,0.2223,0.126771,0.421904,0.274203,-0.207614,0.359686,-0.28092,-0.332913,0.0427544,0.0178886,0.230229,0.311737,-0.192812,-0.222091,-0.568385,0.319237,0.341092,0.467759,-0.366821,-0.178748,0.203411,0.405278,-0.319765,0.342004,-0.30814,-0.0385611,0.0310918,0.322744,0.334877,-0.46233,0.19273,0.30977,-0.140363,0.285451,0.246039,-0.393863,0.19141,0.380604,0.311568,0.122913,-0.269413,-0.0296659,-0.345455,-0.081419,-0.0781232,0.117102,-0.018643,0.0124698,0.397287,-0.0699438,-0.281002,0.0924318,-0.283078,0.169202,-0.0677609,0.364333,0.371219,-0.0283336,-0.222052,-0.273371,0.204194,0.108174,0.032519,-0.0296182,0.321872,-0.306383,-0.357432,-0.178458,-0.313967,-0.327444,0.411514,-0.218436,-0.102594,0.173125,0.192325,0.0288321,0.102206,-0.221396,-0.522819,0.371322,-0.288558,-0.185998,-0.23377,-0.153413,0.454752,0.094616,-0.126814,0.487739,-0.0736617,-0.332335,0.0622723,-0.380325,0.520158,0.369834,-0.170964,-0.0840583,-0.0625098,-0.232951,-0.576681,-0.216809,0.351974,0.0167509,-0.100875,-0.293579,0.437908,-0.265809,0.552869,0.00568061,0.326617,0.258792,0.0965065,0.167419,-0.48549,-0.204396,-0.750172,0.0479105,0.0172158,-0.216721,-0.0273501,-0.358805,0.208732,-0.122239,0.665175,0.022185,0.779219,0.562712,-0.674818,0.119001,-0.0889119,-0.228516,0.0767138,0.222929,0.512439,-0.053393,-0.0737828,-0.0412494,-0.385014,-0.311122,0.350371,-0.363426,0.158,-0.0501862,-0.43191,-0.254763,-0.0746428,-0.514901,-0.569443,0.51684,-0.405705,0.135046,0.450809,-0.68665,-0.0762823,-0.23995,0.069492,0.119889,0.203072,0.424509,-0.617528,0.301226,-0.254207,0.260132,-0.197612,0.00716375,0.35087,0.372873,0.462482,-0.353628,-0.275469,-0.472978,-0.00472655,-0.632468,0.386955,0.0693144,-0.252309,-0.408095,0.121036,-0.265232,-0.921822,0.106913,0.4138,0.156777,-0.011615,0.029511,-0.179517,0.373833,0.0432204,-0.346299,0.292805,0.393117,-0.356864,-0.594801,0.107886,-0.164175,-0.721633,-0.169088,0.127048,0.70387,-0.167745,-0.545221,-0.306239,-0.470569,0.362442,0.0951842,0.219973,0.120445,-0.221611,0.0592869,-0.116784,-0.213554,-0.54649,0.367415,-0.0887382,0.461629,0.113325,-0.542116,0.0667142,-0.00365366,0.0128834,0.164446,-0.327357,0.406995,-0.559766,-0.194917,-0.392484,-0.305841,-0.427106,-0.131193,0.364906,0.279061,0.38878,-0.14667,0.528247,-0.386097,0.0739245,0.0667813,0.208363,-0.388332,0.200475,-0.327681,0.211726,-0.190069,0.244215,0.398699,-0.154599,-0.246358,-0.157497,0.192856,-0.331075,-0.413594,0.437311,-0.173438,0.04445,-0.147152,-0.439584,0.479042,-0.328514,-0.0991622,-0.0862865,0.0410693,0.182867,0.0930727,0.309424,-0.453829,-0.282046,0.31184,0.0209249,0.213956,0.0698468,0.115407,0.0621529,-0.129098,-0.00826709,0.152946,0.455276,-0.247273,0.440855,0.463893,0.134355,-0.100359,0.434394,-0.396941,-0.240295,0.454962,0.341099,-0.12762,-0.202923,0.169849,0.0298254,0.191083,-0.161702,0.0332111,0.470129,0.423962,-0.138106,-0.183581,0.370846,-0.38274,0.170451,0.458806,-0.409468,-0.270137,0.479986,-0.339938,-0.35075,0.220081,-0.309986,0.222212,-0.0598442,-0.0091356,0.150237,-0.369186,0.331538,-0.439415,-0.198381,-0.29,-0.44,0.04,0.06,0.01,-0.16,-0.48,-0.35,-0.25,0.2,0.12,0.18,0.46,-0.24,0.22,-0.03,-0.34,-0.4,0.16,0.31,0.39,0.49,-0.06,-0.06,0.1,0.34,-0.49,-0.27,-0.16,0.27,0.32,-0.39,-0.36,0.0200013,-0.20997,-0.240016,-0.129913,-0.480001,-0.120003,0.399992,-0.150009,0.390011,0.180004,0.0799665,-0.0300127,0.0700032,0.120033,0.370007,-0.500001,0.329929,0.210383,0.429932,0.0407185,0.378069,-0.0698025,0.0121847,-0.481159,0.369135,-0.310697,-0.340397,-0.28222,0.41004,-0.300446,0.40723,-0.479434,-0.110352,-0.357474,0.279815,-0.0583839,0.0877244,0.159966,-0.0296179,-0.389431,0.479522,0.199998,0.00916837,0.189052,-0.25901,-0.0897687,-0.481902,-0.191163,0.480891,-0.184635,0.371274,0.34611,0.439346,-0.24987,-0.47147,-0.151881,0.187919,0.349007,0.416053,0.416103,0.468259,0.399787,-0.43191,-0.218286,-0.323897,-0.0403508,-0.38458,0.421783,0.064213,0.23098,0.0872046,-0.175998,-0.307257,0.245294,0.136085,-0.0397606,0.445865,0.475823,0.347512,0.260496,0.0632482,-0.298405,-0.096569,0.0586013,-0.357088,-0.471567,-0.0281533,-0.0343681,0.0137507,-0.269199,0.121441,-0.157473,0.389353,-0.188565,0.321486,0.357195,0.33711,0.430795,0.319667,-0.349759,-0.0525198,-0.478186,-0.0360672,-0.472117,-0.115534,-0.255055,-0.111541,-0.125025,0.0884428,-0.0135949,-0.296864,0.163414,-0.0740511,0.289603,0.184435,0.275032,-0.378609,0.0167777,-0.361817,-0.282978,0.180021,-0.518103,0.242415,-0.421587,-0.260721,-0.133933,0.0274918,-0.0159543,-0.2199,0.656548,0.149971,0.128837,-0.315926,0.0823898,-0.464124,-0.1424,0.223801,-0.0729228,0.443297,0.514789,-0.237466,-0.149812,-0.144043,-0.179087,0.201315,0.630124,-0.258335,-0.217834,-0.290073,0.339356,0.0336148,0.347859,0.280524,-0.176501,-0.129938,-0.167435,0.160641,0.445523,0.532789,0.257422,-0.499297,0.652116,-0.479503,-0.0941078,-0.321823,0.127314,0.250963,-0.377164,0.356864,-0.512861,0.43306,-0.31191,-0.263034,-0.21805,-0.1965,0.0912189,-0.309928,0.669336,-0.775945,-0.485364,-0.555993,-0.455235,-0.478945,-0.395684,-0.00918145,-0.163647,-0.188731,0.501874,0.254229,0.244616,-0.179917,0.347294,-0.716864,0.810488,-0.416405,0.385359,-0.571818,0.39513,-0.132968,0.265157,0.461575,0.0578722,-0.224316,0.156179,0.139318,0.171705,0.11953,-0.205991,0.0884809,0.350893,-0.57268,-0.0734964,-0.510331,0.409884,0.000559145,-0.097638,0.0699549,0.0293941,-0.0520057,-0.357218,-0.30905,0.136377,-0.343161,-0.269915,0.180977,0.923072,-0.293941,0.0134512,0.144612,0.0382561,0.0881966,0.134183,-0.114294,-0.0727132,-0.449394,-0.209273,0.101795,-0.433128,0.235475,0.274619,0.475766,0.811788,-0.145296,-0.447372,-0.323758,0.215663,-0.267175,0.629857,-0.0621642,0.149351,-0.201595,-0.387878,-0.019973,-0.345521,-0.339094,0.261064,0.26248,0.492134,-0.234094,0.117334,-0.0604188,-0.130566,-0.00527415,0.448235,-0.136306,0.516265,0.182111,-0.0686306,0.133481,-0.166089,-0.146003,0.167226,0.289248,0.807218,0.300659,0.254541,-0.3227,0.177813,-0.470939,0.681275,0.20298,-0.0561262,-0.0405369,-0.636816,-0.289614,-0.237339,-0.184063,-0.279679,-0.419204,0.511355,0.0974792,-0.408138,-0.0359524,0.44919,-0.266609,0.566817,0.486797,-0.0877836,-0.419804,-0.3841,-0.479766,-0.235904,-0.16097,0.131033,0.211946,0.0394348,0.0280663,-0.4118,-0.259602,0.347292,0.272647,0.473534,0.0445171,0.468192,-0.150327,-0.636409,-0.422234,0.329801,0.0689648,-0.42383,0.242282,0.31342,0.311586,-0.0928757,0.387298,0.0849753,-0.148739,0.328322,0.288586,0.751433,-0.326403,0.0502861,-0.20696,-0.256247,-0.265625,0.256293,-0.408559,-0.0957242,0.0522065,0.0555183,-0.0806636,-0.158557,0.00166741,-0.0846956,0.0356606,0.158266,0.390986,-0.272955,-0.186496,-0.239294,-0.236987,-0.27601,0.0774531,-0.466756,-0.385005,0.434002,0.116581,0.0421201,0.308666,-0.0125139,-0.263927,0.00714012,-0.446771,0.367409,0.280522,-0.16107,-0.198284,-0.215794,0.0422894,0.33694,0.0536328,0.235368,-0.244041,-0.372952,0.265792,0.0302255,-0.38297,0.315048,-0.066541,-0.4011,0.0233916,0.234046,-0.135713,0.276505,0.159829,0.283949,0.298397,0.0297097,0.494728,0.328101,-0.404791,-0.408209,0.118664,-0.374854,-0.274312,-0.284863,0.415528,-0.383819,0.336815,-0.461211,-0.0988643,-0.140642,-0.123154,-0.388307,-0.104816,-0.422971,-0.478906,-0.127558,0.428436,-0.302341,0.0892433,-0.412334,-0.0367411,-0.251958,-0.215745,0.320012,-0.429567,0.469839,-0.450829,-0.119738,-0.388827,-0.311087,0.169989,-0.369843,0.451033,-0.271654,-0.500308,0.0714212,0.261049,0.320349,0.0516413,-0.49,0.23,0.05,-0.14,-0.47,-0.22,0.44,-0.34,0.21,0.11,0.32,0.26,-0.42,-0.08,0.02,0.44,-0.3,0.08,0.3,-0.11,-0.07,0.46,0.28,-0.39,0.18,-0.29,-0.41,0.24,0.37,-0.01,-0.08,0.1,0.159896,0.280021,0.390271,0.0493274,0.130279,-0.0308396,-0.259729,-0.0599195,-0.0799912,0.0996781,0.42003,-0.270103,-0.150347,-0.289972,0.449844,0.209412,0.47871,0.452818,-0.425732,-0.119828,0.156903,-0.246229,-0.0584071,0.306684,0.26768,0.401951,0.0602016,-0.441303,-0.450292,0.399935,0.302341,0.105675,-0.198719,0.422689,-0.203313,-0.493975,-0.400667,-0.482906,-0.382909,0.215826,0.496165,-0.106681,0.480927,-0.483676,0.334962,0.453477,0.0663283,-0.359454,0.148024,-0.390477,-0.0265558,-0.261014,0.28859,0.268241,0.0998054,0.176607,-0.167881,0.429673,0.198247,0.133561,-0.473154,-0.461671,0.265606,-0.158959,0.116151,0.351285,-0.0729067,-0.174919,0.49071,0.00881122,-0.183271,0.132887,0.273193,0.125615,0.332633,0.227641,-0.306682,0.389167,-0.143398,-0.484357,-0.22911,0.115057,0.406871,0.123414,-0.000330859,-0.376786,0.10341,-0.347852,-0.29707,0.378407,0.257826,0.270182,0.434724,-0.048893,0.26866,-0.245155,0.00529372,-0.190049,0.759539,0.019081,-0.109744,-0.679759,-0.667555,-0.131759,0.487409,0.105473,0.210413,-0.0320635,0.0973584,-0.214708,-0.308007,-0.225334,0.0143587,-0.512919,0.190604,-0.255564,-0.205742,-0.526409,-0.269006,0.139814,0.367636,0.593847,0.176234,0.43705,-0.0875218,-0.175898,0.314416,0.176746,-0.118452,-0.745132,0.431058,0.22603,0.278158,-0.471151,0.036997,0.380128,0.157901,0.590285,0.0476804,-0.135764,0.306609,0.0686414,-0.000110746,0.649647,0.324039,-0.55895,0.713049,-0.158819,0.154819,-0.836146,-0.300883,0.182675,0.0829468,0.156068,-0.550808,0.5128,0.61243,0.0688179,-0.22498,0.694358,-0.186642,-0.222551,0.766791,-0.597491,0.378367,-0.787632,-0.339227,0.52036,-0.199172,0.180409,-0.327371,-0.579177,0.616836,-0.0416201,-0.138469,0.237726,0.436887,-0.780976,1.0352,-0.368109,0.148309,-0.362498,-0.0508239,0.650563,0.00170209,-0.182512,-0.567542,0.153839,0.0125038,-0.0402936,-0.201552,0.417738,0.262416,0.490196,0.999714,-0.333203,-0.270553,-0.131703,-0.52813,0.365971,0.497516,-0.652206,-0.776258,-0.604387,0.42824,-0.297779,-0.184057,0.491701,0.361182,0.247364,1.27217,-0.530219,0.0185025,0.220659,-0.60104,0.798746,0.042869,-0.450212,-0.169396,-0.223997,0.37608,-0.525345,0.247709,0.0846842,0.127939,0.770332,0.849496,-0.197174,-0.78424,0.186662,-0.768786,0.508739,0.00654307,-0.600667,-0.375277,-0.327987,-0.264792,0.0334782,-0.390657,0.287611,0.334344,0.972087,0.690231,-0.169576,-0.959032,0.732029,-0.334332,0.631866,0.278596,-0.420342,-0.432336,0.103833,0.619546,-0.0341394,0.070262,-0.148751,0.0952241,0.953223,1.02503,-0.412479,-0.342214,0.88274,-0.239232,0.318133,-0.21482,-0.594255,0.11139,0.0477156,-0.0588182,-0.443462,-0.132774,0.562801,0.273287,-0.160427,0.313726,0.704682,-0.145111,0.189992,-0.410207,0.45252,0.446569,0.022756,0.241269,-0.124806,0.306538,-0.411499,-0.234491,0.365066,-0.450672,0.290306,0.652882,0.201293,-0.304822,0.472376,-0.140156,0.505911,-0.188429,-0.168698,-0.218385,-0.448249,0.413888,-0.226242,0.369183,0.222014,0.126902,0.159316,0.385714,0.103298,-0.719255,0.0708736,-0.265866,0.0816052,0.388284,-0.00626387,0.0369139,-0.429827,0.222842,-0.0387413,-0.0392555,0.31285,-0.107207,-0.186729,-0.674743,0.305577,-0.476459,0.0782472,0.000521439,0.567376,-0.157675,-0.370218,0.305195,-0.277055,0.195584,-0.255156,-0.263625,0.4123,-0.490896,0.429657,-0.262001,0.117386,-0.4386,0.376672,0.40458,0.0692686,0.137171,-0.443214,0.483891,0.138409,0.54749,-0.386426,0.506551,-0.130229,-0.52899,0.136123,-0.0480887,0.0365619,0.384908,-0.130674,0.058288,0.241609,-0.319638,0.472744,0.183351,0.423324,0.604421,0.437752,0.0548656,-0.0960265,-0.159512,-0.44131,-0.374174,0.208135,-0.259685,-0.291735,-0.46325,0.0199772,-0.322334,0.154183,0.308378,-0.219598,-0.239422,0.407155,0.23733,0.0761504,-0.0129909,0.157042,0.356403,-0.487246,-0.0165978,-0.437196,-0.00678759,0.24589,-0.433287,-0.179706,-0.22087,-0.441633,-0.247839,0.373507,0.205608,0.308303,-0.370828,0.130287,-0.33022,-0.0299846,-0.0301467,-0.399602,0.350933,0.0899743,0.451383,-0.237224,-0.170383,0.190984,-0.499574,-0.218797,0.4004,0.261436,0.4,0.24,0.04,0.17,0.22,-0.14,-0.37,-0.38,-0.14,0.3,-0.01,0.14,0.32,-0.41,-0.12,-0.01,-0.169999,0.230003,0.190058,-0.220006,0.0500187,-0.210018,0.0399992,0.260033,0.0200273,-0.260011,0.210003,-0.0800008,-0.200005,0.320021,-0.46,-0.200013,-0.0176721,0.339235,0.182272,-0.0896208,0.0127624,-0.371703,-0.334332,0.459903,-0.176825,0.373565,-0.357192,-0.0304683,0.25811,-0.0781997,0.0971403,-0.428513,-0.336419,0.018447,-0.0407392,0.0235283,-0.219961,0.218191,0.412574,-0.285886,-0.191899,-0.0364978,-0.316055,-0.259736,-0.0808962,-0.125074,-0.214041,-0.217945,0.145074,0.490859,-0.325257,-0.368067,0.353496,-0.450579,-0.46317,-0.193474,0.0639546,-0.430597,-0.110541,-0.141867,0.211014,0.516664,0.13929,0.354633,0.339844,0.359894,0.62895,-0.183611,-0.0808241,-0.648434,-0.260084,0.312112,0.213415,-0.259126,-0.118457,0.182338,0.214804,0.0681559,0.210746,-0.475255,0.0605174,0.358467,0.787045,-0.183274,0.227339,-0.0454292,-0.188114,0.117282,-0.286405,-0.0332269,0.0661687,0.316094,0.411097,-0.394753,-0.404343,0.104062,-0.10934,-0.196879,0.330991,-0.410857,-0.0974747,-0.571026,-0.581468,0.557048,-0.233832,0.593162,0.305232,-0.186877,-0.308729,-0.237366,-0.110855,0.394813,0.190366,-0.320221,0.428016,0.322062,0.0333851,-0.34938,0.229333,-0.24099,-0.328913,0.329645,-0.197344,0.00228944,0.000107672,0.323315,0.543667,-0.183723,-0.361873,-0.743903,0.24757,-0.488135,-0.323945,-0.700848,-0.19395,-0.175102,0.435677,0.797148,0.220058,-0.235146,0.700656,-0.0013419,0.371065,-0.241938,-0.179038,-0.847441,0.369582,0.218606,-0.178861,-0.695981,-0.518411,0.073914,0.112256,0.211165,0.048353,0.0193902,0.670985,-0.459264,-0.108094,0.123734,0.442038,-1.13807,0.633753,-0.0310091,0.312625,-0.22881,-0.486957,0.0591328,-0.00979231,0.274634,-0.819988,-0.700073,0.0531837,-0.125208,0.0912487,-0.162657,0.106858,-0.362994,0.631313,-0.633623,0.0430169,-0.700474,-0.679017,0.16052,0.407289,-0.0913887,-0.395854,0.0297093,1.14674,0.449548,-0.255083,0.356898,0.199376,-0.368917,0.829424,-0.455573,0.139395,-0.401829,-0.270643,0.154864,0.587038,-0.47542,-1.76122,-0.561708,0.985086,0.0779125,-0.109452,0.593137,0.211703,-0.425817,0.437164,-0.852137,-0.150373,0.189919,-0.602261,-0.234155,0.251467,-1.04195,-1.43412,-0.188174,1.31325,-0.278138,-0.591986,1.16331,0.257971,-0.354023,0.108076,-0.780959,0.333828,0.219383,-0.104436,0.00441596,0.233999,-0.551524,-2.64213,-0.368417,2.46417,0.2097,-0.981461,0.80501,-0.194553,-0.134456,0.0792289,-0.949502,0.0125935,0.408897,-0.0483664,-0.129598,0.32786,-0.196341,-2.47947,-0.680538,2.24669,-0.350018,-0.359412,1.617,-0.0101616,-0.262913,0.472653,-1.09765,-0.229202,0.312678,-0.47793,-0.12327,0.266611,-0.761543,-1.95856,-0.506277,1.98498,-0.164688,-0.240525,0.82454,-0.00222657,-0.059637,-0.182854,-0.574457,-0.194995,-0.0240736,0.0186459,-0.0316273,-0.16471,-0.225763,-1.43701,-0.503811,1.64981,-0.014907,-0.403637,1.01827,0.192937,-0.102323,0.738654,-0.309868,-0.0880944,0.366662,0.184613,-0.0580261,0.28352,-0.160135,-1.22314,-0.21765,0.740843,-0.0656708,-0.394642,0.598921,0.345813,0.58969,0.379403,-0.308991,-0.500259,0.388291,0.279753,0.694994,0.238204,0.0580751,-0.204482,-0.664832,1.10813,0.397205,-0.0179236,0.324159,-0.500536,0.327585,0.0575521,-0.299846,-0.338624,0.670056,-0.22687,0.362731,0.0700568,0.505292,-0.670249,-0.138011,0.485854,-0.32741,0.00501355,-0.0996545,0.0400929,-0.0783424,-0.585265,-0.225557,-0.391751,-0.0386804,0.55488,0.782551,0.291448,0.414513,-0.150618,0.199681,0.269115,-0.235006,0.457372,-0.0903226,-0.332468,0.43196,-0.203279,0.12855,-0.790231,-0.0507565,0.463698,0.284063,0.16585,-0.173817,-0.254839,-0.136644,0.101962,-0.0438062,0.0779818,0.497039,-0.140127,-0.0960305,-0.691585,0.0922932,0.0740482,0.380322,0.325135,-0.00024753,0.26786,-0.478162,-0.474286,-0.149483,0.410566,0.231727,-0.326736,-0.0510518,-0.44868,-0.25693,0.0514492,-0.395623,-0.0225086,0.577633,-0.238422,0.10898,0.462757,0.0279407,0.327424,-0.318773,0.0669244,0.265774,0.012435,0.494983,0.0906979,-0.421257,-0.384369,0.194798,-0.314393,0.28608,-0.081224,-0.174215,-0.29148,0.0127019,0.226815,-0.448959,-0.193155,0.202846,-0.367685,-0.195579,-0.218663,0.498702,-0.431921,-0.186753,0.41091,0.493197,0.142466,-0.227508,0.476374,0.364002,-0.0842833,-0.0264829,-0.324816,0.358409,0.401603,0.15851,-0.329984,0.240005,-0.0800009,-0.189999,-0.219984,0.0799683,-0.279992,-0.41,-0.499999,-0.449996,-0.379981,0.469999,-0.200011,-0.320025,0.400043,0.189986,-0.408644,0.170314,-0.187645,0.0294888,0.451202,-0.421183,-0.10076,0.109882,0.371665,0.469973,0.331623,0.239841,0.228873,-0.478839,-0.349968,-0.220781,0.363122,0.165948,0.468744,0.342483,0.0943485,0.133589,-0.306931,-0.242616,0.438426,-0.0919251,-0.148899,-0.470351,0.0846841,-0.17091,-0.12397,-0.50301,-0.246741,-0.052219,-0.435385,0.0633209,0.0276865,0.337965,0.0395619,0.0909062,0.296916,-0.407678,0.078489,-0.23921,0.34414,-0.0772441,0.102677,0.298786,0.402158,-0.239733,0.480879,-0.166079,0.42931,-0.59444,-0.528616,0.18885,0.490705,-0.279877,0.15272,-0.294726,-0.0249828,0.166225,0.223347,0.192755,-0.415147,0.397688,0.157652,0.254837,0.353922,-0.372224,0.125331,-0.256002,0.37286,-0.256712,0.0879624,-0.448129,0.11732,-0.0937794,0.0971192,-0.420082,0.107176,0.311882,0.815969,0.00906138,-0.2919,-0.0570735,0.313654,0.522559,-0.440676,0.0420635,0.269846,-0.220017,0.186435,-0.466744,0.366097,0.362408,-0.0526521,0.0285179,0.101648,0.0398716,0.486569,-0.641019,-0.501978,-0.242064,-0.0948315,0.780972,0.102508,0.0969199,-0.250154,0.22422,-0.277012,-0.425867,0.347701,-0.814151,0.83264,-0.221494,-0.382095,-0.0656626,-0.0917412,0.388558,-0.361235,0.533698,0.316554,-0.269148,-0.30611,-0.186801,-0.340275,0.315979,0.249626,-0.928605,0.026748,-0.0713513,0.531608,-0.831795,-0.234712,-0.203402,-0.256811,0.224207,0.888664,0.0906959,-0.641975,0.248499,0.338514,0.142267,0.896955,-0.40872,0.517044,-0.0118083,0.579221,-0.58589,-0.0463977,-0.0124107,0.144422,0.264214,0.579305,-0.439671,-0.12397,0.0420325,-0.367675,-0.658387,0.431902,-0.803726,0.184964,0.0541098,0.0535944,-0.295456,-1.02504,-0.607002,0.338672,0.142713,0.229639,0.252486,-0.378733,0.0232012,-0.479451,-0.0895053,0.933479,-0.567599,0.142817,-0.547558,0.444761,0.113345,-0.394205,-0.497734,-0.010371,-0.0151135,-1.03814,-0.71243,0.560557,0.000265156,-0.955039,0.235833,0.875696,-1.27137,-0.0626253,-0.45763,0.21392,0.165981,-0.735719,-0.368895,0.30816,-0.0728271,-0.798524,-0.520469,0.706089,0.502627,-0.639901,0.756779,0.137016,-0.849525,-0.207154,-1.26083,-0.0148673,-0.44481,-0.614395,-0.172651,-0.153432,-1.1677,-1.5273,-0.882907,1.96486,-0.0658936,-1.32312,1.54736,0.191719,-1.05327,-0.957927,-1.0294,0.207401,-0.395025,-0.678576,-0.6441,0.115419,-0.801607,-2.13375,-0.794422,1.85476,0.717593,-1.45313,1.59179,0.722629,-0.998337,-0.440125,-1.30053,-0.286221,-0.591654,0.0830924,-0.587325,-0.053112,-0.24917,-2.12858,-0.560114,1.75849,0.18685,-1.07685,1.50336,1.34465,-0.709814,-0.242982,-0.624232,0.325906,0.016268,0.100319,-0.385804,0.424842,-0.38596,-2.21838,-0.059781,1.86423,0.0223145,-1.37626,1.5265,1.03327,-0.473603,-0.163256,-0.0775144,0.282241,-0.46781,0.142574,0.0731884,0.264442,0.045059,-1.56274,-0.769377,0.90541,-0.164347,-0.520099,0.706871,0.682857,-0.550624,-0.264072,-0.235874,0.043771,-0.6709,-0.200235,0.271954,0.337904,-0.390236,-1.31187,-0.608506,0.623928,-0.171312,-0.310805,-0.248685,0.567078,0.45928,0.559268,-0.243519,0.0434082,-0.483478,0.148829,-0.2261,0.351654,0.219098,-0.851918,-0.392398,0.223158,0.170254,-0.149654,0.107369,0.165781,0.884095,0.314928,0.0647517,-0.0453729,0.487011,0.427091,0.303696,0.414889,0.237072,-0.349334,-0.361396,0.507236,0.352996,-0.177587,-0.293008,0.0625955,0.137284,0.351489,0.386561,-0.454512,0.061585,-0.258595,0.8883,-0.201513,-0.0874683,-0.0640789,0.579371,0.0963168,0.269037,0.333433,-0.151623,-0.502057,-0.10613,-0.835954,-0.0168937,-0.064271,0.63563,0.104051,0.311243,0.453231,0.389444,-0.375155,0.0580726,0.20807,-0.45498,0.00741631,-0.200393,-0.554453,-0.197506,-0.0604103,-0.237898,-0.678009,0.230151,-0.0280288,-0.00398038,0.657695,0.376071,-0.116355,-0.133335,0.128098,0.416444,0.147478,-0.352447,-0.637606,-0.299516,-0.0589578,0.0539229,0.27934,0.164798,0.0409046,0.168484,0.627861,0.129601,-0.382984,0.483266,-0.0299765,0.0889061,-0.364835,-0.353875,0.337479,0.21239,-0.128956,-0.0913074,-0.155835,0.214559,-0.402405,0.386745,-0.204778,0.407668,0.221483,-0.0845872,0.58607,-0.0671436,-0.082155,-0.307435,-0.231534,-0.308734,0.277426,-0.515423,0.483698,0.443244,0.228814,-0.256942,0.441232,-0.284316,-0.233144,0.341291,0.260463,-0.481496,0.421206,0.413893,0.179906,0.340018,0.369919,0.169892,0.369348,0.330439,0.0601453,0.120078,0.459994,-0.330579,0.109042,-0.159932,0.320347,0.4299,0.211176,-0.220058,0.0329778,-0.30813,0.00193465,0.401103,-0.190798,-0.25225,-0.220455,0.118214,-0.279621,0.113397,0.0604717,-0.160166,0.118446,-0.131437,-0.230311,0.159411,-0.40806,-0.330352,-0.352858,0.456633,-0.383786,0.447358,-0.413116,0.447701,-0.176997,-0.0519519,0.384811,-0.244357,-0.289665,-0.243282,-0.167049,-0.187635,0.574874,0.191543,-0.0357134,-0.124376,-0.252733,0.108448,-0.462737,0.0973345,0.294931,-0.0975855,-0.224588,-0.0223465,0.368762,-0.0443526,-0.445417,-0.485373,0.594554,-0.490837,0.305828,0.0450746,0.149273,-0.110229,0.0237114,0.443675,-0.389145,0.60685,0.231464,-0.522662,-0.611058,-0.164423,0.182528,-0.564417,0.0548983,0.328737,0.195585,0.1122,0.432412,-0.0469366,-0.329196,-0.072668,0.000271995,-0.194038,0.610756,0.0750196,-0.44547,0.166505,-0.271192,-0.28702,0.721081,-0.0889948,0.955714,0.502407,-0.146417,-0.692147,-0.697086,0.26143,0.0299742,0.604153,-0.00566164,0.305266,-0.400013,-0.195534,-0.487852,-0.419052,0.141448,-0.694269,0.135532,0.367941,-0.419615,-0.0685858,-0.485622,-0.223581,0.311274,0.303779,0.364462,-0.373023,-0.530029,0.165038,0.399424,-0.513006,0.350017,-0.453324,0.549584,0.308486,-0.000886641,-0.504643,-0.608935,-0.3967,0.1482,0.498915,0.567437,-0.322721,-1.07381,-0.194942,0.0881032,-0.55427,0.763154,-1.28959,0.0903018,0.346296,-0.207773,-0.348429,-0.185007,-0.20669,0.306226,1.05442,0.440909,-0.0277787,-1.47275,-0.382204,-0.272168,-0.511193,1.20263,-1.10276,-0.185491,0.421604,0.122109,-0.493892,-0.259234,0.323337,0.103324,0.376538,0.424224,0.400636,-1.18154,-0.0975372,-0.429,-0.110267,1.21841,-0.907912,-0.160709,0.181787,-0.0993651,-0.0759991,-0.666961,-0.127714,0.197592,0.49908,0.204239,-0.218336,-0.861328,-0.242432,-0.898234,0.175134,1.21449,-0.456068,-0.478199,-0.521841,-0.0479821,0.69363,-0.58252,-0.346965,0.0318735,0.145973,-0.254713,-0.341722,-0.338052,-0.248017,-1.22596,0.644533,0.680211,-0.67521,-0.556529,-0.88869,-0.362165,-0.311337,0.109614,-0.207643,-0.0927084,-0.582266,-0.673285,0.0802198,-0.0215798,0.310671,-1.59412,0.521453,1.67849,-0.87923,-0.167339,-1.04614,0.165524,-0.182702,-0.542377,0.00772823,0.270737,-0.399927,-0.603861,-0.386807,-0.493914,0.210109,-1.42539,0.650459,1.42538,-1.17971,-0.203717,-0.208895,0.00401461,-0.351358,-0.310864,-0.334953,-0.0950511,-0.620095,-0.533675,-0.419683,-1.06202,0.147711,-1.25792,0.406637,1.65721,-1.38244,-0.316252,0.255382,0.599843,-0.843515,-0.0234325,-0.000917298,-0.463832,0.576557,-0.879133,-0.70975,-1.04906,0.154264,-1.01801,0.00178277,1.95698,-1.84582,-0.228244,0.371655,0.385673,-1.21211,0.272018,0.325651,0.167148,1.03232,-1.20207,-0.501092,-0.415279,-0.707616,-1.13877,-0.01516,1.71657,-1.93729,-0.371715,-0.0991825,0.612623,-0.637153,0.575643,-0.00644092,0.0175443,0.472285,-0.966011,-0.36863,-0.720541,-0.0675701,-0.825842,0.219621,1.59971,-0.406362,0.288076,0.144005,0.712367,-0.694465,0.465941,0.235198,-0.0863525,-0.0234021,-0.50479,-0.178414,-0.10417,-0.292645,-0.970436,-0.396439,1.38246,-0.192422,-0.210832,-0.363742,0.163365,-0.347828,0.249714,0.206727,-0.249501,-0.292851,-0.703017,-0.126938,-0.639922,-0.0385357,-0.368192,-0.745266,0.831883,0.924691,-0.27931,-0.228426,-0.616243,-0.281781,-0.0902402,0.167186,-0.260398,-0.0716946,-0.189377,-0.0633652,0.338202,-0.0606055,-0.0420897,0.202814,-0.168724,1.05105,-0.0423208,-0.107121,-0.721139,0.842005,0.0302441,-0.107149,0.235882,0.516486,-0.69906,-0.00917515,0.685016,-0.213116,0.523846,0.226199,-0.51203,0.289565,-0.415009,-0.0139581,-0.646617,0.47572,0.0830419,0.886621,-0.0396615,-0.309654,-0.77071,0.237802,0.292121,0.203575,0.331224,0.00491675,-0.345199,-0.151528,-0.532003,-0.179299,-0.59031,0.3603,0.706702,0.543714,0.701024,-0.193558,-0.296785,0.722326,0.953954,-0.133914,0.426011,0.733003,-0.681925,0.475379,0.171837,-0.226485,-0.259011,0.446972,0.230653,0.530134,-0.109012,0.277211,-0.0503296,0.463018,0.132149,0.430544,0.527999,0.563647,-0.368217,0.457019,-0.102617,-0.48993,0.319293,-0.0283457,0.166244,-0.0538669,-0.158744,0.207551,-0.58202,0.252637,0.341912,-0.436759,-0.260433,-0.219837,-0.303041,0.289397,0.398777,0.483954,-0.350248,0.143592,-0.0580252,0.0324805,-0.0680994,0.420782,-0.447152,0.0425005,0.456158,-0.0513051,0.0518674,-0.0552723,-0.389536,-0.499865,-0.490072,-0.189994,0.320033,-0.370054,0.209977,-0.380125,-0.19001,-0.399733,-0.119752,-0.0300721,-0.410278,-0.120067,0.439974,-0.30031,0.0947063,0.466089,0.488527,0.188081,0.00288674,0.0659346,0.0575144,-0.263569,0.419899,-0.0326952,0.0521331,0.487107,-0.264788,0.107718,-0.0982524,0.248016,0.0798232,0.191444,-0.0553212,-0.425244,0.286223,0.410867,-0.0400939,-0.292701,0.133509,-0.142695,0.422478,0.483653,-0.39452,-0.126376,-0.151596,0.20704,0.678646,0.124274,0.300636,0.154738,0.148716,-0.584705,-0.301903,-0.38917,0.240884,-0.400387,0.447144,-0.0315647,-0.596324,0.159645,0.234732,-0.112446,-0.0544559,-0.135291,0.703604,-0.352984,0.24905,-0.0306519,0.247359,-0.179676,0.322769,0.0189565,0.503914,0.439065,-0.62568,0.0174771,-0.367385,-0.213491,0.713038,0.103111,0.692328,0.446004,0.572874,-0.478306,0.298715,-0.216266,-0.366438,0.713306,0.416908,-0.031618,-0.824989,0.116255,0.281063,0.0315012,0.17044,-0.633599,0.119632,0.0516845,0.167459,-0.745426,-0.341817,-0.0881194,-0.318525,0.719384,0.724075,0.271034,-0.948125,-0.241297,0.140149,-0.386518,1.05986,-0.444582,-0.309442,0.486787,0.441941,-0.320027,0.133147,-0.0878508,0.0215061,0.464185,0.374861,-0.207807,-0.875359,-0.322548,0.453786,-0.769986,0.885176,-0.718731,-0.550143,0.371516,0.0550975,-0.535332,-0.10231,-0.0884071,-0.142064,0.107395,0.46661,0.365261,-1.72649,0.0173934,-0.306779,-0.271387,1.39006,-1.07398,0.050109,0.248836,0.575838,-0.0498701,-0.818107,-0.483871,0.497139,0.0667652,0.174323,-0.103738,-1.34401,-0.16274,-0.288926,-1.02487,1.33563,-1.11215,-0.911173,-0.0631847,-0.0593063,0.425645,-0.496141,-0.159259,-0.254408,0.304624,-0.147141,0.0357184,-0.897356,0.263885,-0.0200911,-0.0598196,0.807034,-0.132819,-0.959153,-0.111372,-0.390976,0.361591,-0.672266,0.279543,0.440966,-0.315693,-1.12665,-0.0239003,-0.0293814,0.274042,-1.1356,0.296724,1.24319,0.0468335,-0.94695,-0.295384,0.30171,0.317203,-0.270894,-0.247401,0.28237,-0.244429,-0.683314,0.0894948,0.117388,-0.495566,-1.28463,0.57926,1.3092,-0.737431,-1.01392,-0.6436,0.165097,-0.0260655,0.0840545,-0.242458,-0.321089,-0.0983386,-0.394879,-0.248366,-0.695452,-0.295347,-0.549391,0.535466,1.54656,-0.660132,-0.390738,-0.00512892,0.474979,-0.948168,0.448752,-0.870354,0.312297,-0.124991,0.277687,-0.344843,-1.00333,-0.276829,-0.314234,-0.308762,1.59447,-0.758591,0.428819,0.45647,0.889643,-1.19448,0.303629,0.0096013,-0.449755,0.584633,0.931505,-0.312225,-1.62185,-0.181486,-0.10789,-0.371019,2.19489,-0.878753,0.347976,0.399137,0.858031,-0.982098,0.0155777,0.100538,0.179045,0.914583,0.0342596,0.0985821,-2.20528,-0.997595,-0.807115,-0.504578,2.55367,-1.19617,0.416872,0.895173,0.482194,-0.9283,0.493602,0.103458,-0.288,1.0827,-0.86353,-0.202461,-0.959318,-0.394448,-0.141725,-0.101061,2.02632,-0.754612,0.115908,0.229385,0.553337,-1.36318,0.316325,0.0607463,-0.310969,0.147312,-1.49469,-0.272736,-0.644067,-0.650595,-0.237286,0.0622697,1.49564,-0.139506,-0.454753,-0.472876,0.0802924,-0.476419,-0.131846,-0.127885,-0.026965,0.1534,-0.652616,-0.609051,0.0149774,-0.0600371,-0.856299,-0.220278,1.01776,0.697593,0.0623344,-0.0181381,0.0699922,-0.492231,-0.599106,0.187946,-0.310386,0.0271713,-0.458598,-0.188182,-0.422188,-0.245737,-0.28446,0.0644769,0.405888,0.484492,-0.350334,-0.171728,0.456912,0.422588,0.138558,0.195379,0.514275,-0.249805,-0.0990019,-0.100201,0.0107928,-0.459455,-0.659003,-0.450708,0.458017,1.17345,0.0054469,-0.179233,-0.302987,0.492059,-0.550731,0.449996,0.395659,-0.0264543,0.0581974,0.318958,-0.0279191,-0.606072,0.442232,-0.198422,-0.0557855,0.266722,-0.700281,0.146139,-0.73201,0.497148,-0.334332,0.122441,0.52492,0.0197865,-0.279063,0.0922627,1.23245,0.163426,0.723996,-0.201629,-0.831046,0.708725,-0.339393,-0.197293,-0.61611,0.354782,0.0366869,-0.209098,0.0969717,-0.354086,-0.98392,0.116821,0.834783,-0.497661,0.341304,0.910574,-0.317791,0.385421,-0.0506933,-0.380895,-0.0908357,-0.106635,-0.276183,0.275376,-0.0893605,-0.0485259,-0.270504,-0.306308,0.378268,-0.156002,-0.282371,-0.146153,0.379837,0.112576,-0.0812118,-0.411204,0.219087,-0.0522649,-0.419051,0.302006,-0.242411,0.202738,0.329586,0.111098,0.297775,-0.0962946,-0.296003,0.0573523,-0.412912,0.418861,0.368449,-0.208254,0.472781,-0.256373,0.090301,-0.156662,-0.315918,0.222021,0.30023,-0.058453,-0.293539,-0.159017,0.38412,-0.194783,-0.179272,0.170332,0.349952,0.450007,0.100045,-0.440041,-0.500028,-0.0101452,-0.120014,-0.479531,-0.479544,0.149919,-0.100547,-0.360106,0.389936,-0.29052,0.0488283,-0.00767823,-0.251238,0.11269,0.37407,-0.232771,0.000236094,0.236822,0.270162,0.244583,0.0742303,-0.500928,-0.356866,-0.464036,-0.100691,-0.473064,-0.218753,-0.0671154,0.418185,-0.136939,-0.287492,0.276951,0.268645,-0.470509,0.437256,-0.137752,-0.060314,-0.315482,0.431316,-0.202779,0.300268,-0.476351,0.563189,-0.0381018,0.132883,-0.306075,-0.00964082,0.279938,0.176914,0.371492,0.018231,0.312917,-0.310677,0.104125,-0.275515,0.256236,-0.290948,-0.0584091,-0.0810507,0.203072,-0.229038,0.435788,0.0866463,-0.0672017,-0.351866,-0.269619,0.420465,0.522821,0.560821,-0.371456,0.241469,0.210166,0.417271,-0.0695053,0.590135,-0.338738,-0.320201,-0.262811,-0.329447,-0.0401224,-0.247814,0.0911873,0.328072,-0.141977,0.126752,0.0271011,-0.480697,0.314966,0.384447,-0.273887,0.982699,-0.368365,-0.0497882,0.21579,-0.252591,-0.0875448,0.179713,-0.381939,0.33396,-0.0315536,0.805154,-0.130658,-0.165135,0.368537,0.0280684,-0.519192,0.205549,-0.777039,-0.288482,0.558223,0.137399,-0.267497,-0.0931499,0.0478597,0.377837,0.210513,0.307339,-0.460865,-0.57652,-0.20421,-0.0873653,-0.285506,0.848348,-1.11866,-0.493376,0.618836,-0.323866,-0.367264,-0.175607,0.216332,-0.152886,0.361559,0.42074,-0.525739,-1.0787,-0.393086,-0.135192,-0.0346934,0.566781,-1.05828,-0.885564,0.036535,0.0829159,-0.179785,-0.235435,-0.415604,0.631377,-0.212741,0.0641113,-0.232658,-0.83499,-0.667218,-0.0667761,0.0281655,0.515715,-0.383553,-1.84711,-0.620764,0.207412,0.364929,0.193262,-0.583218,-0.195322,-0.0456379,-0.491286,-0.242999,-0.10214,-0.17224,-0.851089,0.913914,0.660463,-0.637837,-1.74232,-0.612753,-0.301238,0.852617,0.130005,-0.567594,0.289112,-0.183185,-1.15089,0.321855,0.419542,-0.182367,-0.526976,1.41287,0.807519,0.084843,-1.73823,-0.463551,-0.234597,1.42479,0.416894,-0.507442,-0.145797,-0.490382,-0.946223,0.263075,0.234969,-0.315871,-0.717094,1.36811,0.294525,0.267965,-1.04746,-0.331831,0.488486,0.679023,0.0709055,-0.411748,0.296103,-0.33762,0.53364,-0.198943,0.0675671,0.290868,-0.474466,1.08179,1.1533,-0.623532,0.662481,0.623032,0.303678,-0.385012,0.874767,-0.113959,0.176789,-0.0156164,0.833175,-0.281996,-0.767707,-0.330634,0.533872,0.372571,0.989843,-0.551221,1.1859,0.91337,1.18757,-1.00815,0.903662,0.204185,-0.368301,0.618274,0.180348,-0.449435,-0.389141,-0.430577,0.144449,-0.340268,1.72788,-0.215024,0.640392,0.877413,0.501287,-1.24391,0.694195,0.182438,-0.0359404,0.722056,-0.0281714,-0.525111,-0.57495,-0.477658,-0.132038,-0.444527,1.64227,-0.365813,0.852883,0.456372,0.735869,-0.581174,0.437549,-0.257221,-0.358223,0.911085,-1.28688,0.0299704,0.240607,-0.398512,0.137494,0.351077,2.19141,-1.14057,0.442823,-0.282404,0.485445,-0.567487,0.0530988,-0.282662,0.577267,0.470628,-1.35924,-0.2242,0.111784,-0.128631,-0.444407,0.338792,1.83893,-0.197353,0.116361,-0.878615,0.155632,-0.323949,-0.50869,-0.124412,0.247809,-0.529427,-0.53208,-0.650131,-0.0718183,-0.10457,-0.0631519,-0.262916,1.57135,0.653108,0.418576,-0.279778,0.269405,-0.241899,-0.75689,0.000643181,-0.387639,-0.0307964,-0.259719,-0.521352,-0.606828,-0.50542,-0.26375,0.0770025,0.664093,0.623382,0.00118941,0.00157309,0.0182478,0.0628343,-0.458812,-0.276742,-0.657478,-0.284298,-0.201026,0.0753039,-0.587139,-0.0876906,0.0130411,0.133086,0.631116,-0.0840884,0.348687,-0.284163,0.4469,0.104059,0.0601906,-0.015845,-0.174961,-0.241899,0.12086,-0.245425,0.0363394,-0.0472267,0.225913,-0.436259,0.670374,0.0300917,-0.0499952,-0.379793,-0.261326,0.76423,-0.448327,0.0767149,-0.111523,0.443695,-0.0859905,-0.502613,0.478259,0.0304014,-0.0530408,-0.160699,0.215686,0.38494,-0.269336,0.128119,-0.549523,0.109183,0.33364,-0.00416684,0.224792,-0.491291,-0.0110526,-0.361754,0.580154,-0.43441,0.158003,0.624892,-0.331477,-0.243301,-0.00540625,-0.349231,0.0938307,0.554054,0.458816,-0.246978,0.557535,-0.174299,-0.110546,-0.151767,0.172212,-0.395239,0.0757453,0.535503,-0.434128,-0.217929,-0.379673,0.27168,-0.282829,-0.159093,0.283254,0.46669,-0.0949601,0.197087,0.306551,0.491164,-0.194346,-0.411116,-0.161973,0.349121,-0.452097,-0.0403925,0.118263,0.301766,0.410163,-0.0794608,0.0104038,-0.142665,-0.0486014,0.0419281,-0.413886,-0.269416,0.182714,-0.130306,-0.324158,0.180118,0.470397,-0.0197607,-0.00995908,0.340018,0.360131,0.469894,0.16004,0.289957,0.410004,0.380201,0.120325,0.0899943,0.309659,-0.260168,0.200049,0.0697332,-0.09274,0.26306,0.179794,-0.185697,-0.213415,0.285347,-0.0103461,-0.265764,0.269689,-0.0545253,-0.233714,-0.370281,-0.273045,0.263486,0.101253,0.276139,0.069634,-0.381483,-0.331342,0.243198,-0.087954,-0.458024,0.107859,-0.293601,-0.0447937,0.355226,0.111616,-0.104218,-0.2175,0.040495,0.413532,-0.521065,-0.197619,-0.119481,-0.0570443,-0.133938,0.253727,-0.483606,0.467777,-0.471561,0.0619153,0.492043,0.172093,0.242723,0.35069,0.385062,-0.213849,-0.265507,0.073523,-0.471589,0.0246454,0.562921,0.533234,-0.0858504,-0.430089,-0.303039,-0.0812404,0.069227,0.17742,-0.31398,-0.673518,-0.333529,0.464183,-0.157571,-0.225248,-0.227331,-0.112501,-0.224865,-0.0158207,-0.0637526,-0.0792338,-0.494079,-0.103201,0.315288,-0.0441564,0.270318,-0.383313,-0.387929,-0.0162921,-0.19961,-0.0737923,-0.472073,-0.955276,0.334999,-0.251613,-0.403045,-0.25831,0.0867388,0.347826,-0.266897,0.454945,-0.2627,-0.0437999,-0.5478,0.22099,0.159498,0.789792,-1.14261,-1.2442,0.489144,0.470593,-0.0868931,-0.316894,-0.00864004,0.286746,0.519611,0.152916,0.212263,-0.753997,0.076805,-0.0428013,0.0262067,0.39509,-1.84332,-1.70904,-0.0892542,0.314682,-0.193616,0.29943,-0.302507,-0.0971361,0.0961905,0.220087,-0.384769,-1.19399,-0.260888,0.350762,-0.173312,0.401997,-1.5626,-1.52748,-0.509436,0.315608,-0.520865,0.240866,0.0271099,0.178332,-0.575016,-1.02182,0.168633,0.0703617,0.0295921,0.00844872,0.925664,0.0794643,-0.294827,-1.57507,-0.876675,-0.158199,0.350075,-0.240649,-0.130806,0.923879,-0.699947,-1.5169,0.394803,0.602521,-0.636482,-0.486753,1.04451,0.0644591,0.182762,-1.94629,-1.09166,-0.345517,0.383883,-0.140714,-0.213504,0.840686,-0.978535,-1.31427,-0.335052,1.24156,-0.0328012,-0.0847066,1.26877,-0.102901,1.27955,-0.891995,-0.263537,-0.161267,0.773863,-0.145105,-0.00520268,0.799475,-1.24401,0.0384913,-0.192931,0.322736,-0.187961,0.0862731,0.672843,0.6162,1.38883,-0.296886,-0.480573,0.0822905,0.867318,0.237287,-0.230287,0.459108,-1.09852,0.508961,-0.618143,-0.223358,-0.0079581,0.307599,0.140525,0.0892869,-0.382013,-0.224652,-0.239727,0.856768,0.0482004,0.939758,0.35434,0.460813,-0.528527,-0.160447,-0.35441,0.185761,0.33408,0.413564,-0.00889374,0.558081,0.011798,0.526872,-0.108096,0.52885,-0.948056,0.835246,-0.166898,0.59866,0.508565,-0.759535,-0.334333,0.219537,-0.556069,0.306331,-0.0479563,0.35491,-0.570609,0.667403,-0.136736,0.43255,-0.453606,0.550118,0.0742935,0.223445,0.0826296,-1.13278,-0.487973,1.02599,-0.671844,0.487397,0.365577,1.50141,0.164805,0.674184,0.0378247,0.333087,-0.147355,-0.141624,-0.358617,-0.0725497,-0.226038,-1.05436,-0.397691,0.831151,-0.670437,0.0508754,0.657918,1.02648,0.510517,-0.0699624,-0.993752,0.691671,-0.786976,-0.168082,-0.158854,-0.100669,-0.577316,-0.97641,-0.732538,0.817786,-0.494793,-1.02404,0.657262,1.27271,0.586499,-0.00574062,-0.576257,0.260441,-0.949669,-0.553597,-0.395851,0.0746956,-0.217472,-0.22251,-0.513682,-0.20169,-0.280983,-0.789867,-0.265229,1.23019,0.432674,-0.511509,-0.769629,0.804771,-0.403912,-0.678919,-0.360739,-0.232537,-0.486925,0.592492,-0.0333846,-0.75493,-0.107375,-0.136849,-0.046101,1.03262,-0.654461,-0.497734,0.214499,0.765563,-0.874883,-0.677888,-0.123963,-0.845067,0.414509,0.320595,-0.609474,-0.294562,0.0800239,-0.493988,-0.609064,0.216355,0.252877,0.445016,-0.272922,0.143969,0.0629044,-0.0471119,-0.407367,-0.784178,-0.27725,0.400923,-0.467117,0.135911,0.213402,0.316992,0.207075,-0.0331784,0.005737,-0.364403,0.1015,0.364221,0.121036,-0.26479,-0.0887599,-0.493206,-0.143421,-0.410482,-0.681985,-0.299445,0.0307371,0.00651519,0.29636,0.356483,0.203105,0.101532,0.242913,-0.457646,-0.126739,-0.14465,-0.2094,-0.420338,-0.323019,0.15267,0.177605,0.393041,-0.328112,0.422471,0.131954,-0.022666,-0.472375,-0.459343,-0.186305,-0.250773,0.297339,0.1882,0.394597,-0.154827,-0.0272498,0.138678,0.431106,0.113834,0.101778,-0.00186534,-0.183342,-0.414824,0.381061,-0.441861,-0.108413,-0.423372,0.391968,-0.116233,-0.396023,0.158839,-0.3829,-0.17619,-0.132768,-0.288333,0.450164,0.412265,0.0687159,0.227489,0.00930685,0.439682,0.0203427,0.410276,-0.471864,-0.489029,0.270676,0.130814,0.0121406,-0.22708,-0.370425,-0.38877,-0.0796016,0.0219207,0.490165,0.430552,0.000165079,0.130147,-0.499999,-0.0799554,-0.0700424,-0.129974,0.110003,0.0598421,-0.329554,0.26086,-0.289991,-0.240507,0.429636,-0.499751,-0.48004,-0.329997,0.430594,0.259613,0.402555,-0.0538128,-0.455625,-0.0500619,-0.158429,0.259297,0.276401,-0.0939233,-0.470432,0.107637,0.217569,0.350832,0.308106,-0.0940368,-0.231883,0.0566814,-0.0899653,0.141967,0.472101,0.286723,-0.423615,0.0269668,-0.131209,-0.398398,0.427419,-0.389013,-0.101793,0.255808,0.191914,0.245233,0.0573518,-0.366125,0.197271,-0.284212,0.100352,-0.103384,0.126804,-0.0366897,0.355861,0.443437,0.403834,-0.575023,-0.0534761,0.361115,-0.53567,0.479352,0.0902258,-0.0880075,-0.148915,0.515468,-0.40394,-0.457593,-0.506846,0.268998,-0.120491,0.331665,-0.367905,-0.538963,-0.271379,0.213365,0.174432,0.759121,0.00176644,-0.479083,0.267735,0.413875,-0.377598,0.12102,0.186458,-0.379927,-0.11797,0.575968,0.0875159,-0.167008,-0.153561,0.238156,0.233537,0.731907,-0.868452,-0.712373,0.22701,0.323203,0.184971,-0.218498,-0.707457,0.555772,-0.210306,-0.0017493,-0.569028,-0.271418,-0.237002,0.161813,-0.135501,0.120088,-1.51553,-1.41668,0.271974,0.315541,-0.418605,0.267786,-0.625416,-0.231854,0.0563472,0.474658,0.0944274,-0.307412,-0.342958,0.0345368,-0.198817,0.830353,-1.12195,-1.11392,0.340027,-0.10903,-0.335319,0.715417,-0.426341,0.287649,-0.422263,0.227859,0.0390535,-0.336468,-0.196914,-0.0102281,-0.484102,0.32576,-0.716572,-1.70499,-0.486562,0.0624596,-0.613549,0.719803,0.145036,0.591993,-0.127398,-0.338579,-0.224543,0.414874,0.26845,-0.298409,0.288241,0.136997,-0.458494,-1.64285,-1.03678,-0.260036,-0.628775,0.300107,0.0575909,0.539949,-0.892017,-0.843431,-0.208012,1.96613,0.0302916,-0.0979101,1.35021,0.073889,0.644575,-1.18374,-0.715288,-0.804868,0.198891,0.0945834,-0.146553,1.07547,-0.809206,-0.663083,-0.610467,1.17673,0.248563,0.317639,0.714474,0.585098,1.13991,-0.646286,-0.66806,-0.0761273,1.24291,-0.115244,0.421018,0.930975,-1.66599,-0.0536695,-0.438867,0.909605,0.645633,-0.537911,-0.382869,0.18918,0.925079,-0.0218476,-0.301803,0.064241,1.02657,0.168818,0.514353,0.436008,-0.925818,-0.109883,-0.746312,0.110621,0.497341,-0.540334,-0.758701,0.0699403,-0.262282,0.29927,-0.099121,0.567994,-0.0874254,0.665972,-0.0755877,0.144753,-0.972053,-0.982964,-1.14535,0.715672,-0.147933,0.292674,0.09324,-0.0130899,0.468739,0.336825,-0.200154,0.547749,-0.172143,0.650359,-0.0574937,-0.163557,-0.476319,-1.25157,-0.793049,1.41759,-0.417137,0.544116,0.538354,0.150498,0.202106,0.175859,-0.514843,-0.126409,-0.164618,0.0691239,-0.767005,0.766008,0.0247257,-1.46538,-0.559128,1.13764,-0.342889,-0.45948,0.261679,1.33594,0.454301,-0.641378,-0.750387,0.149718,-0.780924,0.0837616,-0.213427,0.487856,-0.263913,-1.52439,-0.519967,1.28947,-0.322551,-0.95564,1.0055,1.23966,0.589325,-0.326691,-1.11649,0.520591,-0.213231,-0.282627,-0.234713,0.24983,-0.588516,-1.08611,0.0527412,0.363531,0.202308,-1.16193,0.468788,0.952313,-0.237928,-0.384307,-0.962666,0.372116,-0.545595,0.126167,-0.111256,-0.136977,0.000293426,-0.490354,-0.547982,-0.402294,-0.12783,-1.20374,-0.371532,0.712679,-0.884784,-0.355257,-0.355143,0.0320767,-0.631408,0.0223708,-0.630795,-0.436419,0.0440549,0.4676,0.118767,-1.00513,-0.50616,-0.108171,-0.310897,0.0599636,-0.264438,-0.0849895,0.0756762,0.176194,-0.13525,-0.414067,-0.252047,-0.290285,-0.0551655,0.725843,-0.576381,-0.523988,-0.775404,-0.00110743,0.232637,0.392351,-0.578633,-0.304249,-0.152896,0.0813688,-0.730352,-0.491935,0.270182,-0.514371,0.300709,-0.0862416,-0.574587,-0.714241,-0.135036,0.0960047,-0.245448,0.728017,-0.0925539,-0.0759413,-0.649662,-0.195562,-0.366611,0.332846,-0.0761422,0.178028,-0.321509,0.00546923,0.0685477,-0.641776,-0.425267,-0.106774,0.32881,-0.068748,-0.0413589,0.05728,-0.356086,0.14288,-0.15347,-0.262962,0.329103,-0.476011,0.328114,0.468716,-0.3214,-0.106585,-0.339386,0.142156,0.425226,-0.0996372,0.155905,0.112225,-0.0685231,-0.0876288,-0.25566,-0.447764,-0.137401,0.0113806,-0.451195,-0.432633,0.418875,-0.353111,-0.411177,-0.399671,-0.234038,-0.294065,-0.125332,0.149962,0.271587,0.0246063,-0.0374561,-0.139889,0.0206861,-0.09956,-0.364699,-0.466613,-0.0679277,-0.282468,0.14071,-0.268402,0.347961,-0.229978,0.447299,0.249614,-0.229197,-0.0582245,-0.132764,0.26125,0.130788,-0.170082,0.0401599,0.391226,0.339266,-0.129444,0.000524137,0.0209502,-0.408338,0.38,-0.420003,0.209952,0.189999,0.120001,-0.0400004,-0.169979,0.170018,-0.0600143,0.340009,0.00999091,-0.230011,-0.320004,-0.230021,-0.229988,0.00998151,-0.0960423,-0.500899,0.029555,-0.217128,0.0205767,-0.0511206,0.279982,-0.0155059,-0.430528,0.21215,0.130663,0.299561,0.129667,-0.482049,-0.349564,-0.0904539,0.402762,-0.262083,0.487826,0.146629,0.476019,-0.146842,0.0692631,-0.343443,0.198444,0.172934,-0.420239,0.439072,0.0562888,-0.127276,0.0412448,0.00933543,0.20058,0.259788,0.0554266,0.02643,0.32433,0.143608,-0.388956,0.00366139,0.458915,0.04981,-0.466648,-0.185203,-0.24704,-0.224572,-0.144717,-0.187656,-0.390002,-0.247437,-0.198533,-0.262966,0.200874,-0.464642,-0.0757276,-0.256974,0.348168,-0.222953,-0.0402008,0.053135,-0.119038,0.310515,-0.305149,-0.329227,0.0512601,-0.255716,-0.557893,0.222047,0.259986,-0.208517,0.321309,-0.167484,-0.37921,-0.197691,0.607126,-0.496602,-0.0758128,-0.0874112,-0.234329,-0.377944,-0.0590726,-1.15352,-0.794586,0.0306207,-0.297963,0.159719,0.156731,-0.422927,-0.0916762,-0.283345,0.333392,-0.0508733,-0.236983,-0.0146162,0.122835,-0.277692,0.740277,-1.22112,-0.779054,0.21509,0.34772,-0.505336,-0.0617452,-0.0346687,0.0122612,0.0961823,0.00749842,0.145985,-0.247555,-0.119063,0.329056,-0.109572,-0.040643,-1.22802,-1.51205,-0.286153,0.584327,-1.27714,0.155477,0.270883,0.177422,-0.660747,-0.208094,-0.457272,0.350303,-0.0321213,-0.191887,0.408531,-0.588761,-0.783883,-0.949805,-0.60141,0.178104,-0.907743,0.201362,-0.363595,0.447116,-1.07567,-0.746134,-0.383363,1.3717,0.118822,-0.0203089,0.878073,-0.868189,-0.511567,-1.00149,-0.785829,-0.639715,-0.753528,0.423952,0.383118,0.520984,-0.902657,-0.9753,-0.0443736,2.40112,-0.0311741,-0.31108,0.901643,-0.550108,0.307296,-0.970198,-0.415002,-0.770991,-0.118909,-0.327245,0.224992,0.956081,-1.37331,-0.784035,-0.350848,2.31545,-0.277392,0.16935,1.05896,-0.299087,1.4235,-0.109332,-0.562567,-0.846043,0.460469,-0.514293,0.596416,1.08873,-1.66888,-0.53468,-0.21166,1.18153,0.231018,0.00199476,0.398987,-0.563057,0.931604,0.283599,-0.353068,0.458432,0.79865,0.0631184,0.269964,0.153314,-1.71137,-1.62108,-0.350443,2.12831,0.0185691,0.0088518,0.401942,-0.911485,0.473721,0.213351,-1.0382,0.300055,0.394872,0.586168,-0.00920771,0.605819,-1.0154,-1.76968,-0.389979,2.04996,-0.742015,-0.136205,0.710187,-0.220953,0.234819,0.207286,-1.19686,-0.0234753,0.307026,0.8473,-0.25019,0.208705,-0.495508,-1.68695,-0.300053,2.6196,-0.815557,-0.138815,0.540627,0.858195,0.573606,-0.380099,-1.58091,0.220491,-0.0305112,0.336111,-0.143401,0.723381,-0.726148,-1.92547,-0.52611,1.51611,-0.214252,-0.843095,0.845233,0.684537,-0.312664,-0.0881793,-0.77443,0.394348,-0.652753,-0.70707,0.077846,0.929013,-0.235293,-0.579799,-0.616941,0.157762,-0.178848,-1.08999,0.345042,0.990331,-0.597448,-0.31129,-0.239438,0.370684,-0.956779,-0.123002,-0.335707,0.189903,-0.638557,-0.0790618,-0.412005,-0.517356,-0.19122,-0.859859,0.28066,0.627031,-1.11891,-0.206153,-0.0343326,-0.0332748,-1.32888,-0.374173,-0.0854962,0.372259,0.225048,0.72797,-0.174601,-0.949836,-0.162862,-0.975815,-0.340013,0.253702,-0.729783,-0.134954,-0.0259065,0.0177622,-1.01061,-0.156131,-0.382862,0.100133,0.143324,0.407527,-0.362801,-0.915232,-0.11521,-0.568884,-0.0954889,0.110079,-0.423076,-0.446857,-0.0272674,-0.0996542,-0.811348,-0.0208072,-0.103758,0.343307,0.0141226,0.858134,0.0601776,-0.366629,0.163703,0.0824192,-0.370484,0.0876651,-0.10988,-0.102501,-0.500794,-0.559558,0.284099,0.288801,-0.314807,-0.0426267,0.523809,0.434322,-0.254084,-0.444638,-0.246758,0.688435,0.234341,0.502981,-0.549237,-0.595474,-0.389622,-0.0310489,-0.0633111,-0.0543691,-0.0819945,-0.188695,0.364041,0.163401,-0.148365,-0.307889,0.37868,-0.0467367,0.372803,0.420944,0.10695,-0.0229646,-0.37059,-0.164785,-0.380121,0.380082,0.171004,-0.120849,-0.14088,-0.211345,-0.490818,0.0220422,-0.330525,0.386365,0.465943,0.342345,0.340268,0.464922,-0.0554618,0.139441,-0.0117149,-0.437518,-0.137431,-0.314595,0.280672,-0.112708,-0.41453,-0.00389944,-0.137371,0.265207,-0.301669,-0.00721673,-0.106285,-0.365765,0.0638462,0.13876,0.00427968,0.123836,0.182124,-0.00392697,0.0363812,-0.367602,-0.147597,-0.0490726,0.130506,0.0674479,-0.129786,0.149946,0.374048,-0.00885185,0.292007,0.253059,-0.199244,0.430562,0.270864,0.118972,-0.109611,0.149294,-0.269631,-0.309557,0.300116,0.439865,0.225199,0.169978,0.449954,-0.110502,-0.189583,0.0692618,0.460777,0.400013,0.400575,0.340032,-0.449992,-0.0304427,-0.489868,-0.359715,-0.0199969,-0.0199201,-0.0600264,0.01103,0.270836,-0.300469,0.410438,-0.276915,0.41731,0.229988,-0.182694,0.0322528,-0.379771,-0.42972,-0.401561,0.219575,0.433837,0.211165,0.217667,-0.48992,0.422191,-0.300833,-0.216781,-0.49573,-0.343981,-0.0900151,0.230943,-0.149208,0.447376,0.0632698,-0.0712425,-0.192056,0.260646,0.470504,-0.200468,0.258726,0.358082,0.102275,-0.448292,-0.150609,0.34822,-0.0562695,-0.092433,-0.219754,-0.189202,0.404497,0.194544,-0.252347,-0.0821476,0.188572,-0.350005,-0.0885288,-0.099383,0.220339,-0.196079,-0.110337,-0.514774,0.281094,-0.107163,-0.354854,0.47276,0.153468,0.427755,-0.0141409,0.147202,0.0148782,-0.127525,0.312093,-0.316866,-0.624976,-0.391645,0.4188,-0.419757,0.214055,0.24395,-0.16295,-0.2455,-0.0457593,0.307559,-0.391699,-0.140918,0.246837,-0.0629686,0.249877,-0.898724,-1.18278,0.368075,-0.197507,-0.826114,0.452675,0.397339,-0.067357,0.172332,0.92957,-0.486273,-0.161886,0.176313,0.269846,-0.477501,0.11311,-1.56787,-0.812784,0.356534,-0.182252,-0.501004,0.21016,0.147221,0.0135711,-0.123344,0.424976,-0.305343,-0.229473,-0.0846684,0.194381,0.191247,-0.151451,-1.1865,-0.491788,-0.608533,-0.151251,-1.1234,0.491994,0.0729137,0.260706,-0.110373,0.199086,-0.179328,0.682506,0.248831,0.35538,0.325029,-0.517275,-1.02307,-1.12501,-0.689037,-0.149907,-0.986445,-0.121487,0.03035,0.399575,-0.598032,-0.675752,0.257501,2.1408,0.287507,0.488451,0.75619,-0.968519,-0.302778,-0.461335,-0.679989,-0.905522,-0.339198,-0.0138532,0.11562,0.808379,-1.03018,-1.08629,-0.0508493,2.40748,-0.139412,0.0384973,1.66847,-0.752407,-0.0557286,-0.222078,-1.16948,-1.09424,0.209282,-0.232681,0.210376,0.488706,-0.971863,-1.48655,0.494715,3.11277,-0.158428,-0.38198,1.75124,-0.521711,-0.194027,-0.0277317,-1.28695,-0.546581,0.405008,0.350299,0.21446,0.834446,-1.0269,-1.82243,-0.0998883,3.30177,0.217052,-0.242549,1.26057,-1.14812,-0.0693063,0.0373605,-0.656564,-0.414454,0.717558,0.960754,0.537192,0.232789,-1.2935,-2.80098,0.457125,3.34323,-0.835181,-0.179326,1.63061,-1.58072,0.335627,-0.0364849,-1.13593,0.029669,0.488735,0.634593,0.233073,-0.0596338,-0.739728,-2.92478,0.404867,2.83425,-0.975239,0.420389,1.54866,-0.0736244,-0.182192,-0.436398,-1.35504,0.157199,-0.0829116,0.622747,-0.104135,0.152705,-0.867072,-1.5542,0.225323,1.8708,-0.958431,-0.224144,0.828698,0.837383,-0.57346,-0.314899,-0.645576,0.10935,-1.00794,-0.455616,-0.660415,0.349706,-0.663224,-0.921015,-0.465038,0.964465,-0.216754,-0.525198,0.195998,0.943726,-0.751619,-0.0115729,-0.688001,0.141134,-1.94549,-0.676352,-0.236172,1.08324,-0.2181,0.142501,-0.56429,-0.0781944,-0.496777,-1.12537,-0.157796,0.975865,-1.802,0.0848425,0.0502369,-0.0207278,-1.65303,-0.62412,0.21349,0.627886,0.0866934,0.209299,-0.233618,-1.24923,-0.362671,-1.13385,-0.563957,0.699139,-0.651355,-0.328464,0.112118,-0.182754,-1.19547,-0.746779,-0.187608,0.90844,0.169962,0.918053,-0.479972,-1.37169,-0.448896,-0.0559289,-0.886725,0.450619,-0.774627,-0.273489,0.444633,0.176744,-0.280768,0.196958,-0.0346503,-0.0574314,0.939864,1.18706,-0.463615,-0.768021,-0.0462158,0.300318,-0.535766,0.0499963,-0.559674,-0.428308,-0.414352,0.397578,-0.249329,-0.0958945,-0.0718323,-0.327339,0.649206,1.05279,-0.606979,-0.0136083,-0.0895699,0.690711,0.0960164,0.759471,-0.613097,0.0332337,0.0488161,0.160396,-0.718519,0.387846,-0.372673,0.373878,-0.294702,0.930312,-0.399686,-0.0821626,-0.13048,-0.0367772,0.148918,0.113637,-0.457599,-0.200154,-0.108886,0.0813473,-0.147324,0.453881,-0.196222,0.362184,-0.393465,0.645217,-0.241446,-0.344532,0.385299,-0.10336,0.17466,-0.118284,-0.337978,-0.108007,-0.0937979,-0.298336,0.229575,-0.428112,-0.0177039,-0.18861,-0.269689,0.627691,0.172704,0.0515286,0.258476,0.119032,0.236643,0.0991709,-0.185601,0.48196,-0.377268,-0.19371,0.502223,0.481575,-0.305305,-0.343229,-0.00317964,0.530052,0.184263,-0.351922,0.213612,-0.182803,-0.285316,-0.240675,-0.350728,-0.238561,0.0515177,0.473748,-0.217718,-0.190064,0.457048,-0.213358,0.351993,0.0851617,-0.381523,-0.221507,-0.26842,0.135348,0.462942,0.160006,0.0185711,-0.0491551,-0.269797,0.109916,0.310026,-0.360022,0.0905262,-0.131289,0.160028,0.289464,-0.469344,0.260078,0.179591,0.189366,0.250706,0.470002,0.269985,-0.0101673,0.220137,0.449762,0.460245,-0.209995,0.190185,0.360011,-0.419992,0.219857,-0.299957,-0.259908,-0.190003,-0.0799734,-0.400013,-0.119614,0.113382,0.259218,-0.441991,-0.413329,0.384861,-0.130007,0.0999914,0.29484,-0.151207,-0.489848,0.186515,0.0194911,-0.259653,0.342596,-0.465065,-0.342124,-0.164998,0.251345,0.461726,-0.395645,-0.326093,-0.239807,-0.204664,0.174619,0.441872,0.19609,-0.252388,0.384583,-0.118732,0.43071,-0.143451,0.30247,-0.175603,0.22617,0.476811,0.239362,0.248469,-0.266356,0.349296,-0.0018613,-0.236254,0.373237,0.0556529,-0.439721,-0.130021,-0.165313,-0.248826,-0.0279218,0.172687,0.029233,-0.240968,-0.224168,-0.307728,-0.406151,-0.261713,0.42057,0.0259841,-0.165366,0.292979,0.00715774,0.126492,-0.225564,0.299376,0.347261,-0.810545,-0.186874,-0.392692,0.235727,-0.386615,-0.250055,0.191902,-0.174808,-0.102871,-0.265876,-0.495159,-0.102487,-0.587117,0.40721,-0.165721,-0.0665165,-0.389941,0.174102,0.47982,0.300136,0.0624317,-0.194804,-0.130067,-0.660066,0.0665843,0.220051,-0.55193,-0.0295066,0.15972,0.186909,0.027956,-0.149973,-0.782632,0.0788372,-0.375347,0.204183,-0.809746,-0.303463,0.116619,-0.307694,-0.0971017,0.65123,0.377855,0.479186,-0.762639,0.0796934,0.184636,0.0406321,-1.08031,0.202449,0.188828,-0.319546,-0.906718,0.407748,0.388507,-0.271865,-0.472253,0.606274,0.132004,0.829416,-0.474425,0.342139,0.583371,-0.296269,-0.539137,-0.0795145,-0.245115,-0.748597,-0.659665,-0.0579711,0.356611,0.362246,-0.151485,0.0300371,0.386335,1.48458,0.334689,0.491888,0.786951,-0.65499,-0.22023,-0.317497,-0.591289,-0.462238,-0.472296,0.520009,-0.0998753,0.226745,-0.129676,-0.562901,0.251713,2.02546,0.129467,-0.0737608,1.46695,-0.683668,0.166215,-0.194374,-0.492627,-0.689259,0.274141,-0.357667,0.410478,0.0318208,-0.126889,-1.51683,0.42934,2.51943,-0.310248,-0.788634,1.23499,-1.29942,0.711335,0.343261,-0.584666,-0.704144,1.13606,0.639684,0.157719,-0.0971117,-0.149082,-2.29521,0.562885,2.98379,-0.046742,0.319591,1.33967,-1.7691,0.109712,0.586862,-0.744357,-0.302159,0.726156,1.05913,0.3645,0.0781999,-0.284002,-2.40231,0.268131,2.49091,-0.657994,-0.0802114,1.54564,-0.592731,1.1283,0.0194394,-1.05612,-0.154141,0.430146,0.403361,0.479168,-0.155612,0.0845237,-2.21554,0.507551,1.64523,-0.589672,-0.185452,0.938931,0.749974,0.296514,0.227427,-0.997077,-0.351606,0.456993,0.318458,-0.0639196,0.453536,0.0428828,-0.966529,0.269301,0.909856,-0.429851,-0.107078,-0.0784644,0.583559,-0.630993,-0.0894791,-0.381169,0.167187,-0.656295,0.175668,-0.522709,0.44358,-0.0770404,-1.00629,0.450382,0.0627694,-0.473987,-0.919557,-0.101377,0.929438,-1.23136,0.0593434,-0.341107,0.0411491,-2.20709,-0.795026,-0.508872,1.1461,0.225955,0.0139387,-0.167749,-0.489237,-0.771101,-1.0821,-0.775165,1.00259,-2.08659,0.172471,0.320742,0.660237,-1.21581,-0.317677,-0.0285594,0.465532,0.31474,1.49627,-0.224024,-0.803935,0.276909,-0.994746,-1.42471,0.525081,-1.17922,0.0205793,0.0609496,0.363041,-1.52879,-0.883829,0.0325375,0.29164,0.932709,1.52517,-0.507202,-0.719993,-0.124784,-0.157611,-0.71867,0.448316,-0.645922,0.393723,-0.304847,0.123489,-0.542987,-0.472572,0.0395826,0.291797,0.620514,0.97772,-0.0429149,-0.939809,0.13143,-0.183312,0.153374,0.0894786,-0.593809,-0.223943,0.323876,0.0603337,-0.733554,-0.407363,0.395463,0.317962,0.184711,1.2147,-0.28826,-0.948459,-0.068408,0.480246,-0.454235,0.264966,-0.212941,-0.283073,-0.00874854,-0.0649219,-0.84019,0.005117,0.125733,0.406689,0.0810713,0.890843,-0.446267,-0.671174,0.318302,0.356719,0.431159,0.306035,-0.347934,0.436027,0.0832183,0.190075,-0.323569,0.141463,-0.341392,0.0623531,-0.00349538,0.394676,-0.212208,-0.523863,0.346107,-0.0674952,0.290938,-0.131352,0.342259,0.328212,0.311126,-0.203714,0.15389,0.0752193,-0.255875,-0.538884,0.239481,0.423121,0.160955,0.399022,0.206581,0.447009,0.0466058,0.398028,0.295924,0.19356,-0.134245,0.413318,-0.267995,-0.318542,0.152849,-0.432895,-0.285808,0.417668,0.367922,-0.458431,0.0478542,0.246397,-0.202437,-0.254768,-0.136103,0.0523659,-0.102451,0.449877,0.0916712,-0.132667,-0.0335968,0.184861,-0.0308477,0.0563945,0.38412,0.374903,-0.23326,0.125525,0.161531,-0.200095,-0.205536,-0.112765,0.463465,0.49024,-0.390049,0.0696344,-0.236573,0.225125,-0.0695967,0.147573,0.240965,0.302913,0.15947,-0.300696,0.400438,0.48005,-0.210001,-0.180017,-0.159997,-0.249977,0.159947,-0.289997,0.0999826,-0.0199971,-0.0899697,0.0100121,-0.110002,0.239995,-0.180021,-0.0899974,0.0499766,-0.0998874,-0.188172,-0.0900104,0.308186,-0.0367436,0.107495,-0.240345,0.0902186,-0.146864,-0.251146,-0.259745,-0.311653,0.33976,-0.292007,-0.428218,0.337587,0.443629,-0.165673,0.206104,-0.0105631,0.0261772,0.184903,0.0682954,0.318153,-0.104719,-0.315331,-0.325201,0.200561,0.114491,0.424756,0.00842304,0.402787,0.155655,0.466621,-0.32117,-0.0108305,0.301006,-0.518943,-0.0798748,-0.352917,0.397454,-0.191842,-0.0119496,0.421458,0.355624,0.074761,-0.00183916,-0.0217651,-0.254847,-0.165208,0.0572983,-0.153676,-0.482532,0.095998,0.430487,-0.0479811,0.173957,0.44066,0.0660386,-0.29,0.437712,-0.224707,0.139243,0.215841,-0.280665,-0.192188,0.0135057,0.487257,-0.313652,0.117449,0.0125022,-0.0272712,-0.0480003,0.566559,-0.0315478,0.385233,0.142498,-0.261215,0.678659,0.51979,0.0580402,-1.01628,0.0822196,0.342968,-0.132356,-0.701161,0.159728,0.120731,-0.287804,0.263375,-0.068068,0.397202,0.203021,0.0225253,0.00589327,0.363336,-0.279061,-0.48137,0.162297,0.264319,-0.331179,-0.453979,0.346759,0.00741924,-0.332994,0.423938,0.848011,-0.0451315,0.111698,-0.150919,0.208683,0.422522,-0.144614,-0.561899,0.195321,0.136808,-0.0241185,-0.248485,0.0657245,-0.160236,-0.0422818,0.0743689,0.495078,-0.0519365,0.545101,-0.454739,0.478231,0.158751,-0.609164,-0.194136,-0.25078,-0.199841,-0.768559,-0.263239,-0.245232,0.400613,0.00367475,0.366971,0.567829,0.192104,0.636506,-0.0638129,-0.163725,0.817068,0.178738,1.37267,-0.397668,-0.44672,-0.58675,0.392174,-0.495347,-0.280941,-0.406111,-0.394928,-0.232805,0.51327,1.10835,0.0777083,-0.0795484,0.976976,-0.234755,1.48711,0.564916,-0.328747,-0.92197,1.03967,0.0672862,-0.224379,0.0497677,-0.439995,-1.6316,0.0221686,1.51901,-0.380467,-0.323058,1.11842,-1.09013,0.900517,0.467983,-0.0919808,-0.409119,1.45959,0.192363,0.0318796,-0.295159,0.788472,-1.25273,0.835798,2.10817,-0.409671,-0.394655,0.673224,-1.07139,1.12298,0.349972,-0.632417,-0.0104801,0.573833,0.446373,0.44996,-0.38849,0.590377,-0.806549,0.11783,1.22126,-1.19677,0.688562,0.551556,-0.0709808,1.36666,-0.0474139,-0.560405,-0.00661292,0.569915,0.153626,0.615064,0.304386,0.0304532,-0.594975,0.690726,0.0781722,-0.893325,-0.0920489,0.180711,0.257508,0.143895,-0.177398,-0.234061,-0.154995,0.104772,-0.0820674,-0.213768,0.241519,0.299418,-1.33925,0.545209,0.434899,-0.576683,-0.716974,0.356626,0.424434,-0.782306,-0.277526,-0.750651,-0.0767312,-0.53841,-0.693904,0.17761,0.71177,-0.258682,-0.891992,0.316031,-0.105853,-0.42518,-0.840248,0.171996,0.958238,-1.82495,-0.240943,0.00973218,0.53342,-1.73958,-0.731,-0.26741,0.0173812,0.775657,0.33313,-0.481309,-0.353857,0.127403,-0.690989,-0.310521,0.747319,-1.12517,-0.0388288,0.222367,0.639481,-1.76415,-0.799573,0.28188,0.126642,0.990898,1.14493,-0.430398,-1.09728,0.432628,-0.711947,-0.270097,0.240304,-1.0488,0.475499,0.632135,0.620752,-0.945937,-0.314131,0.365555,0.694091,0.892702,1.66323,0.109981,-1.04813,-0.162554,0.361167,-0.0266089,0.237745,-0.520447,0.130494,-0.24175,-0.202926,-1.06063,-0.550265,0.1485,0.339419,0.320126,0.909353,0.00794698,-0.763502,0.23192,0.456931,-0.168506,-0.193329,-0.369632,0.398984,-0.212087,0.0789572,-0.895337,0.28101,-0.386903,0.603187,0.282316,1.16934,-0.0400087,-0.543801,0.355414,0.578234,-0.318344,-0.15217,-0.360005,0.492768,-0.326964,-0.0797772,-0.631526,-0.34467,0.19601,-0.198634,0.463898,0.597356,-0.0783503,-0.0394244,0.00914459,-0.182985,0.576446,-0.295049,-0.207966,-0.223056,0.13658,-0.564166,-0.0907698,0.113403,0.0446327,-0.0890688,0.262414,-0.268178,0.226121,-0.36098,-0.330602,0.51948,0.494702,-0.136626,-0.659731,0.26951,0.576256,-0.573817,0.0653438,-0.387144,0.48333,-0.256947,-0.171085,0.392864,0.0869939,-0.0505078,0.33522,-0.243783,0.668314,-0.0577818,-0.0157969,0.0860522,-0.206679,0.0243388,0.0294632,0.0985677,0.226765,-0.403347,-0.37146,0.0148406,-0.223478,-0.131886,-0.33572,-0.225655,0.11276,-0.438709,-0.217577,-0.40341,-0.270918,-0.364624,-0.394908,0.40529,0.0392071,0.206232,0.455032,-0.0723997,0.146634,-0.269567,0.22592,0.468181,0.149687,0.199838,0.271564,0.0781035,-0.0117867,-0.180239,-0.360613,-0.290122,-0.00458374,0.0409793,0.170195,-0.0540184,-0.078915,0.382442,-0.390705,-0.401133,-0.438902,-0.48,-0.35,0.18,0.22,0.28,-0.35,0.32,0.21,-0.37,0.19,0.09,-0.15,0.21,0.42,0.07,0.23,-0.369905,0.370501,0.339992,-0.0504424,0.361677,0.318356,-0.339948,0.25013,0.0511573,-0.34015,-0.0998892,-0.440701,0.129789,-0.237681,-0.439458,-0.410973,-0.0735577,-0.1877,0.45521,-0.00409155,0.144,0.360544,0.0999733,0.32238,-0.151108,-0.40785,0.307756,0.138827,-0.148154,-0.0446425,-0.290408,0.105105,-0.203441,-0.241191,0.253208,0.41661,0.272705,-0.454378,0.0469892,-0.00964743,0.0256356,0.388158,-0.36653,-0.13228,0.232009,-0.000962178,0.1362,-0.276619,-0.307641,-0.328932,0.309738,-0.18943,0.261903,-0.663031,0.456299,-0.144938,-0.467265,-0.170204,-0.182022,-0.0600768,0.552267,0.220267,-0.26974,-0.381777,0.0707735,-0.272326,0.702316,0.341268,0.0498723,0.231603,-0.426897,-0.0392573,0.130984,0.562232,0.300922,-0.00465883,0.295002,-0.34785,0.515844,0.147452,0.229236,-0.203025,0.561473,0.417198,-0.839121,0.313005,0.311149,0.322786,-0.32804,0.405515,0.105738,0.482064,0.148025,-0.231646,0.356277,0.0353222,0.113803,-0.794732,0.405529,0.0224999,-0.247978,-0.222875,-0.104877,0.370864,0.000740675,0.275347,0.836203,0.166714,0.0506858,-0.401915,0.736344,0.938489,0.251219,-0.214988,0.318865,0.111017,0.0170781,-0.245665,-0.323442,0.204843,0.103778,0.598281,0.64124,-0.208693,0.26364,-0.0679705,0.188151,0.245065,-0.105192,0.947109,0.352035,-0.100215,-0.0968996,0.367951,-0.0283329,-0.266531,-0.412984,0.347603,0.441715,0.507538,0.140065,-0.265924,-0.117369,0.154011,-0.178736,1.77798,-0.177893,-0.603453,-0.199358,1.02184,-0.347837,0.184663,-0.747933,-0.131324,-0.487407,0.0616486,0.974208,-0.517905,-0.518615,1.24965,-0.351433,1.16201,0.215562,-0.0114106,-0.0426907,1.45704,0.189714,0.073172,-0.491117,-0.00427628,-0.961657,0.725763,0.919395,-0.713933,-0.328766,1.04428,-0.655497,1.26011,0.16475,0.149204,-0.462715,0.744767,0.341854,0.182135,-0.384318,0.494536,-1.12497,0.154078,0.762518,-0.917072,0.149775,0.688529,0.080464,0.68264,0.503463,-0.574823,-0.408735,0.481421,-0.0752548,0.245824,-0.322914,0.500345,-0.38713,0.772862,0.360933,-1.19577,0.457565,0.242603,0.0945709,0.583986,0.241071,-0.114351,-0.730164,-0.0189722,0.136934,0.357818,-0.192874,0.0804639,-0.444719,0.083402,-0.607881,-0.389092,-0.237299,-0.21625,0.491829,0.0268659,-0.515266,-0.967159,-0.0615367,0.0902336,-0.345891,0.231025,-0.185261,0.144498,-0.834382,0.0978966,-0.0057186,-0.0404951,-0.646429,0.515256,0.550362,-0.794708,0.47941,-0.209644,0.0825131,-0.216536,-0.6702,0.09051,-0.0361799,0.166336,-0.50036,0.399123,0.0571979,-0.027107,-1.40427,0.255818,0.0122591,-1.62192,0.165917,0.407923,-0.0783727,-1.3651,-0.385092,0.210909,0.624156,0.0913854,0.161732,-0.493671,-0.216784,-0.259209,-0.631263,-0.065433,0.130412,-0.786871,0.271317,0.389332,-0.313954,-1.18235,-0.12713,-0.244133,0.580109,-0.0983254,1.32795,-0.5476,-0.566808,0.00710385,0.172375,0.0159549,-0.0568588,-0.621727,0.398184,0.510772,-0.22961,-0.654632,0.0544021,0.396472,0.409622,-0.360437,0.906581,-0.310784,-0.0473893,0.559713,0.52589,0.170512,-0.027733,-0.846705,0.382655,-0.0417173,0.389254,-0.350635,-0.750473,0.0925056,0.423977,-0.114543,0.749286,-0.0284726,0.243213,0.704726,0.196124,0.345113,-0.255108,-0.114349,0.488585,0.583546,-0.27627,-0.409393,0.0190046,0.286726,0.519875,0.0932511,0.278256,0.138961,-0.448916,0.132159,0.0540392,0.644465,0.461707,-0.608673,0.217039,0.398882,-0.45891,-0.0909464,0.418536,-0.114217,0.277038,0.597275,0.556461,-0.242193,-0.0603658,0.470575,0.00172274,0.0734718,0.473045,-0.785783,0.247699,0.444742,-0.523862,-0.386374,0.00219627,0.413661,-0.147951,0.032708,-0.353455,-0.158283,0.726198,0.283649,0.0760311,0.877021,-0.390146,-0.476579,0.727099,-0.113951,-0.0439375,-0.402436,-0.0275868,0.175179,0.0603316,-0.206798,-0.36378,-0.32048,0.0767224,-0.365955,0.186932,-0.0272418,-0.332012,-0.481103,0.149176,-0.0206059,-0.192213,0.357346,0.0590035,-0.0219873,-0.241375,0.413447,-0.0071766,-0.167467,0.164493,-0.181586,-0.251551,-0.0733993,-0.332267,0.0514717,0.224266,0.515169,-0.244075,-0.260855,0.371656,0.14801,0.395585,-0.489034,0.17879,0.0777104,0.334389,-0.417924,-0.298821,-0.276915,-0.329626,-0.453682,0.257131,-0.00641323,-0.290349,-0.379626,0.0389045,-0.37806,0.106059,-0.369562,0.0789242,0.120776,-0.158278,0.0401406,-0.0613787,-0.2377,0.470982,0.29968,0.399991,-0.230163,-0.15947,-0.24004,0.0298302,0.0889955,-0.0400909,-0.10995,0.379601,0.479786,-0.0600417,0.160156,0.369785,-0.099564,-0.20998,-0.0399833,-0.259956,-0.100046,-0.159739,-0.0403603,0.460003,-0.470001,0.36012,-0.239994,0.430033,0.109855,0.189848,0.210124,0.170112,-0.240086,0.109478,0.295221,0.384886,-0.355184,-0.450924,-0.19492,-0.326225,-0.236678,0.428079,0.0501122,0.428895,-0.443049,-0.0640284,-0.173906,-0.372581,0.455988,-0.0052991,-0.380057,0.208418,-0.386132,-0.00130983,-0.553515,-0.263456,-0.211368,0.159486,-0.231123,-0.132569,0.437133,0.00357888,0.262892,-0.150263,0.161887,0.0684065,-0.585024,0.248115,0.154986,-0.347344,-0.563492,-0.108805,0.481379,0.319293,-0.149233,0.231111,0.042344,0.0453111,-0.185153,-0.307699,0.0827591,0.114832,-0.767627,0.860541,0.313618,-0.729388,-0.699435,-0.578218,0.363372,0.371541,0.263871,-0.664811,0.136291,-0.0931207,-0.0874712,0.0606182,-0.173654,-0.44278,-0.392898,0.838503,0.490284,-0.597419,-0.101505,0.00813325,0.310094,0.0943226,-0.110412,-0.601968,0.543653,0.145681,0.088055,0.503008,0.800467,-0.55353,-0.415518,0.463868,0.164066,-0.427018,-0.523159,0.0495887,0.293058,-0.143146,0.0919858,0.461495,0.230459,0.821106,-0.445644,0.151383,0.842764,-0.0846632,0.653858,0.251999,-0.143317,-0.498674,0.23433,-0.365497,-0.0120479,-0.494988,0.686944,0.0112617,0.507312,-0.152635,-0.566653,0.295691,0.768359,-0.115075,1.79159,0.230406,-0.757612,-1.02286,0.972936,0.325119,-0.12227,-0.530623,0.0701262,0.0891359,0.106269,0.878583,-0.95829,0.0497587,1.25265,-0.108066,1.60588,0.184842,-0.886074,-0.935628,1.70064,-0.346031,-0.12393,-0.252952,-0.257582,-0.812078,0.626521,1.19699,-1.33386,0.16347,1.07607,0.238424,0.996989,0.750011,-0.225929,-0.802831,1.39641,-0.191454,-0.15624,-1.01859,0.842977,-0.510378,0.284289,1.1187,-1.1127,0.0433393,0.939092,-0.394924,0.367961,0.0720772,-0.379908,-0.0913945,0.604925,0.656275,0.0492735,-0.203037,1.17054,-0.525429,0.744982,0.0854046,-1.16269,0.0392784,0.367062,0.156703,0.926484,0.158041,-0.636738,-0.153435,0.227976,0.379495,-0.0926854,0.0111661,0.780022,-0.0834649,0.23206,-0.338583,-0.955157,-0.487753,-0.339682,-0.0449576,0.27744,0.289603,-0.513581,-0.338625,-0.259747,0.114839,0.178826,-0.544453,0.717545,-0.789434,0.481009,-0.969674,-0.938391,-0.316144,0.448412,0.389333,-0.2165,-0.234881,-0.476075,-0.196347,0.189723,-0.28244,0.254146,0.503468,0.239734,-0.785555,0.178783,0.481023,-0.679329,-0.500848,0.568954,-0.0893673,-0.125755,0.704387,-0.0716477,-0.279314,-0.795156,0.220864,0.00750553,0.587386,0.110985,-0.773252,0.418603,0.0999104,0.346634,-0.484229,-0.129373,0.352869,-1.33318,0.213855,-0.480846,-0.260998,-0.871798,0.086879,0.210544,0.239204,-0.177231,0.975605,-0.0688149,-0.00474144,0.502,-0.0339047,-0.212239,0.237072,-1.16586,0.243995,-0.526498,0.38504,-0.742027,-0.272854,-0.355263,0.280201,0.169629,0.680315,0.0297302,-0.662427,0.424662,-0.0701664,-0.100035,0.0825872,-0.707403,0.479004,-0.323082,-0.117447,-0.661907,-0.735044,0.06463,0.569045,-0.00408656,0.248713,0.115631,-0.380602,-0.0233704,0.0829966,0.374886,0.155996,-0.33462,-0.102423,-0.446589,-0.210624,-0.216332,-0.356675,0.136341,0.414509,0.0840749,0.496332,-0.322674,-0.113907,0.258873,0.608305,0.0269958,0.112938,-0.50705,0.771002,-0.0880578,0.319935,-0.404256,-0.243181,-0.0753542,0.365661,-0.118169,0.0225666,0.179432,0.410344,-0.0179504,0.285049,0.475593,-0.176398,-0.0909125,0.797097,0.452846,-0.108484,-0.254796,0.313924,0.447241,-0.457469,-0.104337,0.379026,0.423409,0.750517,0.67857,0.574161,-0.0518961,-0.378937,-0.46654,0.271459,-0.267818,-0.015657,-0.284096,-0.355111,-0.131389,-0.015541,-0.0924422,0.0284606,-0.253669,0.236935,0.0924467,0.211574,0.857966,0.282645,0.113416,0.320194,-0.0818641,-0.378507,0.233194,-0.358079,-0.282997,0.21056,0.147693,-0.164206,0.395703,-0.0652176,-0.197233,-0.044222,0.337787,-0.346032,-0.24229,0.171826,0.16525,-0.192955,0.0110042,0.313157,0.253043,-0.0434639,-0.194408,-0.107481,0.424983,0.13439,-0.503881,0.338416,-0.0866924,0.298003,0.229841,-0.315952,0.414311,-0.28468,0.128432,0.228685,0.274015,-0.192404,-0.296527,-0.512192,-0.156421,0.187939,0.480304,-0.121594,-0.289308,0.0093697,-0.483656,0.423127,0.00142397,0.259926,-0.460035,0.0736173,0.372261,0.316259,-0.450674,0.057625,0.200251,0.261465,-0.191183,-0.339176,0.238924,0.02,1.06088e-06,-0.0500052,0.35,0.110005,-0.430002,0.340006,0.480005,0.390006,-0.0299955,-0.0399971,0.199995,-0.19,0.439997,-0.0399924,-0.36,0.261146,-0.439024,-0.209696,0.100134,0.230722,0.419453,-0.410014,0.370149,0.139834,0.400375,0.300361,0.0997737,0.159312,-0.199707,0.0705551,0.448506,-0.286792,0.319762,-0.412567,-0.406513,-0.0156154,0.314281,-0.313259,-0.197203,0.151383,-0.21985,0.238841,-0.0449605,-0.175091,-0.116312,-0.0395783,-0.206981,-0.24985,0.454187,0.331963,0.276418,-0.389912,0.101468,0.137235,0.246717,0.483208,0.0316116,-0.00403418,-0.0223258,-0.219469,-0.265859,0.215194,0.0115839,-0.0814577,-0.129345,0.838783,0.271391,-0.136822,-0.722901,-0.584508,0.447041,-0.215588,-0.0993994,-0.112994,0.240534,0.476583,0.402388,-0.337799,0.306651,0.0825851,-0.702943,1.0323,0.479614,-0.338502,-0.521311,0.207812,0.0743981,0.14292,0.372939,-0.133801,0.0149397,-0.124297,0.467853,0.403176,0.265996,-0.115601,-0.328576,0.405065,-0.22928,-0.21217,0.0271873,-0.123579,0.0898686,0.556301,0.481158,-0.196895,-0.138341,0.83918,0.0439914,0.346032,0.331354,-0.280537,-0.364706,1.07896,0.108124,-0.955985,-0.320053,-0.166971,0.688458,0.290243,0.17337,0.0141344,0.553413,0.810352,0.191452,0.716885,0.539742,-0.0649025,0.821789,0.132868,-0.176293,-0.700165,0.368656,-0.0969365,0.236485,0.207899,0.480941,-0.411268,0.463329,1.40124,0.155506,0.0123248,0.829198,-0.802822,0.859256,0.948375,-0.362117,-1.22262,1.27358,0.341079,0.338129,0.0717741,0.441692,-1.24732,-0.112772,0.739832,-0.257653,0.180303,1.66755,0.529958,1.32704,0.267192,-0.630347,-0.637309,1.46292,0.490639,0.0775064,-0.41805,0.296333,-1.02402,0.0814146,0.762694,-1.11309,0.255543,1.36702,-0.0350934,0.351537,0.582782,0.038198,-0.52107,1.21154,-0.0810418,0.0768145,-0.0799625,1.37876,-0.749262,0.240043,0.134719,-0.769299,0.372156,1.21648,0.280598,0.340703,-0.110402,-0.130274,-0.459204,0.341123,0.44547,-0.387777,0.0864705,0.891675,-0.408462,0.839372,0.0171313,-0.587849,-0.140689,0.975896,0.506243,0.361693,0.204159,-0.711655,-0.548899,0.110205,-0.0496936,-0.499026,-0.436281,0.171161,0.444109,0.492464,-0.820723,-0.311219,0.0101266,-0.375032,0.407116,0.343755,-0.482696,-0.673782,-0.0952912,-0.415282,0.110798,-0.468512,0.360449,0.277601,-0.698789,0.487179,-0.518621,-0.810048,-0.843932,0.430884,0.215318,-0.0136848,-0.0252048,-0.724722,-0.581101,-0.243567,0.35062,0.0788553,-0.113469,0.166077,-0.324908,-0.167095,0.143294,-0.359176,-0.414791,0.455263,0.145047,-0.853018,0.355719,-0.349262,-0.191111,-0.70912,-0.46608,-0.0126073,0.339148,0.0903382,0.315225,-0.284328,0.24197,-0.0651413,-0.530259,-0.0429024,0.245527,-0.531875,0.295004,-0.315679,-0.0138157,-0.34672,-0.318229,-0.103491,0.663428,-0.626453,0.249672,-0.342669,-0.021007,0.543005,0.017127,0.0806463,-0.441984,-1.11377,0.366532,-0.21729,-0.329359,-0.825129,-0.380329,0.111846,0.813233,-0.0249338,0.450054,-0.397876,0.127552,0.21935,0.32797,0.0263794,-0.057841,-0.593846,0.252724,-0.0545493,-0.360546,-0.483648,-0.0412727,-0.178128,0.216117,0.186863,-0.0129747,-0.0380954,0.21205,0.597728,0.231377,0.851084,0.0996397,-0.547999,0.477297,-0.436087,-0.107925,-0.512279,-0.529631,-0.333706,0.294039,-0.15536,0.113794,0.0666686,0.355754,0.383125,0.562014,-0.0331059,-0.237378,-0.541664,0.0633329,-0.312598,-0.417894,-0.106549,-0.372657,0.619801,0.0998268,-0.192715,0.315335,0.433092,0.490125,0.0284836,0.709391,0.582673,-0.0898716,-0.900473,0.601333,0.432127,-0.620755,0.346888,-0.116253,0.162488,-0.0681112,0.162719,0.146921,0.269136,0.328483,-0.0873547,-0.274464,0.319124,-0.3932,0.108663,0.252237,0.272221,-0.684923,0.199331,0.2705,0.288733,-0.3271,0.545322,-0.313437,-0.179113,0.557966,-0.361262,0.523459,0.130729,0.261571,-0.543199,0.315375,-0.0561623,0.156494,0.356047,-0.129848,-0.27724,-0.378823,0.264517,-0.501682,0.309266,-0.0808884,-0.0640946,-0.156006,-0.0762119,0.0559333,-0.348288,0.61448,-0.299045,0.213191,-0.265903,0.149064,-0.0710465,-0.213013,0.286555,0.255973,0.410841,0.568407,0.431899,-0.16725,-0.156998,0.219006,-0.0373634,-0.357775,0.0994767,-0.0979573,-0.41115,-0.4187,-0.0525133,-0.0598431,0.099049,0.317207,-0.0699363,0.190491,0.0908849,-0.1408,-0.473316,-0.459827,-0.0919495,-0.359325,0.379977,0.0900203,-0.430033,-0.0482367,-0.229105,0.398098,0.37979,-0.071538,0.049903,0.361165,0.119343,-0.138936,0.359359,0.32,-0.43,0.15,0.06,-0.1,-0.08,-0.37,0.28,-0.1,-0.08,0.08,-0.4,0.44,-0.5,-0.2,0.23,0.130369,0.350036,0.0102944,-0.330274,0.250077,-0.0205902,-0.0700395,-0.259594,0.200167,0.429578,-0.389938,-0.150179,0.169635,-0.188665,-0.21914,-0.501051,-0.347527,0.410885,0.436196,-0.407158,-0.372014,-0.152073,-0.0337461,0.458936,0.07727,-0.356932,0.0363844,-0.00771394,0.261248,0.397643,0.436462,0.317909,0.2965,0.148861,0.44949,-0.0991806,-0.339668,-0.185275,0.28422,-0.271462,0.267791,0.120412,-0.0324557,-0.45,0.426712,0.132099,-0.483184,0.210099,-0.0702073,-0.0873867,0.73092,0.0408094,0.143448,-0.752925,0.295686,-0.154979,0.268935,0.0156279,0.0253783,0.116914,-0.0397003,0.704299,0.137861,-0.585879,0.0076534,-0.677645,1.12628,0.170005,0.0873387,-0.351449,-0.469938,0.581074,0.247058,-0.267499,-0.374422,-0.146526,0.0546424,0.629993,0.263841,0.317497,-0.63242,-0.148139,0.906498,-0.129783,0.0366881,-0.251298,0.160757,-0.0147462,-0.00831179,-0.123803,-0.0757863,-0.525175,0.835326,0.378928,-0.235474,-0.00636262,-0.241623,-0.264678,0.763226,-0.153512,-0.876589,0.327169,0.490782,0.671584,0.0826243,-0.0981368,-0.308737,-0.0154388,1.39554,0.306867,-0.276514,1.00401,-0.399165,1.36166,0.770669,-0.320738,-1.04302,0.777226,-0.184026,0.720393,-0.0946113,-0.166395,-1.16672,-0.296979,1.02213,0.254588,-0.332514,1.0554,-0.277808,1.00271,0.7574,0.142334,-0.688428,0.848804,0.249916,0.183437,-0.0608931,0.144012,-1.14979,0.128721,1.3909,-0.533248,0.412511,1.22523,0.534075,0.00835672,0.360336,-0.234126,-0.875819,0.347231,0.798878,-0.0351434,0.343794,0.220488,-0.830861,0.368128,1.14774,-0.671096,-0.102793,1.38699,0.972641,-0.111434,0.361289,-0.299047,-0.498678,0.0508186,0.750742,-0.358114,-0.383295,0.714133,-0.548204,0.725546,0.0113917,-0.119753,-0.147419,0.688876,0.853434,0.0511435,-0.287368,-0.192604,-0.333234,-0.0570854,-0.206805,-0.0568679,0.682594,0.86378,0.335042,0.425633,-1.01752,-0.421969,-0.05163,0.436837,1.41636,0.176463,-0.526551,-0.546501,-0.393602,-0.342334,-0.109901,-0.100414,0.173559,-0.19008,0.144054,-0.192014,-0.703594,-0.133917,-1.01701,0.0898689,0.463599,-0.399409,0.341659,-0.718781,-0.453548,-0.719045,0.0187022,-0.312767,0.593239,0.331862,-0.115189,-0.329802,-0.874927,-0.246571,-0.033642,0.150092,0.0265671,-0.620527,-0.0986818,-0.545852,0.12992,-0.615073,0.138955,-0.293017,0.0111084,-0.0665358,-0.60274,0.205018,0.182434,0.266651,-0.282401,0.373398,0.0223078,-0.713091,0.526576,-0.349325,0.135038,-1.11952,0.457121,-0.546328,0.180028,-0.0984901,0.525845,0.185692,-0.288667,0.0142166,0.386642,0.547657,-0.225388,-1.37002,-0.163617,-0.749127,0.187608,-0.921291,0.0811682,0.296065,0.343844,-0.607534,0.0926729,0.0621767,-0.0700826,-0.0577665,-0.151578,0.413142,-0.290326,-0.537533,0.496497,-0.532107,-0.0837147,-0.12448,0.142595,-0.139678,0.425159,-0.600394,0.302334,0.316165,0.450865,0.0058833,0.227274,0.267326,-0.0962067,-1.04168,0.567512,-0.23558,0.177889,-0.4951,0.231826,-0.156717,0.356707,-0.279891,0.0293765,-0.0708904,0.230202,0.100783,0.305258,0.975893,0.0477018,-1.06088,0.256374,-0.651529,0.0165241,-0.0325629,0.242427,0.0787893,-0.180538,0.425442,-0.513976,0.263497,0.194344,0.475082,0.584394,0.310302,-0.0836834,-0.838484,0.412647,-0.333602,-0.377037,-0.651169,0.0488457,0.0581419,0.196839,-0.0288137,-0.013955,-0.298515,0.789912,0.0807608,0.0574649,0.645919,-0.16831,-0.420205,0.250505,-0.267898,-0.442208,0.290363,0.255817,0.137961,-0.393815,0.276859,-0.551492,0.133228,0.804364,0.0169432,0.401573,0.25715,-0.637438,-0.057428,-0.0810309,-0.281268,0.195581,-0.2184,-0.245323,0.383422,0.218056,-0.189878,-0.600411,0.123375,0.101388,0.260079,0.123757,-0.0828142,-0.519505,-0.480593,-0.245748,0.100099,-0.424336,-0.150438,-0.109803,-0.0895966,-0.540542,0.0735452,-0.49103,-0.240508,-0.246575,0.212178,-0.0454458,0.352685,-0.0272418,-0.299938,0.299327,0.312159,-0.254114,-0.196229,-0.220113,0.302326,0.0434303,0.331367,0.250093,0.408674,-0.132181,-0.410456,0.478629,0.480345,0.383703,0.161632,0.407721,0.335167,0.256599,0.375933,-0.467913,0.135327,-0.477733,-0.086856,0.367366,0.335011,0.28599,0.0442121,0.0492999,0.322448,0.389976,0.319941,-0.130059,-0.370001,0.310035,-0.310017,0.320094,0.490003,-0.0499351,0.390017,-0.0599962,0.0199778,0.320032,-0.0199685,0.490007,-0.309988,0.41,0.290001,-0.200008,-0.23,-0.170023,-0.0999992,0.100014,-0.429993,-0.0799835,0.36,0.489989,0.0799988,-0.0899975,0.0699926,-0.309953,-0.419998,-0.410129,-0.359963,0.440316,0.189695,0.0702493,-0.27014,-0.430001,-0.299988,0.200112,0.189803,-0.289992,0.129939,0.169859,0.360812,0.310494,-0.490659,0.401435,0.280045,0.179619,0.0084829,0.27813,-0.120085,-0.233547,-0.48877,0.073008,-0.276953,0.340448,-0.50252,-0.289073,-0.0985845,0.283166,0.0288303,-0.417171,-0.503515,0.640612,-0.478462,0.360682,-0.185777,-0.319719,-0.29888,-0.393196,-0.518854,-0.197975,0.0128869,0.294083,0.0124131,0.147563,0.150333,0.242708,-0.303867,0.47682,0.541708,0.0427764,-0.366581,-0.0374833,-0.164935,0.149696,0.389841,-0.330845,-0.538168,-0.250017,-0.247642,0.102928,-0.570129,0.310562,-0.731715,1.10238,0.188519,0.0315577,-0.080206,-0.511487,-0.216858,0.255271,0.140681,-0.418651,0.179195,0.318586,0.467339,0.216695,-0.22983,-0.0925925,-0.413955,1.01374,-0.247091,-0.496768,-0.678775,-0.3434,0.258608,-0.216911,-0.55415,-0.617648,-0.570982,0.421108,-0.0117748,-0.072963,0.223862,-0.119389,0.175066,1.03344,-0.118576,-0.674492,0.516003,-0.123447,0.672188,0.485994,-0.307025,-0.229917,0.0191314,0.601042,0.582941,0.182271,0.0590835,-0.103251,0.326303,0.327365,-0.444988,-0.287699,0.281153,0.0901842,0.621738,-0.00442398,-0.312669,-0.452396,0.22907,1.42389,-0.406527,0.0189606,0.548092,0.158286,0.498163,0.775619,-0.220446,-0.643978,0.557138,-0.00978916,0.569985,-0.0266006,0.369916,-1.01703,0.291707,1.22286,-0.135149,0.234036,0.194733,0.935776,-0.42354,0.0789013,-0.494664,0.321659,-0.336048,0.0974276,0.793962,0.593127,0.260594,-0.743563,-0.103539,-0.0825626,-0.385836,0.0517205,0.311619,1.60254,-0.656027,-0.111182,-0.585027,-0.472595,-0.122261,0.217119,0.292941,-0.100379,0.268157,0.210505,-0.388471,-0.341084,0.0621454,-0.65775,-0.626872,1.1017,-0.591569,-0.359313,-1.14896,-0.552926,0.0287222,-0.252099,0.0961804,0.626388,0.0451234,0.657149,-0.308153,-1.32509,0.320291,-0.686965,-0.571658,0.833219,0.371953,0.0616078,-1.12929,0.144942,-0.0414734,-0.485931,0.14904,0.577999,0.0196482,-0.182002,-0.139488,-1.09181,0.367833,-1.21719,-0.372922,0.684743,-0.160925,-0.38427,-0.669884,-0.540701,-0.576066,-0.372177,-0.457387,0.696491,-0.0918435,-0.0124705,-0.21666,-0.113867,0.111579,-0.793759,0.123514,0.802033,-0.476866,-0.131811,-0.421477,-0.538627,-0.459074,0.0202607,0.151215,0.412279,-0.312444,0.0769428,-0.824872,0.629647,0.138117,-0.208504,0.447854,-0.00536125,-0.717785,0.32796,-0.196563,-0.506019,-0.622747,-0.103987,0.190012,0.325202,0.121454,-0.0250864,0.0790892,-0.0797293,0.42354,-0.583048,0.303964,0.206304,-0.950275,-0.115547,0.0701792,0.0677773,-1.04295,0.0362069,-0.00967029,0.191654,-0.0954131,-0.4167,0.310798,-0.146178,0.131477,0.296919,0.3855,-0.132598,-0.45461,0.266935,-0.237866,-0.644103,-0.169756,0.043125,0.108658,0.582887,0.23683,-0.567922,-0.148459,-0.00914712,-0.246162,0.389796,0.310054,-0.555306,0.0207398,-0.00329793,0.167804,-0.135979,-0.282996,0.0260667,0.64133,0.0723096,-0.13051,-0.317104,0.46366,0.107866,-0.270625,-0.380088,-0.00405438,-0.378505,-0.202835,0.27072,-0.362512,-0.138428,-0.0912374,0.0609276,0.740663,0.413083,0.434902,0.130705,0.155293,0.930509,-0.0274133,-0.291192,0.409101,-0.198834,-0.696007,0.522142,0.139758,-0.27449,0.282951,-0.147186,-0.0605402,0.258189,0.615984,-0.420564,0.168774,0.322152,0.150212,0.130949,0.498103,0.232507,-0.691577,0.353002,-0.221805,-0.137206,0.432489,-0.453337,-0.185573,-0.343128,0.350281,-0.28052,0.247512,0.5298,-0.306569,-0.378901,0.235893,0.184263,-0.412436,-0.164387,-0.0791585,0.11001,0.426887,-0.484782,-0.217963,0.253643,0.501066,-0.410239,0.240543,0.527287,0.123161,-0.0862253,-0.229296,0.191448,-0.0629673,0.291655,-0.453129,-0.437317,0.0899538,-0.378872,0.342862,0.27995,0.432015,0.177958,0.444031,0.559804,0.0854452,-0.314724,0.508886,0.285018,-0.124718,0.00411115,0.298115,-0.465031,0.288113,-0.335605,-0.187984,0.377157,-0.375012,0.441753,-0.100967,-0.302013,0.0581899,0.244959,-0.175819,-0.462021,-0.151104,0.22569,0.453279,0.4675,-0.00151718,-0.286276,-0.342578,0.403022,0.182173,0.4558,-0.40584,0.345232,-0.504897,0.331035,-0.252617,-0.12999,0.16,-0.130019,-0.229981,0.209992,0.440006,0.339999,0.0899859,0.059994,-0.340006,-0.240012,-0.0100251,-0.440006,-0.0600041,-0.399999,-0.380005,0.14,-0.099999,0.229993,0.2,0.439977,0.0200007,0.090014,0.250007,0.090016,0.11,-0.210011,-0.110001,0.480002,0.369993,0.280046,0.450002,-0.280001,-0.0799977,0.250037,0.439959,0.390004,-0.110001,0.409998,-0.0900106,-0.349987,-0.140017,0.010004,-0.110001,-0.0400245,0.0600759,0.480037,-0.35003,-0.449354,0.140187,-0.470875,0.318123,0.154452,0.0353583,-0.451807,-0.350832,-0.175505,0.228977,0.123423,0.125357,-0.479519,-0.329393,-0.157574,0.442673,-0.0324447,-0.292136,-0.0487468,-0.345793,0.240055,-0.373873,-0.384241,-0.095807,0.0390801,-0.0190381,0.0654246,-0.246912,0.260943,-0.284338,0.0511771,0.323671,-0.279685,0.152208,0.477289,-0.285846,-0.0972024,0.0607098,0.133025,-0.138968,0.535767,0.338941,0.545912,0.432822,-0.0747124,0.599434,0.326644,-0.315486,-0.342263,-0.0274489,0.914838,-0.170011,0.151422,-0.802637,0.462535,0.513149,0.481496,0.321176,0.157429,-0.391482,0.0760652,-0.227694,-0.183545,-0.674092,-0.289812,-0.0513742,1.09235,-0.20013,-0.129848,0.144036,0.0304651,0.469992,0.548383,-0.431818,-0.290209,-0.202689,0.104403,-0.170091,-0.0392715,0.163772,-0.258642,0.66008,0.952397,0.0287354,-0.146096,-0.436205,-0.18417,0.646872,0.224049,-0.118421,-0.316434,-0.45704,1.06211,-0.204391,-0.166004,0.0600626,0.0793655,0.805227,0.514105,0.0193347,-0.346582,0.0794378,0.0303607,-0.0441328,-0.247211,-0.471631,-1.06729,-0.404376,0.408722,0.0831467,-0.0136763,0.15155,0.747979,-0.0317483,0.0268012,-0.715224,-0.331632,0.234178,0.0112464,0.281056,-0.103052,-0.272928,-0.844775,0.0514189,0.0288303,-0.0904773,-0.115597,0.257861,1.69315,0.305186,-0.108058,0.0171179,-0.113553,0.0327393,-0.311729,0.239908,0.0982722,-0.341,0.294757,-0.11879,-0.673301,0.0564083,0.0173173,-0.139552,1.28401,-0.251176,0.0421985,-0.317012,0.0973695,0.497165,-0.446014,0.825538,0.623305,-0.417627,-0.632373,-0.508894,-1.11494,-0.333328,-0.716613,-0.916941,1.30361,0.497718,-0.591704,-1.05397,-0.188907,0.19128,-0.53576,0.741564,0.23236,-0.641993,-0.364319,-0.199866,-0.528689,0.29122,-0.727353,0.0346386,1.41579,0.421055,-0.471598,-0.820347,-0.137503,0.240083,-0.252354,0.295228,0.123215,-1.03606,-0.577636,-0.188784,0.127539,0.07782,-0.690671,0.169191,0.948155,0.00359815,-0.243761,-0.306537,0.212898,-0.186716,-0.206741,0.902645,0.106675,-0.245293,-0.9741,-0.0802556,0.350722,-0.0722583,-0.707792,0.729505,0.743014,-0.962757,0.222419,-0.182465,-0.333326,-0.75406,-0.111369,0.404225,0.593163,-0.222899,-0.714772,-0.367013,0.997391,-0.554278,-0.28406,0.791707,0.182811,-0.963922,-0.258888,-0.0661944,0.0758998,-0.703253,0.147424,0.689082,-0.0118993,-0.13811,-0.945931,-0.60025,0.557314,0.295051,0.0284394,0.558536,-0.0178101,-0.334162,0.164872,-0.0847335,-0.196081,-0.329224,0.0339135,0.34206,0.0406839,0.0310726,-0.0132615,-0.272838,0.604055,0.153632,0.281008,-0.101176,-0.575086,-0.14151,-0.27621,-0.337884,-0.239343,0.098267,-0.0312628,1.01245,-0.0714603,0.0308952,-0.5297,-0.0130464,0.668425,0.256384,-0.372231,0.0132892,0.117102,-0.0743324,0.471201,-0.361716,-0.343395,-0.345841,-0.162907,0.377379,-0.434507,-0.333425,-0.0825609,0.00270038,0.0899293,0.101821,0.373604,0.156457,-0.797575,-0.787547,0.280184,-0.15147,0.200949,0.180912,0.376307,0.721037,0.498092,0.446118,0.216312,0.12621,0.164725,0.434147,0.365926,0.0621273,0.117012,-0.0518948,-0.205758,0.319986,-0.644357,-0.320568,-0.275398,0.0302662,-0.316326,-0.108355,-0.610807,0.626674,0.433172,-0.268923,0.330075,-0.00947565,-0.381037,0.219431,-0.0676169,0.175823,-0.231405,-0.15888,0.0851893,0.626571,0.375996,-0.281427,-0.616085,-0.216656,-0.281067,0.151106,0.396062,0.598263,-0.354127,0.134857,-0.0186316,-0.0661937,-0.239865,0.071294,0.0517784,0.0100356,0.238543,0.405756,-0.0635422,0.39565,0.560803,-0.221489,0.0880287,-0.315698,-0.490921,0.168107,-0.421785,0.0707542,0.266481,-0.00827923,0.0277534,-0.409174,-0.330681,0.476025,0.428559,-0.0123072,-0.478494,0.0636132,0.332164,0.103564,-0.288742,-0.314532,-0.180434,0.399132,-0.370673,0.438127,0.35252,0.0380454,0.00230298,0.33913,-0.360917,0.145797,-0.485508,0.121245,-0.00738949,0.319248,-0.0347591,-0.420995,0.163094,-0.0596941,-0.199622,-0.272013,-0.109142,-0.186972,-0.361528,0.146692,-0.387581,0.329937,0.0425697,0.0895298,0.101974,-0.3513,0.460019,-0.35,0.249964,-0.00996404,0.209985,0.130011,0.00999768,-0.430026,0.279989,-0.210012,0.269977,-4.6335e-05,-0.410011,0.319992,-0.189998,-0.33001,0.18,-0.26,-0.09,0.28,-0.31,-0.32,-0.5,0.38,-0.46,-0.2,-0.3,0.45,-0.11,0.14,0.35,-0.23,0.4,-0.15,-0.21,-0.31,0.43,-0.08,0.19,-0.19,-0.48,-0.21,-0.19,-0.39,0.18,-0.34,-0.33,0.19,-0.486294,-0.348198,0.0402692,0.462539,0.303727,-0.241858,-0.0605226,-0.337127,-0.451629,-0.437617,0.23504,0.408472,0.199152,-0.47157,0.381657,0.213244,0.124549,0.193194,0.495646,0.326687,0.49547,-0.200153,0.227003,0.18653,0.0229768,-0.524179,0.374612,0.305502,0.433532,-0.257125,-0.334523,-0.156191,0.106839,0.0173531,-0.277009,-0.0708983,0.11388,-0.333607,-0.44836,0.462886,0.0957498,-0.0743595,-0.0850238,0.146792,-0.209996,0.102959,0.0824437,0.13577,-0.264144,-0.569984,0.569365,-0.425192,-0.248317,-0.719064,0.232953,0.296031,-0.084672,-0.413576,-0.144939,-0.249139,0.212446,-0.0677085,0.22604,0.137663,0.497744,-0.0513513,0.0807421,-0.30338,-0.254056,-0.737966,0.39173,0.209544,-0.0460153,-0.0923138,0.15877,-0.351337,-0.00367158,0.304962,-0.0938852,0.0702761,0.637627,0.427638,0.443298,0.0923456,-0.0567205,-0.31293,0.377175,-0.101355,0.0848368,0.12064,-0.395972,-0.583311,0.0135293,-0.497339,0.100948,-0.307543,0.813361,0.618116,0.103921,-0.237105,-0.215022,0.10505,0.486114,0.00729448,0.218036,-0.24975,-0.360193,-0.11345,0.221676,-0.572088,0.169768,-0.0290966,1.22558,0.712841,-0.243944,-0.0607001,-0.265709,0.335545,0.3006,0.168661,0.382232,-0.279717,-0.372149,-0.401909,-0.0981024,-0.144458,-0.0654515,-0.0772147,1.74951,0.64254,-0.22937,-0.500645,-0.230471,0.246143,-0.0761409,0.167865,0.00164741,-0.808177,-0.48312,-0.200345,-0.182208,-0.0724328,-0.571287,-0.335265,0.886617,0.777545,-0.545411,-0.823061,0.302972,0.268365,-0.587227,0.32697,0.216716,-0.757712,-1.2871,-0.802508,-0.660964,0.252754,-0.893468,-0.523273,1.37629,0.334091,-0.681937,-0.797615,-0.22622,0.652886,-0.39862,0.679228,0.597676,-0.833932,-1.14718,-0.376546,0.257638,-0.411853,-1.11099,-0.56121,0.488119,0.180635,-0.2567,-0.830085,-0.0227329,0.474661,-1.01179,0.836934,-0.0435088,-0.376695,-0.895177,-0.730847,0.932688,0.333866,-0.34025,-0.379195,0.655043,0.428684,-0.0901128,0.107953,0.327132,0.954224,-0.261712,0.807563,-0.0991496,-0.428315,-1.31712,-0.780473,0.948071,-0.426378,-0.176603,0.0246835,0.220521,-0.487571,-0.450882,-0.249271,0.182423,0.823006,-0.410799,1.03816,0.324053,0.342682,-0.613293,-0.561036,0.641931,0.33849,0.169479,0.357491,0.0554359,-0.323434,0.0646096,-0.460009,0.471345,-0.0637133,0.559971,0.392808,-0.367985,-0.111613,-1.04068,-0.035109,0.431223,0.205877,-0.333183,0.226561,-0.33915,-0.406491,-0.442203,0.0406118,-0.139263,-0.120613,0.132175,0.726322,0.298788,-0.0499196,-0.516488,-0.00575718,0.38505,-0.102047,-0.183755,0.471947,0.0923188,0.0973156,0.274727,-0.465039,0.00517992,0.141945,0.563298,0.729241,0.116191,-0.284018,-0.225142,-0.427046,0.0654565,-0.0841653,0.478716,-0.0178749,-0.357821,-0.381986,-0.266885,-0.362161,-0.380048,0.43604,-0.301734,-0.00198426,0.338944,0.291436,-0.37179,0.278758,0.219405,-0.457456,0.286256,0.333323,-0.0812195,-0.354722,0.0347923,0.364585,-0.534872,-0.187064,-0.423001,0.0789229,-0.0682431,0.227644,0.40555,-0.287185,0.215814,-0.329707,-0.107145,0.0840236,-0.424103,0.112494,0.203785,0.329879,0.230294,-0.0912238,-0.262846,0.276048,-0.443613,-0.243551,-0.103744,0.38471,-0.296794,-0.314649,-0.106036,-0.344142,-0.108396,-0.193432,0.0849096,-0.286812,0.359383,0.377893,0.0527619,-0.350052,0.350742,0.39641,-0.461624,0.479918,0.277152,-0.03996,-0.526011,-0.417139,-0.52169,0.0957015,-0.503784,-0.385684,-0.181088,-0.204432,0.0204861,-0.174893,0.335116,0.267043,-0.128272,0.0966942,0.518357,-0.230338,-0.434706,0.378486,-0.115185,-0.227641,0.149088,0.190628,-0.0182375,-0.404622,0.402936,0.0420899,-0.287241,0.273586,0.336557,-0.159985,0.208741,0.211255,0.0791329,0.175682,-0.20056,-0.223295,0.147882,0.224141,0.241101,-0.298464,0.259933,0.461738,0.202953,0.172117,-0.187559,0.292751,-0.381955,-0.448207,0.0745152,-0.040459,-0.271639,0.369002,0.130878,-0.250874,-0.358935,0.0267756,0.361657,0.130487,0.418982,0.180226,-0.00987776,0.389972,-0.479919,0.300363,-0.110041,-0.303463,-0.2,-0.11,0.12,-0.34,-0.07,-0.39,-0.5,-0.18,0.05,-0.46,0.2,0.26,-0.19,0,-0.45,0.24,0.05,-0.44,0.48,0.36,-0.28,0.4,-0.32,-0.45,-0.14,0.24,-0.17,0.03,0.08,0.3,-0.12,0.29,0.04,-0.39,-0.06,0.02,0.19,0.06,-0.18,-0.02,-0.34,-0.49,-0.43,-0.1,-0.36,0.12,-0.28,-0.39,0.23913,-0.288474,0.124273,0.29608,-0.348197,0.0300983,0.0299434,-0.441356,0.273092,-0.402532,0.363319,-0.350364,-0.240677,0.12905,-0.0672479,-0.133225,-0.473122,-0.168801,0.247003,0.430791,-0.369515,0.400509,-0.465314,-0.0843439,-0.2033,0.243898,0.33522,0.392605,-0.355217,0.155241,0.270212,-0.421191,