0.218846,-0.292314,0.223742,0.408669,-0.179229,0.468577,0.287096,0.106317,-0.210402,-0.263775,-0.0501404,0.0158171,0.213653,0.310247,0.194223,0.242617,-0.249862,0.419982,0.0405807,0.0336652,0.103885,0.231564,0.406151,0.358682,-0.0225399,0.101203,0.212893,-0.0835964,0.359448,0.211693,0.305425,-0.134056,-0.101046,-0.0980323,0.162032,-0.0913933,-0.377336,0.422814,0.449764,-0.190286,0.0828056,0.257623,-0.181142,0.0430505,0.136381,-0.401499,-0.379888,0.427884,-0.453581,-0.370732,-0.363677,0.0896016,-0.200096,-0.109888,0.397316,0.436707,0.178353,0.283975,0.0877549,0.274162,-0.398711,0.263051,-0.416853,-0.348916,-0.0918987,0.358034,0.137427,0.14726,-0.31167,0.372367,0.314821,0.217241,0.32622,0.0278184,-0.486237,0.343189,0.41998,-0.507014,-0.357865,0.25858,-0.280445,0.0501415,-0.447967,-0.264694,-0.200403,-0.133362,-0.26664,-0.193985,-0.48008,-0.216361,-0.134771,-0.418845,0.201475,-0.0535297,-0.299785,-0.147086,-0.0823202,-0.152958,-0.364297,-0.0359098,-0.199728,-0.347187,0.512195,-0.334449,-0.449496,-0.340338,-0.134026,-0.195224,-0.0622644,-0.48001,-0.166501,-0.222063,0.227945,-0.368047,0.333533,-0.371937,-0.0149638,-0.345172,0.113917,0.00271919,0.0469459,-0.248137,-0.0640354,0.175897,-0.136023,-0.0689346,-0.0960952,-0.0242589,-0.383139,-0.220681,-0.30735,-0.0309845,0.484591,-0.0920368,-0.222773,-0.170246,-0.31829,-0.216369,-0.138476,-0.303881,0.0107948,0.107333,0.321214,0.445339,-0.1137,-0.17166,0.481833,-0.303413,0.0693374,0.161537,0.311088,0.0475489,-0.00504771,0.109785,-0.217371,-0.365277,-0.0784344,0.474882,0.143066,0.291299,0.00781081,0.0148309,-0.217375,0.222133,-0.122484,-0.246324,0.235905,-0.0749588,-0.369682,-0.37925,0.06461,-0.0333564,-0.296792,-0.30634,0.140437,-0.0970749,0.354009,-0.505806,-0.456094,0.411526,-0.340224,0.0357957,0.0698207,-0.470807,-0.388872,-0.399053,0.303068,-0.0560668,0.304026,-0.0887358,-0.291196,0.295396,0.306218,-0.397743,-0.479831,0.393249,0.421233,0.236583,0.451799,-0.223824,-0.305594,-0.146341,-0.496295,0.403598,-0.106984,0.386883,0.240522,0.112716,-0.206329,0.18159,-0.236942,0.387823,-0.523565,-0.389084,-0.334871,-0.285086,-0.378519,-0.468623,0.179943,-0.0327749,0.0956471,-0.370681,0.483034,0.281866,0.0523224,-0.123723,0.372045,-0.286249,0.0483992,0.348968,-0.239855,0.430642,-0.278668,0.324487,0.148461,-0.215228,0.260127,-0.429346,0.0904278,0.0981508,-0.134691,0.359441,0.0421876,-0.275977,0.354385,-0.233207,-0.473923,-0.0210034,0.275101,-0.421364,0.207612,0.420414,-0.464275,-0.0841375,0.151095,-0.146631,-0.325223,0.104155,-0.0162327,0.396741,0.0639813,-0.344914,0.261678,0.130226,-0.165228,-0.407403,0.0765432,0.257743,0.412914,-0.00591531,-0.456957,-0.279652,0.0629642,0.129642,0.109614,-0.234438,0.207213,0.260327,0.242015,-0.103117,0.179409,0.0323947,0.131113,-0.00395703,0.0184352,0.230232,0.130809,0.500296,-0.295348,0.116119,0.00551007,0.0900767,0.386707,0.447245,0.0263595,-0.303178,-0.183019,0.304778,-0.385472,-0.125781,-0.0768595,0.447746,0.267035,0.0747618,-0.229144,0.0586066,0.132789,0.479338,0.423316,-0.119669,0.431802,0.327243,0.183959,-0.13541,0.226566,-0.415998,0.221105,-0.0705311,0.483186,0.284839,0.0759546,0.126027,0.420276,-0.486617,-0.454422,0.294116,0.409637,-0.327217,0.174227,-0.445626,-0.366995,-0.083451,0.461423,0.0204225,-0.00983845,-0.465857,0.434277,-0.455488,-0.36146,-0.0143766,-0.236321,-0.205671,0.0471456,0.203178,0.439164,-0.30645,0.211358,0.322923,0.451197,0.204434,-0.435959,-0.142987,-0.516632,0.448877,-0.0338673,-0.219608,-0.325378,0.186508,0.326771,-0.204104,0.240309,0.363221,0.19712,-0.0648284,-0.160134,-0.419765,0.481114,-0.233145,0.22483,0.0485826,-0.464034,0.057435,-0.0668863,0.240695,0.0788196,-0.137872,-0.116709,-0.430958,0.0675886,-0.269093,-0.00271151,0.459804,-0.127467,0.141465,0.239171,0.157047,-0.440444,0.380674,-0.45861,0.323966,-0.0313874,-0.384073,-0.443761,-0.261938,-0.246337,0.302916,-0.0309645,-0.309733,-0.116475,0.169796,0.490151,0.372908,0.376737,0.360853,-0.449929,0.0911006,-0.445915,-0.478956,-0.0110742,-0.407575,-0.204913,-0.513359,0.0629079,0.381545,-0.110202,-0.0671903,0.113648,-0.123438,0.449319,-0.304661,-0.546196,0.265031,0.402686,0.428368,-0.00862148,0.0395577,0.311702,-0.3578,-0.167364,0.289863,-0.313958,0.215229,-0.402491,0.282883,0.193304,-0.262203,-0.112952,0.406065,-0.0972803,-0.144945,-0.292299,-0.104909,-0.414043,-0.245716,-0.155956,-0.264264,0.403346,0.47885,-0.355999,-0.389396,-0.287688,-0.37774,-0.208661,0.311734,-0.0606974,-0.336649,-0.194771,0.325919,0.0590606,-0.375055,0.252521,0.492025,0.514772,-0.127544,0.154386,0.167671,-0.155666,-0.048625,-0.0952046,-0.130624,-0.247335,0.295963,-0.177303,0.466047,-0.182646,0.0973291,-0.195814,0.160283,0.410647,-0.191289,0.4223,0.18788,0.330815,-0.46405,-0.183103,-0.149042,0.205513,-0.126607,0.34383,0.226298,-0.216603,-0.0750768,-0.472362,0.507447,-0.159647,-0.320877,-0.0651814,0.4804,0.49933,0.463297,0.21049,0.25165,0.281991,0.0945121,0.112563,-0.486679,0.442768,0.290362,0.48712,-0.322353,0.371383,0.425702,0.286219,0.346107,-0.149666,0.388356,-0.310588,0.347634,-0.445324,0.0268147,0.313543,-0.357382,-0.291548,0.431549,0.232702,-0.0548965,-0.0956101,0.372905,-0.429342,-0.514778,0.393911,0.126621,-0.180294,0.233542,0.313173,0.252452,-0.16017,-0.330879,0.34589,-0.486583,-0.209056,-0.0449684,0.061628,0.0841833,-0.186683,-0.369925,0.481391,-0.317527,-0.440387,-0.502531,-0.175532,-0.275164,0.264325,0.0134413,-0.190265,-0.0907683,0.304413,-0.367321,0.311726,0.477629,0.178791,0.141035,0.10308,-0.435955,-0.484033,-0.237284,0.378085,-0.418871,-0.437403,-0.322532,-0.256699,0.0364487,0.156365,-0.176604,-0.400724,-0.256144,0.014928,-0.153345,-0.0827049,0.0479453,-0.414282,-0.535286,0.0717267,0.20119,-0.38739,-0.0874457,-0.26366,0.386695,-0.0906429,-0.138964,-0.487676,0.0672949,-0.150708,-0.0435369,-0.196395,0.0791914,-0.422823,-0.0848166,0.284523,-0.284528,-0.447232,0.367957,0.251527,0.469203,-0.392412,0.0883299,0.389677,0.332847,0.33451,0.284016,0.415203,-0.53281,0.0493898,-0.513123,-0.124689,-0.404558,0.228378,-0.396446,-0.346355,0.171361,-0.217009,-0.230192,0.472811,0.274844,0.0749133,0.0871292,0.311372,0.279257,0.00988071,0.0291576,-0.384,0.186402,-0.0702768,-0.0828685,-0.417598,0.230275,0.151158,-0.0381116,0.337142,0.180582,-0.483576,-0.223141,0.290599,0.164676,-0.212922,-0.232984,0.336799,-0.396796,-0.519164,0.353623,-0.0868912,0.30454,0.453398,-0.131746,-0.447807,0.170181,0.364827,0.194262,0.229586,0.31348,-0.297053,-0.453487,0.153337,-0.208656,0.380022,-0.18838,0.321335,0.263676,-0.426443,-0.213088,0.183441,-0.122805,0.318854,-0.107719,0.43746,0.259007,0.0345281,-0.283066,0.232495,-0.262657,0.415806,-0.337748,-0.363464,-0.386973,-0.496344,0.403806,-0.128833,0.0560753,-0.0761351,-0.00902899,0.457071,-0.366803,0.430068,0.257282,0.0159527,0.176477,-0.470693,-0.329925,-0.3903,0.408637,0.198313,-0.206663,0.317447,0.330438,0.421675,0.225395,0.0609465,-0.355523,0.130289,-0.155324,-0.228837,0.0490391,-0.271428,0.431705,0.163842,-0.23855,-0.0781818,0.0991917,-0.355815,-0.444003,0.419299,-0.383577,-0.251498,0.0169248,0.291057,0.141496,0.145282,0.424665,0.205323,0.394094,0.117727,-0.0154027,0.0388578,-0.340858,-0.0441995,0.150887,-0.176986,0.122667,0.0688361,0.301283,-0.0333065,-0.0196519,0.071849,0.167963,-0.268938,-0.120929,-0.279776,0.332965,0.256221,-0.10022,0.103437,-0.389433,0.265014,0.0408358,-0.28953,0.0847432,-0.195896,-0.427088,0.265567,0.0486919,0.102318,-0.424191,-0.283323,-0.37577,0.197071,0.401657,0.487222,0.0254718,0.460483,0.361114,-0.453087,0.145277,0.357646,0.108021,0.055409,-0.45737,0.236767,0.284893,0.0744836,0.375058,0.136735,-0.419692,0.180227,0.37238,0.434554,0.0308179,-0.387838,-0.430293,0.257381,-0.396359,-0.0605928,-0.255489,0.416776,-0.0264168,-0.34165,0.086565,-0.465735,-0.562922,-0.0797922,-0.215873,0.389066,0.0898529,-0.252146,0.14815,-0.517253,0.467469,-0.44496,0.505728,0.141102,-0.224937,0.2605,-0.302335,-0.0743524,-0.471752,0.0503555,-0.313302,0.295796,-0.370705,0.187853,0.107951,-0.472641,-0.470577,0.478025,0.142868,0.199645,-0.0534288,0.461281,0.026852,-0.055942,0.389165,-0.103843,-0.489072,0.0619289,-0.514239,-0.298417,-0.464075,0.0109271,-0.45176,0.341908,-0.200577,0.0447005,-0.151219,0.429199,0.0842866,-0.199101,-0.262797,0.237946,0.276908,-0.467056,-0.24464,-0.255025,0.35413,0.336067,0.328249,0.359169,-0.146309,0.270328,0.225777,-0.395347,0.397073,0.119312,0.446306,-0.20088,0.200262,0.363996,0.0901392,-0.378822,0.259829,0.0548985,-0.373449,-0.109211,-0.0593543,-0.199814,-0.0760717,-0.262195,-0.134603,0.445756,-0.247423,0.38207,0.419058,-0.537506,0.147107,-0.443851,-0.0720573,0.163222,-0.391816,0.36871,-0.0820492,-0.264664,-0.0691571,-0.362286,-0.024776,-0.326444,0.056683,-0.000823942,0.00169501,0.0668688,0.228622,0.378684,0.415683,-0.025432,-0.0798195,0.446942,0.0641567,-0.238584,-0.278547,-0.278341,0.354642,0.146704,0.430902,-0.254292,0.206951,-0.18266,-0.400942,0.241687,0.417405,0.441323,-0.190325,0.118502,0.328992,0.360556,0.458809,-0.348625,0.306907,0.427296,0.0662189,0.0258192,0.39863,0.045651,-0.215628,0.23246,-0.274494,0.0516313,0.33677,0.243727,-0.19724,-0.522071,-0.129822,0.302012,0.33011,-0.486268,-0.347007,0.395657,0.195009,0.250418,-0.381071,-0.22522,-0.017135,0.313222,0.0517622,-0.234035,0.297502,0.0477803,0.33023,0.310803,0.0170468,-0.0598772,0.118239,0.321044,-0.275446,-0.119625,-0.00899033,0.45758,0.427273,0.118988,0.0833466,-0.0681791,0.178419,-0.392058,0.0196976,0.259205,0.250342,0.470737,-0.189134,0.160325,0.252494,0.217159,0.111011,-0.485125,-0.24847,0.353961,0.315776,-0.16056,-0.0629929,0.449813,0.101606,-0.386477,0.163458,-0.00331716,0.344444,0.189251,-0.305204,-0.340577,0.368127,-0.238132,0.0133193,-0.295412,0.141691,0.0684267,-0.0240317,0.076447,0.400178,0.0840896,-0.0244586,0.144209,-0.412461,0.312151,-0.475869,-0.0389499,-0.142505,-0.258186,0.186695,-0.195721,0.063455,-0.293102,0.0113642,-0.0240607,-0.496359,0.0567707,-0.373303,-0.162276,-0.139732,0.279553,0.336741,0.408878,-0.0227321,0.00692734,0.0994494,-0.374704,-0.411901,-0.128568,0.0902535,-0.150104,0.0406588,0.459697,-0.0596225,-0.310392,0.401672,-0.450132,-0.348287,-0.304429,-0.208112,-0.0117681,-0.167138,0.0137875,-0.0571108,-0.0421101,0.333008,0.166201,-0.0905883,0.0718103,0.36405,-0.0119574,-0.377913,-0.250233,0.500618,0.292214,0.0812894,0.238747,0.243177,-0.269638,-0.146125,-0.435572,-0.388445,-0.0176545,0.44914,-0.35991,-0.120294,0.463818,0.394411,-0.308986,-0.311291,-0.144254,0.00870703,-0.211209,-0.0938994,0.441334,0.0132443,0.347859,0.00785693,-0.127874,0.440473,0.364205,0.393667,-0.321368,-0.137467,-0.362451,0.47616,0.300461,0.00213625,0.051935,0.304431,-0.106234,0.133167,-0.343241,-0.449815,0.044082,0.108205,0.142134,-0.0768293,0.401202,0.0836718,0.0194754,-0.388218,0.265857,-0.167835,-0.301061,-0.270002,-0.498833,-0.423207,-0.203628,-0.303987,0.0630562,-0.313362,0.144188,0.0114401,-0.256523,0.317019,0.263615,0.112136,-0.371333,-0.00140935,-0.00370986,-0.510405,0.0449096,0.179416,-0.063603,0.0434579,0.388642,0.353758,0.257188,-0.33756,-0.354935,0.456839,0.0389718,-0.382681,-0.425831,0.0802014,-0.0666411,-0.385727,0.196828,-0.326072,-0.0276475,0.139204,0.0177826,0.142783,-0.488351,-0.473039,0.444044,-0.00543618,-0.0384979,-0.167259,-0.225056,0.0780753,-0.0453834,-0.052646,0.22531,0.31869,-0.358406,-0.154496,0.161598,0.232269,-0.0917565,0.151766,-0.441792,-0.146494,0.405369,-0.0723396,0.178537,-0.348301,0.1413,-0.333103,-0.272484,-0.189798,-0.460143,-0.381818,0.379539,-0.259224,-0.313507,-0.263002,-0.139395,0.287582,0.144785,-0.459083,0.0219659,0.155734,-0.131309,-0.356559,-0.316686,-0.0980061,-0.482591,0.0308556,0.292402,-0.462196,-0.0599591,0.340537,-0.490037,-0.144105,-0.137336,0.497975,0.276181,-0.250018,0.309447,-0.121024,0.160034,-0.365934,-0.366118,-0.0583729,0.262916,-0.283395,-0.273794,0.313661,0.0378643,0.0744356,0.399917,-0.259774,-0.133705,0.482121,-0.269828,-0.374822,-0.322479,0.157077,0.13467,-0.147575,0.409419,-0.41413,0.261195,-0.444008,0.230679,0.0428116,-0.139872,-0.201469,-0.20547,0.00807911,0.048935,-0.0156889,-0.433264,0.403395,-0.241119,-0.151418,0.331358,0.137286,-0.177108,-0.339208,0.379235,-0.185408,-0.00196977,-0.479774,0.189961,-0.460281,0.0289343,-0.204865,0.36891,-0.149601,0.24224,-0.0115602,-0.131158,0.354653,-0.0656018,-0.227785,0.0831403,-0.130571,-0.400782,-0.255072,-0.0623414,0.177239,-0.0788657,-0.512636,0.213809,0.439589,-0.428456,-0.246054,0.00468918,-0.515945,0.288178,-0.277692,-0.061947,0.175513,-0.125862,0.119407,0.279512,0.170107,-0.233479,0.074649,0.264605,0.329791,0.187543,0.282369,0.045837,-0.0573935,-0.378984,-0.386745,0.12294,0.208045,-0.0796224,-0.085588,0.34912,0.260544,-0.383228,-0.191028,-0.42852,-0.256683,-0.507411,0.112476,0.268238,-0.507186,-0.356606,-0.0480427,0.376638,0.188202,-0.576031,-0.508921,-0.0306074,0.269869,-0.215513,0.0883523,0.049586,-0.373322,-0.225657,-0.00251881,0.302414,0.368726,0.448417,-0.305856,0.0739562,-0.400794,-0.374597,-0.258913,-0.056269,-0.241211,0.225912,0.100006,-0.00353714,-0.292059,0.00973069,-0.317919,0.130845,0.187038,0.418763,0.201872,-0.389672,-0.363848,0.204951,0.465841,0.258125,0.40137,0.317833,0.507176,-0.146934,0.386274,0.251613,0.12388,-0.113773,0.109889,0.195509,-0.138205,0.40844,-0.242708,0.237019,-0.225758,0.11302,0.266984,-0.0100515,0.246487,-0.116744,-0.128497,0.161843,-0.242823,-0.357912,0.44931,0.0742085,-0.0898868,0.395758,-0.110699,-0.0111526,0.337496,-0.125363,-0.192092,0.0114956,-0.180358,-0.177503,-0.390881,-0.392032,0.187977,-0.000377611,0.152685,-0.0339831,-0.0882603,-0.242235,0.415121,-0.0632863,0.289116,0.266154,0.0135607,-0.0927066,-0.260311,0.334145,0.237374,0.125794,0.0342142,0.00776258,-0.0529456,-0.472587,-0.342851,0.410731,0.375144,0.512066,-0.350966,-0.209082,-0.154283,-0.165522,0.20002,0.196148,0.141186,-0.289786,-0.0285014,-0.464687,0.143399,-0.118417,-0.046373,-0.273775,0.410008,0.408176,0.303118,0.0521895,-0.0906377,-0.404104,0.301763,-0.389012,0.33993,-0.211947,0.460496,-0.385245,-0.198356,-0.17198,0.274908,-0.341079,0.105782,0.0198422,0.153504,0.425974,-0.36882,-0.127665,0.315802,0.0138345,0.0216444,-0.389796,0.252229,-0.534347,0.385445,-0.180386,-0.156659,0.214201,0.581956,-0.488495,0.210935,-0.477531,-0.331582,-0.228044,-0.441628,-0.516496,0.268867,-0.231393,0.391446,0.475541,0.148651,-0.124863,-0.468411,-0.187334,-0.304343,0.0152076,-0.391202,0.323382,0.0019291,0.451236,-0.25428,0.375706,0.459972,-0.428674,-0.240847,-0.461996,0.175383,-0.247776,0.441273,0.0958738,0.205186,-0.416303,-0.169366,-0.17943,-0.233552,-0.506021,-0.0415752,0.173023,0.544157,-0.17448,-0.00764918,0.259635,0.45668,-0.35126,0.0405013,-0.35396,-0.341226,-0.0217452,0.253132,0.449398,-0.0232267,-0.338583,0.0109338,-0.0339891,-0.499135,-0.422088,0.26373,0.236274,-0.285122,0.240216,0.0112927,0.420531,0.361755,0.434741,-0.258099,-0.0155643,-0.421508,0.154207,-0.282095,0.256581,0.291154,-0.42284,-0.278947,-0.0611584,0.265665,0.317627,-0.210333,0.0238845,0.0916121,0.266955,0.18213,-0.177231,0.0834766,-0.365228,-0.179725,0.165558,-0.418028,0.00293595,0.336552,-0.388119,0.259858,0.172847,0.317981,0.233343,0.0494716,-0.0782951,0.477798,0.272887,-0.422191,0.163325,0.383048,-0.182559,-0.362665,-0.233419,-0.279713,0.0523289,-0.286761,-0.336122,0.406174,0.413999,-0.166639,0.464641,-0.0690735,-0.461789,0.0403351,-0.202615,0.105566,-0.316295,0.0334524,0.0656803,0.0976989,-0.355929,-0.0777936,0.234305,-0.0426235,0.0973206,-0.505335,-0.28378,-0.266766,-0.309715,0.247216,-0.233197,-0.223138,0.274634,-0.249548,-0.199893,0.142379,-0.375062,0.077038,-0.44011,0.481904,-0.416665,0.109604,-0.326535,-0.400933,0.38646,0.528967,-0.26547,-0.184229,0.370853,0.129286,0.414701,0.15729,-0.2838,0.418366,-0.142759,-0.140397,0.38061,-0.444807,0.491189,0.183823,0.170594,-0.347171,0.00138598,-0.331788,0.37267,-0.275337,0.133652,-0.236469,0.239595,-0.306232,0.410486,0.430472,0.377843,0.274753,-0.034058,0.105074,0.351131,-0.00456445,-0.0365274,0.0414528,-0.401874,-0.171323,0.289016,-0.278708,0.483646,-0.0669982,0.237499,0.0520819,0.315716,-0.26105,-0.103149,-0.323091,-0.0154864,-0.384605,0.383896,0.435398,-0.414402,0.432011,0.15234,-0.402167,-0.0690055,0.401401,0.0489854,0.228478,-0.457613,0.0455813,0.262048,0.42484,0.311684,-0.0640393,0.402623,-0.0508734,-0.312692,0.320321,0.32675,0.165627,-0.0617944,-0.10686,0.126208,0.254963,-0.161877,-0.301785,-0.210985,0.319013,0.41475,-0.0873073,0.294384,0.19826,0.267052,-0.455021,-0.245789,0.379834,-0.362053,-0.240044,-0.0714323,0.0400223,-0.447916,0.137684,0.138486,-0.396774,0.339241,0.468161,-0.227741,0.286705,-0.161223,-0.232861,-0.252334,0.238365,-0.161942,0.0585616,-0.364659,-0.0226452,0.0644979,0.330482,-0.267621,0.381604,0.47451,-0.322712,0.0163229,-0.416921,-0.177803,-0.00655839,0.16368,-0.359038,0.2258,0.147096,0.441876,-0.152641,0.180683,-0.365674,-0.13902,-0.113049,0.571003,0.260985,-0.0356356,-0.370411,-0.108499,0.46678,0.191921,-0.415637,0.127446,-0.189983,0.108159,0.0967583,-0.150131,0.22932,0.421715,0.14505,0.558737,0.284519,-0.298012,0.0556635,0.178498,0.320614,0.0867925,-0.107531,0.227884,-0.0218503,0.455915,0.326741,0.509313,0.437067,-0.354997,0.177929,0.153904,0.234734,-0.110625,0.326718,-0.279866,-0.398432,0.443846,0.310111,0.321035,0.352418,-0.505226,0.244054,-0.303706,0.43626,0.0559713,0.0721654,0.345758,-0.226887,-0.115543,-0.550221,-0.463741,0.271599,-0.167632,-0.265664,-0.131686,0.415069,0.421881,0.0874173,-0.284859,0.473091,-0.131099,-0.124558,0.0936913,-0.43022,0.0123202,0.583406,-0.207033,-0.0914559,0.189141,0.0728805,-0.0578194,-0.0667731,-0.10368,-0.0866119,0.433998,-0.264682,-0.0173383,0.484396,-0.411855,0.169537,-0.380223,-0.132308,0.29618,-0.52139,0.112541,0.118318,0.402845,-0.404258,0.16721,-0.195392,-0.387239,-0.149635,0.247974,-0.0866718,-0.174711,-0.0947484,-0.482359,0.133233,0.402358,-0.0501642,0.473571,0.255312,0.355787,-0.449517,0.184709,-0.404266,-0.110321,0.139558,-0.342706,0.347929,-0.31404,-0.505228,-0.135185,0.233496,-0.0849763,-0.280669,-0.503799,0.461909,-0.173593,-0.492729,0.267182,-0.385206,0.395408,-0.326204,-0.527037,0.194611,-0.260555,-0.269735,-0.0820321,-0.277704,-0.162396,-0.00271854,0.424761,-0.0384946,0.32356,-0.439609,0.268942,-0.0247857,-0.452732,-0.289608,0.0463978,-0.107062,0.19683,0.361925,-0.262376,0.211835,0.190662,-0.103799,0.126257,0.0776199,0.219465,0.0382852,-0.0427439,0.306946,0.308751,-0.203269,0.429941,0.076884,-0.119973,-0.354416,-0.315545,-0.0213073,-0.064813,-0.0791614,-0.336057,0.132258,0.0255304,0.305074,0.130639,-0.0734853,-0.328423,-0.477647,0.440439,-0.420975,0.177909,0.215602,0.142355,0.0591841,-0.30153,0.275305,0.0889637,0.123044,-0.175321,0.0670271,-0.0305596,0.159564,0.373819,-0.0912518,-0.180843,-0.207502,-0.176137,0.0636187,-0.347844,0.10575,-0.162658,0.00320421,0.208756,-0.101851,0.298527,-0.303417,0.264908,0.174658,0.441151,0.336446,-0.179084,0.238564,0.0856327,0.0344902,-0.0878482,-0.325974,0.461564,-0.489929,-0.0178266,0.219429,0.291256,-0.313283,-0.181982,0.13768,0.210872,-0.187241,0.0821584,0.131607,0.41784,0.370033,-0.246674,0.345402,-0.304441,0.211303,0.0822748,0.0750167,0.344862,0.137171,0.422481,-0.0985855,-0.435851,-0.0095404,-0.207301,-0.0255478,-0.425648,-0.033912,0.155876,0.233442,-0.261872,0.46562,0.184541,-0.380406,-0.339319,0.0513752,-0.0218336,-0.567516,-0.310104,-0.115097,-0.329385,0.149612,-0.00932503,-0.168667,0.312974,0.29716,-0.183531,0.113947,0.498,-0.0811976,-0.0077009,-0.450689,0.309941,0.22388,-0.115678,-0.255369,-0.246937,-0.337789,0.480605,0.501946,-0.343132,-0.0566651,-0.375714,0.247907,0.376089,-0.12035,-0.129973,-0.00418171,0.0700335,-0.459655,-0.119286,0.348891,-0.332556,-0.511266,-0.318434,-0.547899,0.229382,0.345363,0.111245,-0.349736,-0.297389,0.104132,0.287207,0.477309,-0.216879,-0.0951344,0.185741,-0.192468,0.400453,0.00821161,-0.347044,-0.0307832,0.0662711,0.03866,0.366301,0.23442,-0.373327,-0.408795,-0.175903,0.375118,-0.470045,0.44821,0.457802,-0.303388,0.124864,-0.403139,0.165373,-0.277493,-0.152949,-0.458042,0.462654,-0.0192313,-0.116404,-0.132478,-0.222695,0.10751,0.324535,0.0925361,0.156234,-0.108172,-0.00637338,-0.279872,0.519657,0.558125,0.427123,0.0776052,-0.141297,-0.548448,-0.0430445,-0.083263,-0.527392,0.0873578,-0.0276363,-0.328876,-0.263935,0.375792,0.157907,-0.296704,0.100274,0.126215,-0.46619,0.399831,0.0840074,0.129253,-0.311798,0.192174,-0.0210656,0.0264102,0.255001,-0.281263,-0.268352,0.5239,-0.272382,-0.258316,-0.0391971,0.0745708,-0.118417,-0.249259,-0.157133,0.319561,-0.404771,0.488746,-0.150018,0.141016,0.239521,0.330847,0.473768,0.177145,0.342332,-0.43078,-0.132867,-0.0366316,-0.176758,0.4334,-0.0347744,-0.287262,0.0935303,-0.235824,-0.502495,0.0778123,0.511019,-0.269125,0.330038,0.0506684,-0.332651,-0.507487,0.478933,0.0889865,0.0357859,-0.384892,0.0757268,-0.130676,0.491742,-0.250873,-0.313081,0.0886719,-0.0172809,-0.0128675,-0.392766,0.307499,-0.255384,0.128705,0.433827,-0.0232118,-0.198155,0.212849,0.00756904,0.436399,-0.195106,-0.201891,0.187636,-0.309541,0.101598,-0.374446,-0.456194,-0.173593,0.117019,0.184608,0.076408,0.361749,0.60399,0.309424,0.412536,0.284247,-0.202779,-0.406665,0.228832,0.438372,0.507734,0.100949,0.274863,-0.0444922,0.190964,0.44875,-0.39569,-0.39082,0.266402,-0.154203,-0.412064,-0.301486,-0.256278,-0.0702875,-0.486616,0.384951,-0.276351,0.291279,0.274023,-0.380345,0.0835817,-0.062121,-0.369153,-0.171171,0.0380001,0.205353,0.178376,0.0488475,-0.135093,0.404705,0.348339,-0.357021,-0.143211,0.0712433,-0.25864,0.346035,0.000137825,0.467771,0.135555,0.168428,-0.235621,-0.444471,-0.206806,-0.393886,0.200546,-0.0394602,0.137828,0.419356,0.385807,-0.325297,0.397718,-0.0868883,0.261242,-0.120732,-0.156589,0.133357,-0.285288,0.0409607,0.461423,0.0492557,-0.418487,-0.500803,0.0702496,0.456577,0.405173,0.0192904,0.116415,-0.199081,0.090923,-0.365945,0.275693,0.000163211,0.285936,-0.277649,-0.240245,0.215215,0.478766,0.460715,-0.108156,0.293272,-0.36491,-0.0387273,-0.134599,0.398959,0.0246102,0.141381,0.458952,0.31303,-0.184456,0.365323,0.254535,0.0364403,0.145487,0.0995171,0.373269,0.491218,-0.0999028,-0.208732,0.235469,0.231913,-0.249425,-0.380315,-0.00498194,-0.0317326,-0.13544,0.250991,0.343389,-0.00314685,-0.0978231,-0.336186,0.0169932,0.236652,0.0507788,-0.139076,0.0893294,0.368827,-0.365321,0.109256,0.434465,0.427358,-0.244068,0.122189,-0.299464,-0.206154,0.497487,-0.172397,-0.187793,0.427956,-0.327965,-0.145137,-0.251879,-0.384117,0.0903119,-0.140606,-0.00376391,-0.179269,-0.361038,0.354453,0.237383,-0.17309,-0.0871893,0.435874,-0.015167,0.421891,-0.0365825,-0.505684,0.0529994,-0.3313,-0.114468,-0.0343495,0.446615,0.000393376,0.143189,0.102987,-0.110185,-0.032227,0.484706,-0.416172,0.0172952,0.229093,-0.248046,0.266236,-0.35097,0.163516,-0.147651,-0.172231,0.358051,0.46907,-0.142527,-0.356226,0.314367,-0.175515,0.136152,0.33664,0.0966152,-0.399742,-0.396096,-0.427867,0.267073,0.201984,0.00662133,0.302281,0.0198677,0.159848,0.0802035,-0.18611,0.036621,0.00745021,-0.415129,0.319282,0.00400933,-0.345047,0.202285,0.372767,0.328463,-0.280563,0.450016,-0.485798,0.0539858,-0.0558457,0.119985,-0.374818,0.0129864,-0.230862,0.0166686,-0.0271851,-0.113563,0.351373,-0.415684,0.00357561,-0.106024,-0.113222,0.306433,-0.473434,-0.29618,0.302588,-0.193134,0.35919,-0.17168,0.110917,-0.278033,0.435877,-0.15969,0.179831,0.286799,-0.357239,-0.137255,0.282107,-0.337472,-0.427263,0.411937,-0.456108,0.167421,-0.083777,0.290205,-0.0452043,0.385805,-0.479026,0.442484,0.0486587,-0.244302,0.2859,0.373465,0.0417695,0.159953,0.0595779,-0.163561,-0.320155,0.215607,0.360588,0.422871,0.229018,0.35339,-0.473567,0.0140516,0.235911,0.352986,-0.422853,0.0234953,0.306815,0.208548,-0.153549,-0.165436,0.375816,0.163623,0.0418556,0.0664916,0.171529,0.225882,-0.0106579,0.181525,-0.334658,-0.448556,-0.0864175,-0.234655,0.443473,-0.358523,0.0749069,0.306836,0.0366694,-0.24368,0.208235,-0.396514,-0.306468,-0.0351969,0.408884,-0.0233608,-0.0915264,-0.214896,-0.350499,0.280789,-0.318584,-0.306695,0.427161,0.386489,-0.4135,-0.382851,-0.120495,0.13202,-0.101755,0.488601,-0.124883,-0.0253048,0.178243,-0.0856838,0.430361,-0.183542,0.123064,0.3944,-0.10606,-0.428872,-0.242848,-0.181265,-0.476404,-0.178675,-0.252109,0.140037,-0.0211435,0.097239,-0.326002,0.155333,-0.29767,0.0149969,0.0769244,-0.155431,0.284662,-0.044375,0.0847624,0.368989,-0.151291,0.420157,0.117718,0.460332,0.026165,-0.431906,0.250861,0.269709,-0.477721,-0.0302542,0.233374,-0.456114,-0.341086,-0.443685,-0.0109965,0.396271,-0.452482,0.343367,-0.217895,0.280043,-0.189124,-0.337413,0.453083,0.453795,0.0277016,-0.151824,0.355978,0.269483,0.43924,-0.155688,0.389899,-0.275783,-0.150283,-0.17592,0.00731115,-0.453895,-0.359123,0.283977,-0.305152,0.0134901,0.138555,0.140137,-0.219246,-0.115969,0.146251,0.310865,-0.387191,-0.232479,0.338359,-0.394022,-0.215577,0.1276,-0.28592,0.221834,0.186477,-0.238756,-0.555038,-0.0652232,0.450589,0.185863,-0.162105,-0.10137,0.330527,0.3451,-0.051681,0.267993,-0.122501,0.283644,-0.458881,-0.0644038,0.101036,-0.341951,-0.311815,0.288123,-0.202498,-0.400686,0.431981,-0.292598,0.257484,-0.306711,0.08726,0.510292,0.313006,0.0805117,-0.175662,-0.339202,-0.0247769,0.0599422,0.494845,-0.479074,-0.337544,-0.143229,-0.258637,-0.279216,0.196419,-0.00746183,0.517928,-0.472427,0.283654,0.277107,0.0398933,0.0989302,0.0126128,0.206038,0.0794655,0.319883,-0.343962,0.0794586,-0.483448,0.182344,0.212877,-0.265886,0.135509,0.126662,0.366691,-0.0914036,-0.258701,-0.133538,-0.127541,0.29049,-0.330969,0.257154,-0.294085,-0.250281,0.114918,0.50265,0.116068,-0.0597551,-0.171556,-0.409916,-0.111986,-0.0619097,-0.344354,-0.460019,0.345644,0.145179,-0.465653,-0.310868,-0.206023,0.305735,-0.276092,-0.139833,-0.093891,-0.231696,0.0228936,-0.379943,-0.392482,-0.439322,-0.204116,-0.214104,0.0757701,0.319097,-0.0925733,-0.438386,-0.0945426,0.288714,0.116721,0.337756,-0.0490922,-0.307003,-0.511313,-0.00300465,0.301448,0.346052,-0.225115,-0.192165,-0.20311,-0.356135,0.411449,0.063235,0.351325,-0.451769,-0.184929,0.257694,-0.387291,0.526191,-0.260234,0.330666,0.24751,-0.29917,-0.178219,-0.0282665,-0.110074,-0.148937,0.303628,-0.339842,-0.531859,0.357106,0.333354,0.199349,0.0768423,-0.172161,-0.288488,-0.42934,-0.159115,-0.147514,-0.129425,-0.156667,-0.0766815,0.220263,-0.102819,-0.180592,-0.122803,0.116685,0.226237,-0.508018,-0.0781904,-0.199799,0.18328,-0.0330698,-0.489381,-0.312379,-0.256142,0.261889,-0.409488,0.308616,0.139482,-0.211256,-0.182698,0.050621,-0.302678,-0.38919,-0.213473,0.0544923,0.174238,-0.0429156,0.175488,-0.178785,-0.171898,0.361603,0.396491,0.426073,-0.456787,0.419008,0.397093,-0.0991754,0.344904,-0.384742,0.218129,-0.201369,0.173832,0.113654,-0.0978326,-0.382554,0.295633,-0.102066,-0.273356,0.166275,0.295608,0.430316,-0.309966,0.455044,0.163949,-0.0762459,0.145652,-0.0206216,0.379882,-0.0183266,-0.259817,0.449622,-0.099966,0.407299,0.16721,-0.200043,-0.411423,0.100601,-0.447238,0.364681,0.171518,0.134404,0.250931,-0.184792,0.060431,-0.128487,0.507274,0.227178,-0.00668485,-0.177538,0.456561,-0.473785,0.147654,0.328657,-0.525467,-0.273427,0.379035,0.136677,-0.202134,-0.408245,-0.0346106,0.062455,-0.135667,0.378365,0.411395,-0.123668,-0.0964616,-0.0573355,-0.327043,0.219774,0.273539,0.454098,0.0281261,0.412054,-0.210062,0.518941,0.551112,-0.132762,0.02734,-0.334396,-0.458183,0.235574,0.452442,-0.16649,-0.109342,-0.255188,-0.310017,0.162541,-0.334186,0.163138,0.245732,-0.179991,-0.159381,-0.00182165,0.423692,-0.0916499,-0.310829,0.513888,-0.161143,0.347023,-0.265727,-0.239338,-0.353101,-0.447395,0.0621285,0.275932,-0.364412,-0.29904,-0.00423933,0.394084,0.110667,-0.502564,0.348359,0.161524,0.167021,0.152563,-0.316308,0.228191,-0.126316,-0.418268,-0.446226,-0.447478,0.207419,-0.315873,-0.417737,-0.0182971,-0.100056,-0.211553,0.175614,-0.446887,0.316219,-0.0733,-0.323465,-0.458964,-0.0154903,0.332033,-0.52898,0.326116,-0.379816,0.401078,-0.250668,0.166964,-0.374309,-0.0768366,-0.0528175,-0.360862,-0.0823184,-0.210222,0.228088,0.0104695,0.188227,-0.233197,0.36082,-0.362587,0.0746553,-0.357686,0.387581,0.237041,-0.0128983,-0.41754,0.287688,-0.491424,-0.420285,0.215922,0.43835,-0.388508,-0.0681483,0.430299,-0.404814,0.525467,-0.500731,0.032251,-0.315439,-0.169566,-0.384496,0.256766,-0.137505,0.194108,-0.157373,0.203933,0.295364,-0.0382267,-0.233546,-0.380581,0.09675,-0.295771,-0.157125,-0.211107,-0.200422,-0.0249643,0.171122,-0.488752,-0.157662,-0.202453,-0.515689,-0.110632,0.405513,0.244296,-0.358403,0.01451,-0.00327932,0.520144,-0.496018,0.0204467,0.0392817,0.486452,-0.303393,0.0387392,-0.249704,-0.185008,-0.373681,-0.080554,-0.0516649,0.286523,-0.04476,0.049251,0.376532,-0.112109,0.0589435,-0.00141916,-0.26749,0.0166621,-0.478929,0.107112,-0.389937,0.481567,0.137605,0.101571,0.405659,0.0681492,-0.480563,-0.396181,-0.0760387,0.0605566,-0.0263036,0.477138,-0.321951,0.0656016,0.170884,-0.100473,0.345903,-0.337006,-0.054103,0.210746,-0.179325,-0.250619,-0.299629,-0.316912,-0.465539,-0.405899,-0.00558365,-0.389523,-0.549532,0.208036,-0.423215,-0.0569152,0.357923,0.413131,-0.00322481,0.326122,0.412044,-0.150879,-0.317769,-0.283878,0.309221,-0.301635,-0.107352,0.290717,-0.399618,-0.388762,0.310545,0.338655,0.0778306,0.340684,-0.473534,-0.553759,0.546063,0.138506,0.0869983,-0.343449,0.0877371,-0.270357,-0.400098,0.281786,0.0785406,-0.430039,-0.0923605,-0.353942,0.448439,0.355565,-0.0463012,-0.0183361,0.426464,0.413749,0.0782221,0.2221,-0.222922,0.360982,-0.375091,0.358416,0.0865982,-0.427629,0.327149,-0.444254,-0.486478,0.0190817,0.22332,-0.350832,0.072043,0.146867,-0.253277,-0.197374,-0.127872,0.563042,0.230166,0.193709,0.400347,0.378613,0.0946866,-0.168607,-0.373085,-0.0671738,-0.164218,0.00480717,0.377627,-0.329614,-0.0263332,0.266947,-0.369711,-0.169618,0.434967,0.0608613,-0.034714,-0.137309,0.368512,-0.120686,-0.393451,0.288531,0.169953,0.0180707,-0.139604,0.191739,0.00424811,-0.22411,0.339493,0.355113,0.145167,-0.242317,-0.436236,-0.0962783,0.130048,-0.0438853,-0.22968,-0.276286,0.389523,0.106916,0.451073,-0.180953,-0.476866,0.333011,0.0401822,0.254509,-0.129855,-0.480635,-0.42318,0.298954,0.00367003,0.190887,-0.164534,0.00854318,0.0972571,-0.00166554,0.451961,-0.177543,-0.347195,0.288634,-0.359616,-0.487965,-0.427042,0.152046,-0.364954,-0.222445,0.200033,0.00833299,0.0637776,-0.0466048,-0.422738,-0.311596,-0.0621737,0.492787,-0.298937,0.335415,-0.505807,0.482232,-0.368462,0.144838,0.222052,-0.092313,-0.23372,0.402495,0.113125,0.511302,-0.585187,-0.46802,0.321598,0.348483,-0.39605,0.0307043,0.072042,-0.0094903,-0.158597,-0.22933,0.113414,-0.44581,0.345245,-0.332847,0.00730202,0.12722,0.454699,0.214195,0.339791,-0.42911,-0.443131,-0.160723,-0.116741,-0.229818,0.332597,0.387594,0.245054,0.250646,-0.0757887,0.277079,-0.208662,0.656719,-0.496055,-0.461086,-0.299819,-0.425123,0.299531,-0.0904059,-0.327249,-0.0722065,0.295242,0.24316,0.343603,-0.306059,0.00730633,-0.342634,-0.364863,-0.218859,-0.238096,-0.320108,0.103296,-0.0674477,-0.381609,0.0102793,0.262668,0.0920743,0.352075,-0.0355799,-0.284626,0.206607,-0.0519662,0.077299,0.17133,0.217903,0.0572545,0.0506639,-0.017111,0.0736595,0.0870071,0.159846,0.432843,0.00981292,-0.0817518,-0.490203,-0.392158,-0.399305,-0.0445927,0.0738916,-0.228327,0.0837582,-0.2207,0.0672933,0.142369,0.173097,-0.093944,-0.343017,0.364598,-0.212739,-0.330596,-0.0218836,0.412659,-0.494199,0.400571,-0.444049,-0.125458,0.287375,-0.303874,-0.0507706,-0.108288,0.0981222,-0.447531,-0.3354,-0.30177,0.0356149,-0.073548,0.148389,0.181287,0.08078,0.352067,0.324967,0.212289,0.0937468,0.406179,0.31875,-0.395916,0.4924,0.0758702,-0.474925,0.313481,0.519712,-0.42647,-0.0996254,-0.261454,-0.295688,0.149592,0.102876,-0.0529869,-0.234846,-0.0606244,-0.427536,0.356213,-0.490738,-0.17099,0.43044,0.136914,-0.163572,0.00635357,0.386197,0.226213,-0.32326,-0.456731,0.00830321,0.376418,-0.366793,0.259852,0.221936,-0.384319,-0.272478,-0.405236,0.162722,0.156108,-0.319243,-0.409572,0.355442,-0.189389,-0.264005,-0.176871,-0.150234,0.506376,0.15832,0.308909,-0.37494,0.298669,0.019581,0.0578459,-0.114938,-0.0351294,0.0866775,-0.00461906,-0.33019,-0.143947,-0.488321,0.459114,0.169982,0.367483,0.252342,0.310338,-0.291883,0.239232,0.35869,-0.432717,-0.308608,0.523455,-0.41245,0.419773,0.0533509,0.408434,0.250522,-0.104756,0.10304,-0.403702,-0.00317555,0.345119,-0.0912977,0.286939,-0.176964,-0.0945785,0.353077,0.270954,-0.420657,-0.0782048,0.374669,0.371398,0.0665221,-0.496951,-0.290339,0.34398,0.235559,0.0815847,-0.248378,-0.494809,0.0573814,0.49295,-0.168538,0.226789,-0.362769,0.23351,-0.42629,-0.3453,-0.189098,0.155759,-0.179339,-0.122358,-0.182706,0.0234872,0.397501,0.00813446,0.103805,-0.0931803,0.122741,-0.238835,-0.285038,0.226753,-0.212243,0.093072,0.364427,0.062459,-0.449903,-0.287988,-0.0477103,-0.0266472,-0.477088,0.135935,-0.17654,0.496062,-0.25605,0.199768,0.199654,0.352847,0.332448,-0.217171,-0.0501278,-0.345713,0.435213,-0.246876,0.513422,0.358686,0.172405,-0.393292,-0.0103346,-0.0863017,-0.44206,-0.181323,0.388268,-0.359139,0.0927165,0.267742,-0.212989,-0.264752,0.373672,0.383374,-0.448184,-0.249324,0.502732,0.391411,0.497158,0.260831,0.227057,-0.241588,0.488643,0.365579,0.548761,0.22011,-0.283218,-0.108409,-0.418244,-0.295922,-0.203874,0.0422076,0.445538,0.205029,0.381321,-0.418414,-0.246118,0.107059,-0.466468,0.130083,-0.0443877,0.417477,0.367412,0.351521,-0.272427,0.0217601,0.068649,-0.0480066,-0.368928,-0.438451,-0.268825,-0.366974,0.148815,0.363,-0.207227,-0.149453,-0.434452,0.388497,0.289541,0.342685,-0.102977,-0.0389724,-0.149024,-0.0992808,0.229366,-0.219589,0.139179,0.222346,-0.251876,0.399533,0.0943947,0.170574,-0.230586,-0.508679,-0.121448,-0.00802521,0.427908,0.331117,-0.16841,-0.402221,-0.0539766,0.293558,-0.0633155,-0.203712,-0.0290452,0.344418,-0.125349,-0.0965242,-0.365635,0.47716,0.304207,-0.39428,-0.377115,0.341483,-0.422632,-0.373379,0.0594389,-0.165727,0.0205802,0.237884,-0.470032,-0.0256788,-0.33707,0.408244,0.14826,0.0773212,-0.188038,-0.24353,-0.387739,-0.446283,-0.32837,0.0203537,-0.125843,0.346392,-0.0470729,-0.000162772,-0.117874,0.13784,-0.416977,0.331182,-0.0700648,-0.0369805,-0.596425,0.248432,-0.396577,0.325801,-0.362794,-0.506272,0.459674,0.188357,0.339515,-0.0391087,-0.136371,-0.432855,-0.515694,0.000737039,0.480224,0.261558,-0.401011,0.173826,-0.364597,0.0445336,-0.407818,0.357447,0.269395,-0.19768,0.0537978,0.154336,-0.475951,0.442823,0.137198,-0.135256,0.0679147,-0.115931,0.141637,0.146567,-0.434111,-0.392855,-0.0620724,-0.367943,0.264235,0.291894,0.315147,-0.427932,-0.39907,0.216452,-0.427864,0.585646,0.228312,-0.117875,-0.315698,-0.0889425,-0.140578,-0.226657,0.164963,0.365438,0.383483,-0.364934,0.0022283,0.220229,0.0498819,0.11167,0.12765,-0.0997469,0.348599,0.473255,-0.0823211,0.101046,-0.156741,0.444332,0.125672,0.394862,0.0993223,0.199442,-0.277217,0.389132,-0.174418,-0.327648,0.359155,0.223941,0.00282952,-0.0319416,0.0305832,-0.0867195,-0.517111,-0.265825,0.343301,-0.0812853,-0.216555,0.0624138,-0.211048,-0.458374,0.36378,-0.512225,0.341458,-0.354376,-0.3239,-0.145011,-0.295397,0.419625,0.263378,0.453968,-0.190285,0.105145,0.232888,0.0558451,-0.1894,0.226481,0.0102973,-0.118625,0.232709,-0.0030452,-0.39859,0.136926,0.100912,0.131634,-0.121495,0.212941,0.566734,0.309222,-0.301976,0.310856,-0.526024,0.446651,0.0392334,-0.282541,0.409946,-0.415632,-0.376903,-0.0558833,0.295825,0.229996,0.0349945,0.173671,-0.352872,-0.310677,0.386193,0.098585,0.161212,0.123882,0.293829,-0.0834078,-0.207887,0.257917,-0.0740981,0.435156,0.420235,0.351627,-0.15672,-0.488166,-0.430795,0.0708041,0.171327,-0.445932,-0.347821,-0.408216,0.0416329,0.0267148,-0.0227053,-0.299764,-0.258316,-0.184919,-0.468883,0.150106,0.143588,-0.424186,0.124128,-0.491504,-0.512748,-0.360846,-0.400896,-0.430219,-0.162083,-0.118018,0.156645,-0.306861,0.316124,-0.38427,-0.082477,0.47382,-0.468054,0.18955,-0.0813262,-0.399047,0.287044,0.0105265,-0.0959254,0.271411,-0.0982434,-0.365359,0.00621991,0.321395,-0.239009,-0.132344,0.0476319,-0.404442,-0.172308,0.268083,0.163676,0.363634,0.384803,0.0859331,-0.572006,0.253754,0.207379,0.442886,-0.407688,-0.314015,0.29543,0.283461,0.0817862,-0.153709,0.449509,0.265962,-0.470235,-0.0540393,-0.159193,-0.341077,0.374959,0.374689,0.0516233,0.396354,0.493044,-0.359101,0.145633,0.0518981,-0.33593,0.102346,0.384094,0.302212,-0.256996,0.254723,0.129028,0.211346,0.335734,-0.172386,-0.404097,0.0762495,-0.314199,-0.300155,-0.0927447,-0.209084,0.289188,-0.0408355,0.0123542,0.404739,0.302109,-0.000438511,-0.10352,-0.484048,0.365712,-0.381776,0.307115,0.0939878,0.33119,0.455679,0.412116,0.512484,-0.28982,-0.25188,0.491204,-0.518069,-0.378488,-0.577066,0.103494,-0.0347435,-0.273389,-0.363399,-0.306219,-0.00785728,0.0896922,-0.424066,0.0500129,0.0536069,0.251719,0.132294,-0.166426,0.386721,-0.523397,-0.368538,0.0814545,0.408051,-0.433665,0.0731939,-0.156052,-0.412739,-0.0664361,0.263139,0.0197582,-0.342598,-0.102307,-0.225071,-0.304303,0.179185,-0.171586,0.424222,-0.00371763,0.145274,0.397017,0.196972,-0.137204,0.0461196,-0.372339,0.223231,-0.327128,0.155557,-0.40218,-0.00272102,-0.118682,-0.36273,0.464613,0.421797,0.238016,0.215969,0.138677,-0.378184,-0.0938964,0.514884,0.16374,-0.268092,0.0312599,0.244842,0.14652,-0.137588,-0.123501,-0.400316,-0.308199,0.391872,-0.0704463,0.397857,-0.138335,0.467359,0.0200084,0.273337,-0.168114,0.0307695,0.0192517,-0.251666,-0.0528233,0.0745241,-0.1606,0.27524,0.0614135,0.0133471,0.384525,-0.189726,-0.250299,-0.264621,0.0687718,0.286109,0.333292,-0.239394,-0.344027,-0.347142,0.0964221,-0.0950783,0.322348,-0.0979817,-0.0703589,0.0472539,0.453768,-0.378161,-0.198845,0.190535,-0.363668,-0.179608,0.0433526,0.22009,0.42809,0.174192,0.360941,0.0051597,-0.31321,0.0664204,-0.0709598,0.229167,-0.16306,0.0466419,-0.294244,0.293453,0.39618,0.119539,0.242135,0.498029,-0.248606,0.354394,-0.130172,-0.44607,0.437063,-0.314401,0.140571,-0.12761,0.0275249,0.183835,0.0862438,0.411055,-0.0124653,-0.0451216,0.366873,-0.156655,-0.114352,0.0807411,-0.419247,-0.0741852,0.0535694,-0.130615,-0.350857,0.332903,0.342419,0.137174,-0.384566,-0.223788,-0.253428,-0.359135,-0.132118,0.442102,0.332045,-0.137093,0.234637,-0.0477659,0.51808,0.203569,0.304981,-0.230032,-0.243516,0.0151632,-0.46595,-0.0972766,-0.336746,0.135213,-0.232407,-0.123786,0.10326,0.304451,-0.321201,0.468405,-0.0294589,-0.237563,-0.30197,0.347828,0.178393,-0.206954,-0.0736957,0.186116,-0.486025,0.292426,-0.000389685,-0.212571,0.119865,-0.418996,-0.0731446,-0.0704408,0.336827,0.151548,-0.309819,0.425275,0.235534,0.0299246,0.160128,-0.0767844,0.429418,0.0277838,-0.333235,0.305218,0.462772,0.394544,0.492516,-0.470592,0.242503,0.39342,-0.134365,0.333343,0.0649085,-0.299606,-0.148514,0.327063,0.199452,-0.0947055,0.0657415,-0.144455,0.343311,-0.397703,-0.41624,-0.245105,0.144849,0.0510824,0.162289,-0.36141,-0.432403,-0.0160005,0.014938,0.264713,0.0669531,0.255666,0.23903,0.127965,0.28495,-0.403638,0.436181,0.485227,0.0607358,-0.166437,0.386933,0.405192,0.559155,0.300669,-0.356817,-0.209262,-0.140385,0.0817538,0.292433,-0.491105,-0.368956,0.285835,0.301145,-0.416765,-0.311758,-0.213447,-0.061996,0.229186,-0.409015,-0.559928,-0.429462,-0.385547,-0.46348,-0.326739,-0.156792,-0.453025,0.467634,-0.292612,-0.188476,-0.210346,-0.121268,-0.0357651,-0.282096,-0.297815,0.415207,-0.229625,0.161869,0.0331743,-0.441355,-0.16884,0.399187,0.447355,-0.352811,-0.130092,0.0232119,0.103954,-0.097425,0.273957,0.302645,-0.440224,-0.419895,-0.165367,-0.252057,-0.319396,0.359687,-0.340617,0.410308,0.0476979,-0.234226,0.151714,0.286232,0.312979,0.132353,-0.277452,0.0869105,0.176224,-0.164221,-0.0716528,0.0830606,-0.0196094,-0.0637168,0.384109,0.249363,-0.248413,0.414037,0.370896,0.095915,0.38209,0.168467,0.353205,-0.370132,0.453578,-0.164316,0.160862,0.417743,-0.320879,-0.420112,0.461467,0.272629,0.406729,-0.0329735,0.40459,-0.0017422,-0.0469221,-0.517053,0.516035,0.319745,-0.203524,0.231256,0.270202,-0.1426,-0.0666236,0.170462,-0.0634751,-0.163221,-0.222918,0.0221505,0.427059,0.348455,0.282216,-0.0675041,-0.35368,0.0312283,0.409574,0.297124,-0.483991,0.0673524,0.336572,0.35568,-0.063454,-0.392237,-0.514362,-0.464904,0.354351,0.461845,0.403672,-0.226987,-0.437773,-0.303556,0.477647,0.339373,-0.57349,-0.462328,-0.142405,0.0530846,0.387079,0.246558,-0.0987355,0.478237,-0.465445,0.404859,-0.307499,0.123236,0.368892,-0.0226719,0.459452,0.373023,-0.498699,0.0386656,-0.335842,-0.437754,-0.384407,-0.466639,0.228802,-0.0930602,-0.379533,-0.270551,-0.209288,-0.286143,0.405537,-0.385175,-0.316901,-0.464957,-0.35588,0.0603508,-0.481989,-0.0510257,-0.0324995,0.561532,0.0109929,-0.0127166,-0.216798,0.234196,0.300892,-0.44337,0.0175097,-0.0706791,0.0118945,-0.208901,0.149204,-0.109927,0.014279,0.332945,0.322591,-0.251715,0.433641,0.0980102,0.28998,-0.206441,-0.00544644,0.151345,0.397727,0.506981,0.0655305,-0.463278,-0.265053,0.416641,-0.26917,-0.180515,-0.290779,-0.404187,-0.17024,-0.100471,0.0862167,-0.174,0.302101,-0.360783,0.31268,0.0368417,-0.242119,-0.582762,0.204083,0.126834,0.359852,-0.0906052,-0.0757959,-0.177919,-0.114102,-0.121118,-0.19532,-0.493021,0.37069,0.167062,-0.143863,-0.418914,-0.429045,-0.288102,0.172414,0.127596,-0.349858,-0.0464906,0.365174,0.459802,0.304158,-0.112198,0.43687,0.253343,-0.288288,-0.384298,0.363961,0.29117,-0.287446,-0.342821,-0.379347,-0.0512098,0.497426,0.418175,-0.0464376,-0.0672702,-0.194629,0.315854,-0.366853,-0.155584,-0.20479,-0.353111,0.253234,-0.413781,0.527463,-0.112227,-0.502458,-0.213827,-0.053058,-0.136019,-0.473067,0.0207482,0.407889,-0.0439672,0.326236,0.325753,-0.481771,-0.424481,-0.437608,0.268525,-0.0129534,-0.520105,-0.310614,0.0877908,0.14774,-0.476022,0.234995,-0.0335612,-0.240304,0.327041,-0.442343,0.0110895,-0.0388479,-0.193571,-0.400884,0.446637,0.222398,-0.0881021,-0.385199,-0.149047,-0.469872,0.0771248,0.27214,0.249655,0.29757,0.0448674,-0.285276,-0.322095,0.14768,0.147956,-0.194576,-0.121448,-0.0596471,-0.0173088,0.0542222,0.0660419,0.331728,0.0115706,0.0285039,-0.0518983,-0.377649,0.0313875,0.337112,0.0304102,-0.289037,-0.223454,-0.146194,0.315015,-0.485686,0.256849,0.0176534,-0.235942,0.0549756,0.278225,-0.0772652,-0.221476,0.18096,-0.0685636,-0.217251,0.167896,0.14784,0.0116641,0.31634,0.414458,-0.312539,-0.376532,0.394307,-0.322476,0.123651,0.299193,0.0206868,0.181863,-0.302315,-0.511293,-0.0901293,0.180972,-0.114835,-0.153081,-0.406554,0.113282,-0.276776,0.325774,-0.406634,0.343531,-0.0625241,-0.300803,-0.0081221,-0.361162,0.336193,0.209847,0.0422559,0.341806,0.23169,0.054048,0.132513,-0.249982,-0.4091,-0.300795,-0.226329,0.0988142,-0.174711,0.00847972,0.134042,0.0156046,-0.451941,-0.262432,0.521723,0.0505951,0.0977286,-0.427874,0.0989359,0.447991,-0.465792,-0.00162856,-0.300709,-0.26924,-0.0844015,0.284832,-0.406783,0.143767,-0.0921196,-0.468754,-0.0370347,-0.0944961,-0.0939174,-0.242469,0.376145,-0.0470877,0.162427,0.0829232,-0.0183682,-0.021617,-0.441452,-0.257879,-0.214733,0.133822,-0.271616,0.238675,-0.18884,-0.505074,-0.371467,-0.0584758,-0.106976,0.268227,-0.538758,0.20372,0.0410773,-0.0685866,0.447865,0.26503,0.278119,-0.281284,-0.0176138,0.215731,-0.319922,-0.254302,-0.126471,-0.521596,-0.447061,-0.35177,0.0728535,-0.0723649,0.233375,0.414629,0.431232,-0.203895,0.275241,-0.15533,0.4212,0.278582,0.105391,0.343245,0.380381,0.101035,0.49797,0.228442,0.0046156,-0.410105,0.264717,-0.129058,0.226347,0.305287,0.412333,0.019678,-0.216702,0.0468715,0.373523,-0.259603,-0.0662069,-0.00913182,0.131398,-0.111717,-0.497073,0.394647,0.302055,0.476584,0.390708,-0.120247,0.429938,0.124125,-0.122947,0.0284798,0.00636121,-0.0122107,-0.478992,-0.281194,0.320592,-0.332749,0.311414,-0.121292,-0.212954,0.499215,-0.0599665,0.200795,0.257305,-0.152661,-0.507153,0.172837,-0.0255162,0.362198,-0.417213,0.187042,0.463887,0.308009,0.203209,0.291466,-0.273986,0.129194,0.478311,-0.281153,-0.274025,0.439436,-0.295615,0.0237879,-0.248571,0.396567,0.186096,-0.214573,-0.364671,0.195296,-0.108627,-0.0904332,-0.306711,0.0390003,0.132807,0.298291,-0.346255,-0.341079,-0.24245,-0.186169,0.293718,0.0716556,-0.225651,-0.446426,-0.232458,0.185562,0.276303,0.230096,-0.0912523,-0.0551777,0.049091,-0.46856,0.032922,-0.253588,-0.440821,0.353458,-0.373025,-0.00899047,-0.21539,-0.0718353,0.402734,0.363831,-0.307729,-0.276466,0.216366,0.504026,0.013003,0.235442,-0.32156,0.0548793,-0.224224,0.250944,0.2088,0.4376,0.486315,-0.161367,-0.366727,0.217203,0.179193,-0.041041,-0.412026,-0.0863981,0.161345,-0.303399,0.315138,0.0774797,-0.433766,-0.306131,-0.472775,-0.118745,0.143462,0.283474,0.158941,-0.159491,-0.352393,-0.217626,0.427368,0.141631,0.366516,0.0557592,-0.26196,0.442489,0.0639347,0.399752,0.133194,-0.00104263,-0.458167,-0.22472,0.448786,0.548245,-0.466608,-0.467872,-0.401231,0.132959,0.486368,0.270188,0.0220499,0.0760346,-0.420677,0.0787285,-0.25759,0.3781,-0.349892,0.257816,0.230712,-0.287836,-0.139985,0.149304,-0.132695,0.35378,-0.202146,-0.0178121,-0.414129,0.598071,0.353464,0.491601,0.104481,0.479899,-0.00251998,-0.431764,0.359323,0.187965,0.486074,-0.181649,-0.49587,-0.0792196,-0.381351,-0.286178,0.428781,0.271865,-0.448979,0.0442478,-0.024852,0.510921,0.373152,-0.187708,-0.372926,-0.283601,-0.402441,-0.10884,0.0243388,0.0970317,-0.269527,-0.106547,0.391761,0.256865,-0.408409,0.344198,-0.335987,-0.0888536,-0.117683,-0.291029,-0.480699,0.0952102,-0.447152,0.131408,0.181924,0.281487,-0.134409,-0.191693,0.461009,0.397234,0.0924826,-0.0706727,-0.221257,0.332152,-0.283361,0.173884,0.334376,-0.250286,-0.150954,0.0616088,0.110647,-0.318772,0.483085,-0.318325,0.436463,-0.301762,0.227903,-0.189742,-0.36459,0.338756,-0.125955,-0.102983,-0.251118,-0.0156014,0.0926147,0.456697,-0.275281,-0.219209,-0.323355,-0.213656,0.203341,0.239486,0.307905,0.201822,-0.402317,0.478596,-0.437343,0.0692786,0.305288,-0.10715,0.330646,-0.437339,-0.289514,0.0527739,-0.316067,-0.182819,0.00253616,0.0304372,-0.460546,-0.176134,-0.344686,-0.402421,0.400512,0.000610396,0.511093,0.22571,0.11373,-0.409281,-0.36074,-0.175953,0.549555,0.0986121,0.214216,-0.185953,-0.12304,-0.303943,0.42711,0.174507,0.0408463,-0.549335,-0.506874,-0.261558,0.204955,-0.351807,-0.152903,0.179027,0.220771,-0.230247,0.154534,-0.260771,0.0543641,-0.218683,0.27173,0.401432,-0.189874,0.0806447,-0.0121174,-0.398856,-0.397746,0.423787,-0.0601811,-0.0263231,0.321203,-0.15419,0.446196,0.123898,0.333206,0.15994,0.239321,0.455509,0.364267,0.15042,-0.334175,-0.340635,-0.103551,-0.511977,0.480168,0.0179784,-0.442415,0.0822492,-0.176096,0.25027,0.0455718,0.338619,0.404123,0.382789,0.280494,-0.116804,0.181546,-0.0488121,0.231718,-0.233681,0.00943011,0.253073,0.451354,0.0147116,0.341091,0.412101,-0.231705,-0.0251195,-0.398287,0.10162,0.30981,0.0352066,-0.235207,-0.45456,0.13447,-0.334046,0.375292,0.294049,0.219835,-0.0213183,-0.348104,0.0576136,-0.241079,0.0471218,-0.0161167,-0.103644,-0.360188,0.384112,-0.441054,-0.339735,0.122819,0.0589986,-0.510921,0.464614,0.193938,0.173684,0.176964,-0.351185,0.203396,-0.464326,0.406536,0.318314,0.3084,0.329982,-0.243229,-0.00537956,0.181788,-0.0218144,-0.0737796,0.177655,-0.0966325,0.284117,0.384089,0.288728,0.0910689,-0.181636,-0.272155,-0.0265802,-0.446619,0.140228,0.361977,0.295659,-0.39255,0.397879,-0.247246,0.0792546,-0.254976,0.164155,0.273298,0.00835058,0.18072,-0.206654,-0.510586,-0.20592,-0.503078,0.207453,-0.143908,-0.464314,-0.33125,0.209512,0.0897646,0.370241,0.0821478,0.111276,-0.0187945,-0.199597,-0.394895,-0.0855278,0.0640046,-0.230662,0.193574,-0.476204,0.19631,-0.312978,-0.00282955,0.389497,0.194139,-0.173705,0.0583018,-0.364908,0.443454,-0.299779,-0.175379,-0.37595,-0.00679262,0.303224,0.0980793,0.497104,0.0438626,-0.222916,0.461201,-0.302599,0.0894016,0.146345,-0.198309,-0.427764,0.293743,-0.423601,-0.0634878,-0.196819,0.00829054,0.459648,0.40446,0.382295,0.213672,-0.175239,-0.392986,0.326328,0.345217,0.119063,-0.147621,-0.289271,0.188952,0.0345786,0.11208,-0.0984929,0.0583506,0.302666,0.0824063,-0.252764,-0.0858642,-0.115144,-0.297505,0.211757,0.0593319,-0.128841,-0.151529,0.169413,-0.0366965,0.0950092,-0.34131,-0.438598,-0.389473,0.510735,-0.538381,0.241688,0.0127241,0.278599,0.0935764,0.106787,-0.332046,-0.476216,-0.410472,-0.10312,-0.436257,0.406672,0.352532,0.404727,-0.228175,-0.232523,-0.500679,-0.289732,-0.0643827,-0.404601,-0.0538909,0.255677,-0.0547693,-0.138828,-0.151944,-0.174243,-0.150735,0.109426,0.40656,0.0818706,0.0768993,0.32346,0.273775,-0.179435,0.428175,-0.315721,-0.157436,0.258249,-0.1641,0.427966,0.0335906,-0.457286,-0.300954,-0.33307,0.296415,-0.170635,0.370204,-0.399712,0.212812,-0.0151108,-0.0773936,-0.400933,-0.193883,0.154078,0.368425,-0.0710693,0.258712,-0.143132,-0.351013,-0.266944,0.131599,0.169577,0.236314,-0.20096,0.0636531,0.431502,0.320965,-0.401389,0.179546,0.339443,0.257991,0.00906381,0.0956732,-0.462108,-0.394327,0.0528542,-0.2621,-0.168285,-0.315492,0.0570662,-0.0306592,-0.386163,0.15509,-0.43551,0.0952003,0.0787719,-0.451265,0.186939,0.30455,-0.311166,-0.493446,-0.0155935,-0.299433,0.428401,0.0544691,-0.117193,0.31041,0.000672354,0.209309,-0.391618,0.118714,0.0745768,-0.23946,0.277896,0.391187,0.0374761,0.445611,0.183582,0.29723,0.444498,-0.216243,-0.556363,0.469009,-0.436584,-0.117816,0.093827,-0.324428,0.261003,0.440412,0.230947,0.108463,-0.143755,0.0576252,0.198436,-0.284341,-0.209915,-0.362599,-0.410765,-0.301243,0.415066,0.0813979,-0.284987,-0.028139,-0.0363368,0.0325885,-0.38378,-0.0201626,0.246965,0.150784,-0.0684069,0.110209,0.324246,-0.181565,-0.118619,0.372889,-0.173767,0.336356,0.423538,-0.404078,0.0911409,-0.259975,0.250458,0.27741,0.282588,-0.223023,-0.503308,-0.298368,-0.203503,-0.302061,-0.409464,0.0367319,0.0956014,0.295881,0.118754,-0.131589,0.0653395,0.206945,-0.170745,-0.324668,-0.319036,0.359914,0.347149,0.281528,-0.528945,0.198949,0.0827266,-0.174419,0.443645,-0.47143,0.0969925,-0.447303,-0.0856702,0.0300904,0.096383,0.276997,0.12012,-0.334636,-0.413969,-0.35815,0.27411,0.160363,0.211819,-0.463523,0.0915934,0.320143,0.444427,-0.0786849,0.45407,-0.268785,-0.312863,0.531342,0.10298,-0.209539,-0.178964,-0.342737,0.00237053,0.0598627,0.20249,0.30334,-0.168715,0.246881,0.441886,0.372235,-0.315318,0.334287,-0.318079,-0.0379823,0.254694,0.150553,-0.474872,-0.247629,0.119835,-0.43413,-0.326334,-0.256328,-0.43079,-0.0800882,0.46602,0.239508,-0.2341,-0.152981,0.205808,-0.0442988,-0.00495011,0.189005,-0.384058,0.362471,0.147511,-0.146,-0.0920805,0.148733,0.127665,-0.457787,0.0364754,0.1881,-0.2882,0.139468,-0.304945,-0.288057,-0.0994432,0.325575,0.0932776,-0.506263,-0.397655,-0.0107397,-0.226431,0.184036,0.283778,-0.0837756,0.183609,-0.270628,-0.523806,-0.378904,0.336886,0.121494,0.288272,-0.0821043,0.0519433,-0.0675911,-0.214696,0.186448,-0.170197,0.137183,0.145358,0.0412914,0.140938,-0.404932,0.212964,-0.445884,0.265657,0.35306,0.312939,-0.289996,-0.389174,0.0806896,-0.488106,0.364558,0.00128039,-0.067756,-0.255325,-0.205577,-0.0230397,0.390424,-0.464986,-0.358771,0.406343,-0.479992,-0.301885,0.0269089,-0.187058,-0.23526,0.444736,-0.0778751,-0.0870272,0.416908,0.211421,-0.388182,-0.0250444,0.118763,0.0130164,0.220273,-0.518453,-0.0351443,0.269755,-0.0698549,-0.431076,0.478154,-0.0440836,0.348578,-0.0386206,-0.0578633,-0.0528075,-0.0532782,0.364264,0.10059,-0.384593,-0.185309,0.405956,0.373715,-0.487042,0.0975678,-0.504235,-0.151668,0.423732,0.117736,-0.450094,0.102673,0.136246,0.155595,0.226918,-0.214225,-0.079432,-0.234085,0.177548,-0.197106,-0.309666,-0.41778,-0.322092,0.0497983,-0.479977,-0.321593,-0.480992,-0.334823,-0.408126,-0.0100404,-0.374439,-0.308775,0.00379542,-0.459883,-0.1516,-0.159365,-0.309329,-0.0124088,-0.542145,0.153615,-0.395134,-0.101296,0.21881,0.127865,0.10612,0.464363,-0.242694,0.446381,-0.193887,-0.071881,0.280344,-0.139473,-0.0522985,0.268638,0.298167,0.471619,0.482116,0.382785,0.435761,-0.196339,-0.21576,0.00579612,-0.349505,0.0485113,-0.418891,-0.0148516,0.289606,-0.00640828,-0.154712,-0.417232,0.183864,-0.102055,0.0169191,0.00696402,0.305379,-0.13943,-0.413074,-0.449948,0.23279,-0.242775,0.269797,-0.0196021,0.324553,-0.0960678,-0.0301692,-0.396219,-0.335584,-0.257428,0.331902,-0.491522,0.0179742,0.244596,0.129409,0.409207,0.0289037,-0.095468,0.0713683,0.484415,0.0769771,0.1863,0.339184,-0.46952,0.412787,0.00695526,0.336911,-0.199686,0.287957,0.368004,0.198726,-0.169752,0.300702,-0.494536,0.0675304,0.226468,0.021435,-0.289205,0.18554,-0.351113,-0.291148,-0.134667,-0.272716,-0.187631,0.424807,0.142473,-0.103417,0.261123,0.391701,-0.284302,-0.437738,-0.190974,0.135907,0.223525,-0.0532692,0.0670311,-0.0403816,0.400984,-0.272626,0.457192,0.297078,-0.0525892,-0.344006,-0.377113,0.081904,0.10668,-0.21488,0.488829,-0.378224,-0.378057,0.142324,0.361263,0.274213,0.358869,-0.223024,-0.490703,0.21543,0.23101,0.154113,-0.147521,-0.489587,0.166965,-0.36615,-0.2221,0.321682,-0.182608,0.426792,-0.0451114,0.243209,-0.521718,-0.476721,-0.214062,-0.301888,0.423083,0.133332,-0.449246,-0.210797,0.277169,0.309413,0.341995,0.0563924,0.419381,-0.307097,-0.229814,-0.370066,0.3696,0.0554221,0.0925288,-0.0864723,-0.460584,0.0552002,0.0423066,-0.357993,0.390489,-0.211457,-0.0340658,0.312283,-0.0583394,-0.113772,-0.347933,-0.237067,0.385224,-0.373515,0.144152,-0.0612511,-0.532928,0.0706498,0.0390752,-0.243326,0.219224,-0.407684,0.252557,-0.48536,-0.497532,-0.0531753,-0.415222,-0.105234,0.353972,-0.358559,0.292325,-0.0906126,-0.424326,0.138314,-0.355731,-0.390048,-0.464065,-0.128382,0.00300605,-0.109426,0.157523,-0.067618,0.157257,0.231167,0.347019,-0.338827,-0.160433,-0.383011,0.0798955,-0.250184,-0.0587934,0.183849,0.210729,-0.395096,0.429777,-0.151589,-0.0960876,-0.0373991,-0.192269,0.157515,-0.268866,0.377348,-0.256728,0.129048,0.344029,-0.46754,-0.257313,-0.360337,-0.295326,-0.335808,-0.418991,0.404415,-0.0663551,0.0640771,0.288151,-0.396179,-0.137439,-0.288261,-0.205543,-0.499987,0.363417,-0.490054,0.394885,0.307911,0.0754916,-0.286117,0.0076049,0.186976,-0.0937368,0.369544,-0.313636,0.384577,-0.328591,-0.167755,0.480769,0.440668,-0.0186284,-0.115141,0.326424,-0.252541,0.250535,-0.405806,-0.150836,-0.461579,-0.213527,0.143629,0.395045,-0.424608,0.471693,-0.220963,-0.124931,0.436489,0.324429,-0.19972,0.40454,0.0364346,-0.0100573,0.00205843,0.0907742,0.11629,-0.442405,-0.326944,0.0714544,-0.434794,-0.250387,0.036026,0.074693,-0.151919,-0.438996,-0.0144141,0.302266,-0.370249,0.407329,0.39506,-0.390819,-0.190507,0.059527,-0.20721,0.0369661,-0.324821,-0.102949,0.320353,-0.00171522,-0.104739,0.48743,0.485133,0.423517,-0.289875,-0.194538,0.23577,0.387503,-0.494236,-0.133202,-0.0788032,-0.00930103,0.22714,-0.032645,0.111821,-0.246915,-0.307823,-0.319474,0.21627,0.451949,-0.347338,-0.00406246,-0.219642,-0.129459,0.307169,0.318254,-0.214244,0.0802284,-0.520166,-0.49466,0.162104,0.208756,-0.207852,-0.417792,0.321293,-0.186094,-0.239686,0.244723,0.273983,-0.0324784,0.186939,-0.126156,0.259095,-0.233449,0.0620501,0.17319,0.419349,0.280563,0.240522,-0.105815,0.390826,0.175472,0.169147,0.136755,-0.208809,-0.50375,-0.322135,0.328145,-0.446643,0.25348,-0.0800168,-0.494688,-0.337564,0.445207,0.458816,0.281908,-0.122041,-0.2602,-0.12739,-0.045049,0.504212,0.0180888,-0.322107,-0.163752,-0.1729,-0.25044,0.0321087,-0.476011,-0.4282,-0.00187832,-0.0215837,0.250368,-0.508887,0.330999,-0.258904,0.17737,0.421758,0.0347111,0.402221,0.0255346,-0.0470882,-0.401684,-0.249545,0.342574,0.093324,0.0143542,-0.289694,0.133538,-0.11463,0.150064,-0.386491,0.190878,0.122705,-0.417396,-0.0352775,-0.210166,-0.170298,-0.281239,-0.289618,0.36597,-0.19551,0.175358,-0.170913,0.450854,0.252752,-0.213938,0.329739,0.0737069,0.0217964,-0.17016,-0.430986,0.288697,-0.322395,-0.0344576,-0.130161,0.124395,0.0457065,0.199323,-0.201799,-0.395798,-0.155792,-0.316413,-0.0650598,0.295519,-0.353547,-0.401366,0.327058,0.328031,-0.321606,-0.337278,-0.156405,0.480593,0.0563293,-0.0937641,-0.135487,0.283808,-0.354215,0.111707,-0.0420347,0.023756,0.0897528,-0.0440497,0.254874,0.229663,-0.525558,0.426379,0.243697,0.0381143,0.268377,0.284652,-0.0604888,0.0324748,-0.321881,0.183987,0.471477,0.462452,0.429865,0.131682,0.286724,0.432138,0.35183,0.437886,-0.443924,0.0814688,0.391373,-0.23276,-0.296055,0.52086,0.215727,0.465834,-0.456333,-0.1603,0.40117,-0.253552,-0.294224,0.0752622,0.149797,0.140316,-0.038345,0.450311,0.375109,0.281372,0.235016,-0.208661,0.107445,0.321609,-0.180966,-0.291691,0.0088945,0.101132,0.409648,-0.300526,-0.376224,0.366264,-0.066714,-0.310147,0.252953,0.148338,-0.47318,-0.044344,-0.389291,-0.237838,-0.347185,0.4662,0.0260663,0.274041,0.189789,-0.0291249,-0.036443,-0.00040791,0.0992839,0.368583,0.210269,-0.429727,0.415127,0.313258,-0.364112,0.462514,0.323547,-0.0475658,0.135739,-0.309984,0.12739,-0.326847,0.165529,0.398471,-0.0909109,0.0957,0.318225,0.193909,-0.447234,0.381852,-0.450248,-0.0626442,0.0421993,0.261433,-0.285536,0.2433,-0.148562,0.450669,-0.202168,0.157049,-0.0981028,-0.198945,-0.0665218,0.395772,0.0215059,0.363037,0.410528,0.0522088,0.504471,0.0492255,-0.0173652,0.155994,0.383011,-0.0372349,0.314579,-0.11676,0.0201607,-0.479106,0.404226,0.315899,-0.334168,0.0883023,-0.042153,0.475045,-0.438196,0.199057,-0.513794,0.518422,-0.492604,0.147333,-0.176828,0.0760135,0.240016,-0.130272,-0.114889,-0.133841,0.219585,-0.293411,0.00312788,-0.439726,0.0341357,0.0406276,0.33218,-0.409473,-0.445321,-0.0660095,0.020676,0.173937,0.0367051,0.0719797,0.0885178,-0.359346,-0.208645,-0.312342,0.0564185,0.546156,0.337498,0.00060482,0.330727,0.0423382,-0.0752115,-0.0637804,0.288678,-0.282612,-0.140202,0.185972,-0.253243,0.0615494,0.121412,-0.183592,0.00939616,0.0802716,-0.0712934,-0.370408,0.0362255,-0.268348,-0.393702,0.0309025,0.496651,0.0448884,-0.338179,0.0035637,-0.448887,0.0823513,-0.476201,0.21372,-0.562503,-0.391796,0.344695,-0.178038,-0.219215,-0.323779,0.469201,-0.230128,-0.234576,-0.301482,0.380167,0.312416,0.0743541,0.406893,-0.0159451,-0.232038,0.00466096,0.270961,-0.00670776,0.189463,-0.280464,0.237119,0.408976,0.439126,0.292979,0.0111424,0.462116,-0.110696,-0.041131,0.407603,0.505467,-0.322927,0.411664,-0.37635,0.0935893,0.484357,-0.0974217,-0.229606,-0.274495,-0.360132,-0.273251,0.159623,-0.350028,0.4163,-0.488823,-0.122684,-0.0522359,0.453752,-0.257976,0.00339092,-0.416256,-0.222196,-0.234218,-0.0924788,-0.0149432,0.220578,0.131192,0.0402034,0.395618,-0.255468,0.17521,0.400608,-0.433463,0.191969,-0.286616,-0.240419,-0.400931,0.0708889,-0.365198,0.437568,0.0606695,0.314258,-0.241372,0.521722,0.272922,-0.215713,0.324699,0.407033,-0.317129,-0.289386,-0.28691,-0.195937,-0.162681,0.420479,-0.065206,0.172933,0.298721,-0.25418,0.14538,-0.411583,0.0642775,-0.0726575,-0.074135,-0.272354,0.482172,0.245928,0.466942,0.279466,0.0745867,0.0504694,0.522999,-0.117505,0.376383,0.176172,-0.360498,0.270099,-0.607092,0.0284789,-0.180024,0.00408545,-0.358449,0.199568,-0.312227,0.312471,0.206118,-0.167744,0.274471,0.0552391,0.235861,0.00193407,0.208705,0.46267,0.364276,0.456898,0.258942,-0.489825,0.202814,0.134133,-0.0428092,-0.124889,0.0575322,0.132893,0.144262,0.404427,0.113387,-0.301647,-0.273341,0.0543998,0.165244,-0.2192,-0.372175,-0.203398,0.410627,-0.335446,0.391801,-0.222958,0.320653,-0.347659,-0.0814792,0.272228,-0.464043,-0.285957,-0.421156,-0.451054,0.437969,-0.110373,0.460482,0.0470401,0.45453,0.125236,0.416481,-0.00502921,-0.287903,0.384112,-0.209818,-0.391719,-0.392501,-0.325453,-0.0347844,-0.0522352,-0.0248814,-0.290012,-0.0334248,-0.200315,0.266502,0.287004,-0.200421,0.284401,0.384053,-0.526314,0.143352,-0.0561104,0.132542,-0.239165,-0.40285,0.458685,0.0271905,0.119457,-0.402138,-0.172836,0.22953,-0.318916,0.107234,0.348163,0.442095,0.0592288,0.379906,0.0433214,0.0773032,0.0690128,-0.0949735,-0.42809,-0.080271,-0.3355,-0.0409896,-0.40789,-0.231613,-0.255901,-0.265369,0.15904,-0.139204,0.0850901,0.370163,0.225907,0.370136,0.289143,-0.295314,-0.308591,-0.0550991,0.143234,-0.0442258,-0.323266,-0.281446,-0.383756,0.387494,0.25887,-0.320543,-0.331156,-0.294619,0.153345,0.423008,-0.224317,-0.124132,0.284163,-0.426717,-0.113894,-0.381093,0.276036,-0.322765,0.138339,0.123919,-0.138896,0.385594,0.395515,-0.280774,0.481029,0.10349,-0.379271,0.52814,-0.121968,-0.382785,0.398974,-0.403301,0.257601,0.0073349,-0.437195,0.214132,0.298829,-0.0640659,0.468566,0.0233662,-0.0770147,-0.439033,-0.287789,0.486151,0.492625,0.276024,-0.0139469,0.117554,-0.0594509,-0.434246,-0.510403,0.0699976,0.0735668,0.419406,0.0165114,-0.18854,-0.151132,0.405935,0.205235,-0.29147,0.0849707,0.035129,-0.466176,0.49913,-0.249412,-0.0196898,0.317139,0.240832,-0.0103557,-0.423554,-0.305222,-0.323823,-0.238691,0.11663,0.272334,-0.00344381,-0.125431,0.0437083,0.348754,-0.413888,-0.354928,0.356612,0.232835,-0.0897374,-0.082748,-0.321087,-0.0822676,-0.378311,-0.152673,0.331045,0.290149,-0.446364,0.278167,-0.121845,-0.288735,-0.3725,0.193596,0.231291,0.143225,-0.108419,0.213248,-0.0648382,0.390645,-0.0932608,0.303096,0.184165,-0.48594,-0.0831617,-0.465819,0.368042,0.120265,0.0623126,-0.122947,0.0939107,0.244453,-0.226999,-0.0819485,-0.0557782,-0.141846,-0.0307599,-0.350514,-0.0382211,0.230423,0.0939122,-0.153606,0.0400128,0.460808,0.070081,-0.0729325,-0.062584,-0.275301,-0.124875,0.505278,0.0702096,0.358494,0.457779,0.14334,0.387946,0.215721,-0.0115627,-0.0768835,-0.462964,0.378973,0.0204509,0.121083,-0.226193,-0.399223,-0.00251752,0.505826,-0.0772366,0.136947,-0.0862605,0.435248,-0.0759288,0.156139,-0.407923,-0.302414,-0.04773,-0.503727,-0.150543,-0.030573,-0.406958,-0.405635,-0.332713,-0.360772,0.22577,-0.00870387,-0.00745607,0.467869,-0.492869,-0.0483425,-0.233952,-0.207565,-0.371167,0.272825,-0.0795888,-0.0185101,-0.129417,-0.0915587,0.380077,0.25541,0.52187,-0.316935,-0.447855,0.324561,-0.373662,-0.318433,0.332627,0.328767,0.00696937,0.275422,0.326093,0.195441,-0.188069,-0.155917,-0.420789,0.284282,0.15021,0.321086,0.146691,0.505407,-0.287997,0.191824,0.00635732,-0.448573,-0.39141,-0.205419,0.10054,-0.0998644,-0.307761,-0.191148,-0.506482,0.218114,0.219028,0.457145,-0.290315,0.0178214,0.0684702,-0.149817,-0.476733,-0.38268,-0.0210963,-0.411542,0.310008,0.35528,0.320625,0.131436,0.498551,0.0580376,0.45889,0.123414,-0.13947,-0.169759,-0.180099,0.391142,-0.0406929,0.127257,0.070757,0.151689,0.4519,0.169778,0.0426932,-0.546762,0.138045,-0.0710942,0.223227,-0.474488,-0.508829,-0.303134,-0.276704,0.385709,-0.202964,0.510806,0.51481,0.299056,-0.410525,0.48648,0.345668,-0.10247,0.244596,-0.234475,0.197972,-0.155901,0.139079,-0.0124523,0.232706,-0.027291,-0.484194,-0.343004,0.35362,0.00311314,-0.168264,-0.017454,0.376035,-0.128952,0.278196,0.106988,0.293224,0.0882443,-0.484794,-0.33266,-0.384473,-0.106325,0.299943,-0.0716007,-0.268244,0.0177941,-0.13429,0.0778371,0.0713146,0.304005,0.137982,0.42242,-0.0245552,0.270352,-0.26158,0.0938714,-0.398068,0.355889,0.174516,-0.109823,0.0762896,-0.274898,-0.31966,-0.0866287,-0.283215,0.151139,-0.418196,0.221103,-0.543716,0.230923,-0.027653,0.448627,0.0482195,0.228255,0.257312,0.361524,-0.299835,0.261039,0.0680247,0.0981347,-0.471504,0.257147,-0.269363,-0.264932,-0.418938,-0.103296,-0.505399,0.294739,-0.521862,-0.23504,-0.396394,-0.132213,0.342329,0.00593028,0.0210205,0.258406,0.369385,-0.431939,0.232433,-0.434253,-0.0139598,-0.258243,-0.345886,-0.38824,0.0838463,-0.100106,0.277749,-0.241531,-0.0413494,0.354181,0.20661,-0.192445,-0.220313,0.0857164,-0.195372,0.14327,-0.335868,-0.508109,0.485549,-0.0383139,0.461713,0.315551,0.0917018,0.29156,0.0216427,0.0844663,0.210848,-0.287552,0.127528,0.376119,-0.524482,0.065859,-0.360897,-0.499649,-0.458001,0.412875,-0.0390344,-0.481392,-0.226243,-0.486036,0.280371,0.407508,-0.363272,-0.214145,-0.199034,0.105924,0.214816,-0.443199,-0.0786476,-0.181791,-0.290645,0.0944287,-0.0385331,-0.235736,0.35444,0.411987,0.137743,0.30819,-0.210487,0.0510441,0.442709,-0.0876855,-0.263588,0.15633,-0.00523389,0.294679,-0.0291756,-0.479301,0.0424729,-0.174583,0.380087,0.467018,0.425019,0.404003,0.122334,0.201083,0.312868,0.109151,0.463509,0.0521306,0.296824,0.280596,-0.318633,0.250215,-0.243027,-0.39553,-0.343747,-0.0395706,-0.191382,0.44963,0.065052,-0.0380804,0.276548,-0.244598,-0.33125,-0.264442,-0.157298,-0.375927,-0.216393,0.0877112,0.0439884,0.103422,0.0982569,-0.353952,0.536827,-0.403254,0.0661116,-0.109983,-0.269235,-0.362695,-0.353375,0.111788,-0.261982,0.0492173,0.00195482,-0.35723,-0.410905,-0.485579,0.243729,0.230823,-0.108985,-0.0971936,0.109703,0.184198,-0.3878,0.198456,-0.446134,-0.0791046,0.248226,0.130918,0.277673,-0.506415,0.452784,-0.454791,-0.45906,0.393786,0.262571,0.297569,0.312184,0.162612,-0.201041,-0.140727,0.0364302,0.385596,-0.0447453,-0.46978,-0.421414,-0.278309,-0.177324,0.37322,-0.264583,-0.427379,0.448032,0.334805,-0.459952,-0.296715,-0.553038,0.272905,-0.186185,0.0848779,0.165835,0.412457,-0.0389643,0.166399,0.123782,-0.125557,0.214836,0.47938,0.482565,0.235106,0.371072,0.22418,-0.413397,-0.437696,0.279224,-0.103563,0.420488,-0.277703,-0.369217,-0.297463,0.23693,0.474263,0.275708,0.160072,-0.0165526,0.343725,0.261624,-0.552106,0.258745,-0.0896682,-0.0636112,-0.0782155,0.27512,-0.318784,-0.218916,0.0279821,-0.296154,-0.0228101,0.383794,-0.427278,-0.39277,-0.255347,-0.274609,0.243615,-0.0849148,-0.395029,-0.139809,-0.444065,0.27882,0.238627,0.234189,-0.260316,0.11525,0.349637,-0.00659316,-0.0637494,-0.349689,-0.38937,0.381147,-0.282858,-0.0884005,0.0959042,-0.248011,0.18865,0.38277,0.115945,-0.0712165,-0.378108,0.417355,-0.355267,-0.138634,0.132722,0.124694,0.283599,0.124882,-0.347845,-0.227182,-0.234696,-0.167631,-0.166093,-0.401936,-0.177386,-0.0380237,0.373238,0.316821,-0.387199,0.257631,0.125711,-0.326322,-0.245196,-0.027356,-0.253328,-0.138785,-0.404543,0.450341,0.0301026,-0.14311,-0.366552,0.252319,-0.0260169,-0.178654,-0.354388,-0.442599,0.213458,-0.154838,0.247423,-0.365282,0.109571,0.391851,0.0688451,-0.379262,0.412004,-0.255222,-0.157245,0.236489,0.115183,-0.0874674,0.195292,-0.0659038,0.266909,0.0511671,-0.316648,0.0489666,0.131039,0.380958,0.148388,-0.441432,-0.348993,0.152203,-0.0798408,-0.374769,-0.180004,0.423812,0.19668,-0.200676,0.00406389,0.145952,-0.121036,-0.0497081,-0.353271,-0.0483914,-0.10597,-0.435485,-0.0856431,0.335602,0.25488,-0.301478,-0.231345,-0.0327986,-0.536055,0.324715,0.10333,0.182923,0.344612,-0.0194606,0.305488,-0.132875,0.331849,0.269633,0.134725,-0.235862,-0.360034,0.169787,-0.334473,-0.434455,0.236268,-0.427091,0.348454,-0.0754746,-0.219718,0.243643,-0.513719,-0.334058,0.465386,0.231816,0.395124,-0.119096,-0.450107,-0.125504,-0.148043,0.10951,-0.0724124,-0.198981,0.388312,0.350134,-0.312209,-0.501904,0.356436,-0.330758,0.200571,0.125953,-0.226486,0.369805,-0.195939,0.00132286,0.417235,-0.60918,-0.382646,0.332998,0.44728,0.373236,-0.377215,-0.363671,0.00687443,-0.0998112,0.136023,0.258323,0.471432,-0.345473,0.412691,-0.102625,0.390942,0.494306,0.0384617,-0.470777,-0.478185,-0.108337,0.0374316,0.082588,-0.164329,0.288638,0.203768,-0.396814,-0.0629931,-0.322284,0.24606,0.0556036,0.362425,-0.234135,0.486898,0.28606,-0.101172,0.0532426,0.0591091,0.173814,0.224733,0.111435,0.484359,0.165438,0.226491,-0.149447,0.5176,0.450509,0.461337,0.0300999,0.228837,0.338757,0.121277,0.386434,-0.0156837,0.0121539,0.269967,0.315649,-0.135414,-0.0803856,0.288364,-0.492175,-0.407787,0.0999654,-0.323075,-0.244932,0.303091,-0.0823193,-0.0881048,0.524324,0.252237,0.325063,-0.32799,-0.461459,0.115091,-0.005015,-0.388006,-0.00777182,0.129039,0.352191,0.0614487,0.363606,0.155588,-0.264217,-0.372025,0.301705,0.106875,-0.373808,-0.445003,-0.403846,-0.0789249,-0.438341,0.0539348,-0.208999,-0.00139043,0.034749,0.0982471,0.437332,0.27967,-0.394846,0.106171,-0.0679054,-0.206881,0.263052,-0.112128,0.460187,-0.287379,-0.036609,0.389694,-0.290626,-0.060987,0.417852,-0.55466,0.0433675,-0.0935073,0.32344,-0.230932,0.473138,-0.0521573,0.44666,0.0893289,0.276636,0.46184,-0.476158,0.171877,0.0905144,-0.302752,-0.410065,-0.301329,0.222474,0.273278,-0.157049,-0.163499,0.432572,0.448833,-0.499384,0.114967,0.10763,-0.417813,-0.474673,0.023038,0.0798792,0.00597754,-0.59166,-0.135736,0.0914863,-0.192924,0.321239,-0.327085,0.375186,0.182707,0.027678,-0.267101,0.487722,0.403913,-0.0670445,-0.0332327,0.157282,-0.502988,0.0185559,0.467401,0.119297,-0.0546011,0.0610954,-0.411422,-0.463335,-0.153588,0.403125,0.185175,0.142623,0.291607,0.0641599,0.393547,-0.580508,-0.131782,0.0426752,-0.182404,-0.400529,0.237203,0.210958,0.00786504,0.272982,0.150314,0.11903,0.0882923,0.416137,-0.0967677,0.242569,-0.432898,-0.194798,0.0512585,0.348055,0.2307,-0.159352,-0.275569,0.284708,0.35519,-0.370747,-0.346379,-0.321708,-0.115903,-0.296513,0.505918,-0.126691,0.381907,0.590281,0.0338155,0.386335,-0.409873,-0.120863,-0.188939,-0.237315,-0.36763,-0.47693,-0.0349322,-0.0619508,-0.505184,0.0402629,0.347779,-0.338084,-0.318895,-0.0178104,-0.410987,-0.303334,-0.126519,0.343746,0.0243593,-0.337311,0.0393014,0.203348,-0.182489,-0.1138,-0.341624,0.00191148,-0.0312551,0.303669,0.324915,-0.385933,0.364029,0.0684015,0.168377,0.130856,0.41932,-0.0131276,-0.07247,-0.584206,-0.277988,0.0894349,-0.393806,-0.145638,0.308562,-0.504397,0.206136,-0.390395,-0.371447,-0.0930004,0.40314,-0.117104,-0.374528,0.210226,0.318823,0.0200965,-0.501798,0.245727,-0.126398,0.18968,-0.346121,-0.0274605,-0.0191083,-0.00780524,0.176706,-0.140804,0.178058,-0.483879,-0.153842,-0.336624,0.348682,0.270782,0.0819146,-0.316193,0.0156991,0.315078,-0.0285274,0.0279329,0.316754,-0.0709512,0.387763,0.390235,0.380354,0.369909,-0.0992547,-0.328863,0.0593966,-0.463859,0.428871,0.0784035,-0.368922,0.451221,0.330175,-0.463152,0.280791,-0.173613,-0.104768,0.213602,-0.351803,-0.227137,-0.210565,-0.0681243,0.0876738,-0.0339962,-0.0767563,-0.123655,-0.338783,-0.11959,0.40563,0.39942,0.226423,0.398515,0.247562,0.350177,-0.198683,0.0310912,-0.360901,0.39188,0.275353,-0.081425,0.135615,0.455762,-0.10837,-0.0929891,-0.00759429,0.128567,0.235312,-0.257791,0.399629,0.0943044,-0.163849,0.138264,0.435076,0.323303,0.0900369,-0.352071,-0.0765343,0.398561,0.327191,-0.216224,-0.157055,0.131758,-0.284494,0.232589,0.416191,0.100234,-0.369425,-0.19903,-0.230994,0.354739,-0.312911,-0.244104,0.352353,0.546925,0.0362954,-0.31119,-0.448056,-0.249105,-0.0484762,0.143493,-0.445078,-0.244601,-0.327066,0.314666,-0.280326,0.453314,0.157314,0.294435,-0.495316,-0.233549,-0.582637,0.156678,0.524536,-0.140213,0.383276,-0.114806,-0.128277,0.255829,-0.188862,0.481501,0.312966,0.0225443,0.346306,0.0286707,0.0212574,0.0268163,-0.606931,-0.128451,-0.0210052,0.279178,0.177762,-0.000451745,-0.201427,-0.412218,-0.458881,-0.285871,0.0696782,-0.34292,0.317749,0.269756,0.333425,-0.200015,-0.00352231,-0.0986346,0.0240811,-0.262416,-0.317493,0.338072,-0.153987,0.336375,0.218784,0.405359,-0.345335,-0.283513,0.35558,-0.16249,0.0964824,0.381995,-0.119836,-0.161683,-0.376171,-0.332507,-0.187145,-0.25221,0.478168,0.00557962,0.422844,-0.403786,0.504949,0.269219,0.302857,-0.311256,-0.291583,-0.309885,-0.3984,0.0790365,0.18827,-0.375175,-0.0619218,0.361202,0.141447,-0.345583,-0.492649,-0.0932426,0.276063,0.132204,0.211019,0.401538,-0.231666,0.107867,0.381131,0.214154,-0.437464,-0.0857777,0.0597081,-0.0834711,-0.197928,-0.489278,-0.100112,-0.249465,0.0657995,-0.179791,0.333866,0.426194,0.357551,0.359178,-0.215146,-0.260988,-0.217111,-0.358547,-0.285084,-0.441669,-0.410243,0.134036,0.4381,-0.0979061,0.055332,0.144542,-0.478981,-0.232726,0.408203,0.320293,-0.0399933,0.513542,-0.353941,0.287078,0.164832,-0.259922,0.320559,-0.217577,-0.354846,-0.263781,0.369327,0.487682,-0.375571,0.16956,0.0599304,0.508974,-0.0442463,-0.191494,0.0284575,0.17795,0.304545,0.0501805,0.246659,0.35874,-0.0808534,0.322489,-0.342958,0.05776,0.392248,-0.195456,-0.00762956,0.302217,0.366479,0.0587014,0.211098,0.414824,-0.362181,-0.30336,0.282461,0.379926,-0.22109,0.389322,0.285397,-0.564979,0.497066,-0.396362,0.336614,0.361286,-0.293376,0.0873472,-0.322981,-0.250225,-0.243679,0.0147766,0.0364139,-0.267134,-0.311074,0.192847,-0.505531,-0.154305,-0.368713,-0.148842,0.120874,-0.361891,-0.20633,-0.522358,-0.180296,0.321476,0.23838,0.401041,-0.0141516,0.461935,0.505567,-0.455582,-0.202337,0.452667,0.577927,0.141051,-0.0840167,-0.0686734,0.160184,-0.524728,-0.515225,0.194136,0.0335687,0.178059,-0.172577,-0.25828,-0.199749,0.487019,0.254165,-0.0817367,0.119456,-0.160965,0.249675,0.364174,-0.0591214,0.023324,-0.332474,-0.386401,0.0267641,-0.490342,0.0437243,0.267968,-0.296519,-0.220086,0.259643,-0.0898943,-0.385872,0.014229,0.0828212,0.0978008,-0.429888,0.00512766,-0.190298,0.073008,-0.284277,0.235545,0.0134865,-0.315405,-0.196713,-0.0852225,0.362557,-0.298266,-0.0594994,0.102674,-0.290622,0.447224,0.321508,0.0894996,0.240564,0.2474,0.181818,-0.427052,-0.414085,0.022766,0.435266,0.313752,-0.523638,-0.272007,0.127549,-0.0863371,-0.0317783,-0.0457275,-0.386773,0.0557397,-0.125582,0.112004,-0.227178,0.158936,-0.454134,0.274308,0.113281,0.403305,-0.441331,-0.460376,-0.372306,0.293132,-0.134253,0.179601,0.155915,0.0199424,-0.0699842,-0.373715,0.122308,0.256264,0.202639,-0.0690525,0.407896,-0.070173,-0.188502,0.0732065,-0.553885,-0.127601,-0.171353,-0.428785,-0.0632399,0.422771,0.276248,-0.159657,0.187337,0.176745,0.267176,0.0916664,0.182048,0.106056,-0.251154,-0.0591596,0.179518,-0.183846,0.323532,-0.139598,0.179878,-0.437636,-0.438982,-0.1122,-0.378345,0.45492,0.59674,0.325155,0.389489,0.224237,-0.182243,-0.364877,0.184044,0.379851,-0.0932586,-0.0283203,-0.402789,0.00965433,-0.170642,0.0237565,0.250361,0.246348,-0.0607757,0.346178,-0.247526,0.0218184,-0.527891,-0.451177,0.0254174,0.511366,-0.0294115,0.0496827,0.28358,0.594157,-0.296432,-0.0475274,-0.39621,0.228095,-0.154885,-0.360732,0.315274,-0.370611,0.231026,0.231662,-0.0421337,0.406418,-0.495679,-0.284251,0.245896,0.0344407,0.122314,0.120061,0.0982003,0.0804436,-0.359834,0.194784,0.410788,-0.657965,0.348332,0.0181772,0.437718,-0.073979,-0.239255,0.234605,-0.201562,0.13932,0.428471,0.250897,-0.272291,-0.157798,-0.425593,0.0182666,-0.331175,-0.468609,-0.0326939,-0.216977,0.154644,0.15719,-0.21008,0.329889,-0.420306,0.0980614,0.112208,0.292468,0.0275827,0.305245,0.439749,-0.018128,0.330201,0.00537603,0.170731,0.253125,0.106371,-0.278323,-0.00777463,0.306149,0.0295445,0.358029,-0.403337,-0.178297,-0.129656,-0.352067,-0.142272,-0.438398,-0.172643,-0.0624334,0.229205,-0.0875374,-0.260231,-0.526176,-0.591282,0.000983427,0.166472,-0.370912,0.0110345,-0.135119,-0.345113,-0.163256,0.347205,0.0123706,0.0985295,0.0902545,-0.0201213,0.0244592,-0.124625,-0.0134145,0.103256,0.468813,0.484329,-0.169644,-0.211734,0.320818,0.075408,0.43264,0.00643598,-0.0858931,-0.368743,-0.268312,-0.00781876,-0.296197,0.32997,-0.332414,-0.252046,-0.479979,-0.163818,0.155788,-0.0561813,0.47677,-0.478212,0.22398,0.064851,0.0464123,-0.195864,0.296133,-0.351568,0.262387,-0.162848,-0.00315457,0.000262223,-0.445738,-0.0636934,-0.147644,-0.282701,-0.43981,-0.059406,-0.43957,0.620783,0.183312,0.0727481,0.381071,-0.028797,-0.295892,0.146227,-0.0187818,-0.495386,0.0904646,-0.645765,-0.304318,-0.214827,-0.29786,0.117345,0.382177,0.395739,0.476162,-0.157604,0.0428613,-0.0594885,0.0292737,-0.14859,-0.335058,-0.154375,-0.26859,0.124619,-0.195667,-0.379316,0.401287,0.428143,-0.515337,-0.322947,-0.0414081,0.419813,-0.431193,0.157325,0.0472855,0.124341,-0.384667,0.396061,-0.0998011,-0.35505,-0.43178,0.27677,-0.0290847,-0.0484171,0.122786,-0.164734,-0.334926,-0.519554,-0.0764623,-0.0563882,0.181507,-0.427308,0.171016,-0.250962,0.312755,-0.248256,-0.0908989,-0.0460482,-0.228006,-0.0476205,-0.172906,-0.0759379,0.452993,-0.119989,0.309431,-0.12147,-0.0680945,-0.188438,0.295562,0.321372,-0.039585,-0.156121,-0.361279,0.249655,-0.304151,0.195243,0.0526369,-0.255486,0.373754,-0.117114,-0.571259,0.0994768,0.102858,0.147821,0.291523,0.245587,0.0216416,0.350029,-0.163212,-0.104144,-0.237197,-0.188985,-0.157785,-0.0133784,0.146373,-0.0622516,-0.29332,-0.287301,0.0818061,-0.414493,0.42276,-0.0818824,-0.308327,-0.359028,-0.349739,-0.107171,0.475336,0.26085,-0.182621,0.400646,-0.164523,-0.396064,-0.0869114,0.29816,0.0291571,0.316265,-0.221727,-0.0125796,-0.395414,0.369508,-0.474504,0.30104,0.186863,-0.475322,0.237162,-0.34611,0.149976,-0.00876334,0.204523,0.243529,0.293112,-0.35876,-0.135074,-0.219161,-0.492066,-0.0507928,-0.0246103,0.284754,-0.184762,-0.612033,-0.0576267,-0.478581,-0.0723784,-0.428956,0.270751,-0.362927,-0.134392,-0.0176416,0.327567,-0.455073,0.304955,-0.0518514,0.206781,-0.125056,0.525795,0.0226458,0.415596,-0.279357,0.554581,-0.254842,0.204868,-0.168469,-0.340244,0.167208,0.0474523,-0.228074,0.0527533,0.103111,-0.433759,0.121179,0.187916,0.28111,0.4782,-0.0703374,0.227085,0.202596,-0.45015,-0.141297,0.114302,-0.123608,-0.240713,0.350624,0.0785475,-0.225982,-0.101287,-0.0132532,0.0517611,-0.539777,0.387692,-0.401821,-0.310622,0.436037,-0.00112395,0.0418389,0.210074,0.174736,0.162821,0.00385246,0.302402,0.31925,0.354032,-0.218659,0.194964,0.317143,0.179271,-0.407358,0.318074,-0.167516,0.475528,0.34643,-0.00973696,0.344836,0.337688,-0.282218,0.281269,0.307206,-0.176366,-0.311136,-0.377422,0.327723,0.444548,0.387732,-0.449816,-0.303157,-0.0497998,0.357453,0.130558,-0.262586,-0.513396,0.396763,0.565625,0.286879,0.0113364,-0.0445042,0.232993,-0.0840199,-0.0728167,0.292822,-0.364621,-0.345929,0.468047,0.119613,0.657451,-0.025515,0.222275,0.205381,-0.189398,0.385629,-0.0561212,0.0963257,0.0113158,0.224727,-0.251051,-0.512109,0.103664,0.214691,0.0449729,0.0618159,0.069189,-0.181894,0.314437,-0.389284,0.151627,0.175294,0.522946,0.395246,-0.310468,0.0596414,-0.153698,-0.32851,0.150104,-0.301234,0.301303,0.298208,-0.0688123,0.0437266,-0.204733,0.21498,0.164137,-0.240833,0.0652176,0.121397,-0.0403791,-0.102078,0.224031,-0.0288593,-0.314896,0.540308,-0.362298,-0.085896,-0.581974,-0.456995,0.463163,0.442933,-0.288893,-0.219032,0.255485,-0.217497,0.266627,-0.486212,0.113427,0.430232,0.145683,0.26633,0.00332208,-0.282048,-0.24394,-0.513706,-0.375279,-0.283974,-0.0317102,0.554728,0.193946,-0.263244,-0.374198,-0.193349,0.0372174,0.455508,-0.288819,-0.424803,-0.453763,-0.343434,-0.0272795,-0.568416,0.289965,-0.171008,-0.356511,0.284056,0.224871,0.108872,-0.495124,-0.0916434,0.0292982,-0.218078,-0.349514,0.15475,-0.29916,0.0782253,-0.145707,-0.135332,-0.275122,0.404408,0.698468,-0.0111622,-0.431634,0.418124,-0.181875,-0.155491,0.484054,0.334941,-0.184239,-0.044345,-0.483999,-0.298235,0.226418,-0.134894,-0.298198,0.0734264,-0.0379267,0.451815,-0.209994,0.116783,-0.134365,-0.536536,-0.305813,-0.061061,0.431879,-0.176196,0.257858,-0.280061,0.340807,0.251705,-0.219271,-0.194239,-0.397802,-0.0329612,0.0636958,0.366825,0.160034,-0.280264,-0.269465,0.0679685,0.121117,-0.180056,-0.297979,0.0252529,-0.356852,0.100852,-0.0207551,-0.401335,-0.0789012,-0.346001,-0.00495559,-0.523235,0.246735,0.351602,-0.117429,0.480028,-0.000809197,0.0151026,-0.297228,-0.117622,-0.258952,-0.397715,-0.422175,0.131946,-0.302635,-0.214508,0.433493,0.261167,0.0594869,-0.0508889,-0.300785,-0.269584,0.372726,0.422144,-0.421751,-0.388831,0.0924269,0.412371,0.30491,-0.500272,0.435654,0.244459,-0.0447575,-0.462908,0.288188,-0.0565138,-0.342965,0.325682,0.502841,-0.103324,0.338411,0.143259,-0.268892,-0.0830118,-0.0100553,0.122331,-0.287693,-0.320613,-0.0218198,0.159803,0.573022,-0.27095,-0.241289,0.410272,-0.164059,0.074759,-0.000720385,0.206729,0.237451,-0.449586,0.400472,0.212637,-0.393771,-0.219739,0.166439,0.0239614,0.0586031,0.213456,-0.0373105,0.132097,-0.522519,-0.0458865,-0.300445,0.211327,0.358722,-0.0621368,0.154723,0.424493,-0.345608,0.0856276,0.35484,-0.261463,0.277249,0.336504,-0.0485203,0.235337,-0.0526893,0.12534,-0.212432,-0.134801,-0.0472949,0.383214,0.52146,0.303303,0.261089,-0.342139,-0.477978,-0.0968975,0.125621,0.058244,0.0904287,-0.0710429,0.103362,-0.33149,-0.233829,0.297621,-0.33247,0.425319,-0.0603578,0.0405474,0.00280527,-0.0658138,-0.0814686,-0.312789,-0.0134142,-0.0828547,-0.487967,0.234014,0.419755,0.00854726,0.23311,-0.517312,-0.15113,0.392735,-0.23497,-0.333206,0.447921,0.246585,0.397112,-0.258613,0.138439,0.274498,-0.252979,-0.132369,0.32539,0.402279,0.17655,0.211996,-0.435616,-0.293136,0.513608,0.424019,-0.0732014,0.270218,0.250274,0.270374,0.315211,-0.422067,-0.235926,-0.202636,0.342465,0.0503979,0.0785179,0.540128,0.339248,-0.344385,0.483242,-0.357333,-0.0806838,0.358315,0.113408,-0.207927,0.558631,-0.253348,0.221586,-0.120616,-0.0867295,0.071294,-0.258794,-0.517652,-0.35984,-0.56534,-0.152118,0.453859,0.0625275,-0.0861527,-0.409953,-0.156067,-0.0245892,0.276728,0.262313,-0.0484636,-0.0811724,0.134161,0.140446,0.174979,0.0148805,-0.246415,-0.170002,0.12444,-0.405784,0.148741,-0.159799,-0.0856306,0.41373,0.480891,-0.11838,-0.276685,-0.18871,0.138815,-0.365997,-0.0221488,0.0772925,0.0995274,-0.00540487,0.31524,-0.407593,0.395876,0.308989,-0.425096,0.302037,0.269414,0.253305,-0.257703,0.420182,-0.507889,-0.280319,-0.503864,0.39943,0.0810087,0.00695052,-0.444301,-0.259415,0.0320739,-0.454604,0.155035,-0.123979,-0.234976,-0.117367,0.168657,-0.206713,0.406661,-0.194636,-0.418148,-0.175994,0.333574,-0.447557,-0.0563176,0.547346,-0.286857,-0.288301,0.427319,0.290148,-0.229917,-0.212476,0.576995,-0.256575,0.00251491,0.0969063,0.405554,-0.271022,0.447961,0.149408,0.282153,-0.161943,0.217505,0.399655,-0.158587,0.187438,-0.339571,0.245162,0.39249,-0.00479473,0.238937,0.104813,0.339928,-0.411397,-0.10947,-0.223552,-0.414992,-0.0423548,-0.232045,-0.0409704,0.202619,0.0400131,-0.373782,0.0671911,0.470242,0.126825,-0.0533281,-0.0440608,-0.507347,0.177275,-0.386264,-0.0214467,0.313436,-0.360948,0.396293,-0.206989,-0.283545,-0.408661,0.500264,0.309383,-0.518149,-0.571229,0.145067,0.112808,0.0346168,0.203131,-0.520266,0.290835,0.232277,0.261825,0.541777,0.0757354,0.454291,-0.187207,0.112813,0.440259,-0.123178,-0.0528048,-0.409868,0.205352,0.0860629,-0.0407176,0.349567,-0.0167615,-0.464522,-0.249413,-0.0415151,-0.432252,0.155148,-0.103011,0.460197,-0.0467855,-0.278784,0.565629,0.40301,0.320139,-0.279561,-0.0834039,-0.312239,-0.115298,0.263585,0.245746,0.125885,0.389097,-0.377376,0.521337,0.29535,-0.133585,-0.320716,-0.485116,0.344701,0.355966,-0.174173,-0.197102,-0.483379,-0.271027,0.216068,0.299247,0.239803,-0.158648,-0.367939,-0.314018,0.427499,-0.270095,0.102718,0.498531,0.157871,0.304758,0.0814091,-0.0726089,-0.021946,0.225214,-0.269094,0.210468,0.134414,-0.448875,-0.571021,0.494796,0.245352,0.142195,0.294574,-0.486166,0.369078,0.407247,-0.438777,0.342686,0.125599,0.37134,0.0271409,-0.440003,-0.0494667,-0.305059,0.207941,0.237909,0.352266,0.286304,0.0856816,0.405194,-0.416759,-0.368415,-0.392932,-0.189332,0.319563,0.515917,-0.0854686,-0.0524472,0.311098,0.193939,-0.0964313,-0.0823231,-0.0945192,-0.0187437,0.046193,0.232749,-0.0595569,0.449776,-0.232241,-0.306657,0.260531,0.234162,-0.386195,0.416127,0.0362317,0.344832,0.300316,0.0557544,0.335151,0.362165,-0.287596,0.0150672,-0.165828,-0.0262669,-0.0157378,-0.132859,-0.444634,0.463016,-0.123197,0.0213089,-0.219203,-0.0225869,0.107271,0.105092,-0.19403,0.144004,-0.0679113,-0.386212,-0.402924,-0.377142,0.201742,-0.291945,-0.307707,0.286013,-0.18837,0.129479,-0.442897,0.178523,-0.0503353,0.60555,-0.237253,0.423842,-0.0277231,-0.092639,-0.152575,0.0033737,0.185468,0.342277,-0.145324,0.0175072,-0.142767,-0.149687,0.286475,-0.250427,-0.176797,0.0171123,0.115689,0.180858,-0.275589,0.0191941,0.00962665,0.168654,-0.131868,0.097281,0.352804,0.0892369,0.0432769,0.0215277,-0.258877,-0.150964,0.0823007,-0.0851818,-0.209689,-0.520621,0.121278,-0.345617,-0.42258,0.0728339,0.198358,-0.276781,-0.196285,0.06312,-0.200016,-0.492661,-0.376709,0.153529,0.0927218,0.334804,-0.0546411,-0.316989,-0.0144425,-0.172853,0.377376,0.42644,0.0157487,0.0915083,0.0131531,-0.240388,-0.256726,-0.223216,0.229705,0.449106,-0.173706,-0.0356319,-0.109242,-0.594221,-0.106077,-0.33666,-0.38475,0.416157,-0.0370597,-0.323867,0.222357,0.209603,-0.416917,-0.231955,0.392687,-0.343376,0.498264,-0.247159,0.0233951,0.116809,0.0128945,0.310026,-0.434833,0.0418888,-0.125322,-0.17078,-0.125602,0.481609,-0.347982,-0.309005,-0.0545883,-0.385147,0.439388,-0.0637703,0.176632,-0.00153523,0.314628,0.214485,-0.189123,0.239662,-0.110623,0.124909,0.334152,-0.45629,0.308249,-0.409717,-0.414099,-0.429779,0.561187,0.155504,-0.126446,-0.320629,-0.0698601,0.323333,-0.381752,0.227325,-0.514591,0.16144,0.158971,-0.42948,0.136882,-0.255593,-0.0573488,-0.0954756,-0.295947,0.0268234,-0.182503,0.303605,0.112093,-0.510562,-0.0774651,0.0888404,0.16564,0.109787,0.212173,-0.0676353,-0.0311824,-0.392304,0.405275,-0.344177,0.105932,-0.199975,0.152599,-0.302535,-0.206048,-0.165644,-0.27965,-0.100611,-0.332989,-0.393271,0.0339607,0.40749,-0.00677308,0.00616832,-0.348955,-0.131222,0.423626,0.321696,0.174068,0.0912585,0.392976,0.143303,-0.50417,0.470569,-0.528198,-0.0193831,-0.337516,-0.284019,-0.468997,-0.204465,0.3335,-0.3105,0.199397,0.452864,0.525831,-0.35773,-0.539978,0.221936,-0.417898,-0.279851,-0.252345,-0.119398,-0.430416,-0.0368719,-0.249833,-0.108231,0.394527,0.0126431,0.427379,-0.32282,0.461756,-0.415111,0.241912,-0.231502,0.231202,0.412159,-0.285753,0.240375,-0.0594582,0.183887,0.361521,-0.132158,0.121531,0.0195985,-0.323579,0.379396,-0.284435,0.113838,0.168518,-0.150056,0.286381,-0.45875,0.333045,-0.199924,-0.426924,0.168921,-0.366733,0.294771,-0.00567328,0.0744208,0.49379,0.444533,-0.200379,0.182222,0.294041,0.560382,-0.0190152,-0.0533541,0.511447,0.0608799,0.137411,-0.365192,-0.277983,-0.312778,0.525351,0.136798,0.204531,-0.020485,0.223263,0.102742,0.0481843,-0.346113,0.110532,0.351597,-0.424103,0.216988,0.25854,0.184841,0.0327175,0.0173107,-0.142615,0.0195354,0.049637,-0.409755,-0.495758,-0.0517468,-0.446923,-0.0842612,0.399967,0.343357,-0.254461,-0.296964,0.149789,0.333763,0.102942,-0.364506,0.020748,0.283613,0.0903436,0.446326,0.537722,-0.273716,0.373069,-0.104863,-0.357669,-0.468517,0.370557,0.0273088,0.277883,-0.0589506,-0.31817,-0.459118,0.0749094,0.183838,-0.130557,-0.275363,-0.299069,-0.305626,0.101669,0.0175273,-0.273907,0.358853,-0.183809,0.211624,0.17485,-0.130751,0.130519,0.487135,-0.267236,0.363029,-0.333839,0.18671,0.0176046,-0.10598,-0.317513,-0.300809,-0.242465,0.252525,0.33262,0.0293755,-0.0609523,0.311695,-0.0916366,-0.108688,0.433811,0.0713054,0.3332,-0.308546,0.25221,-0.246511,-0.0718355,0.0256292,-0.228763,-0.110571,-0.0980959,0.442904,-0.026272,-0.0704684,-0.0973022,0.361608,-0.192359,-0.374512,-0.358947,-0.0473468,-0.208663,-0.100837,0.170505,0.288149,-0.00406148,-0.130473,-0.245582,0.266121,0.541803,0.445959,-0.431248,0.444947,0.262319,0.187505,-0.152766,-0.336343,-0.11743,0.300105,0.0245733,0.546956,0.530104,0.150946,0.437573,-0.307593,0.106313,-0.00184489,0.119614,-0.246745,0.247462,-0.469282,0.359981,0.160072,-0.127369,-0.0177996,0.411006,0.320512,-0.274623,0.0252268,-0.162401,0.620837,-0.329481,-0.122528,0.41755,-0.357724,-0.444374,0.469109,0.452645,0.159917,-0.535924,-0.482206,-0.194486,0.487341,0.035308,0.258366,-0.375203,0.22041,0.35602,0.468011,-0.208462,-0.0338776,-0.271801,-0.402352,-0.222989,0.482133,0.109228,0.377803,0.344924,0.389135,0.274863,-0.0117515,0.0316714,0.128928,-0.167172,-0.306405,0.0352556,-0.316652,0.0871234,-0.371241,-0.348175,-0.211571,-0.489115,0.32602,-0.0832377,-0.326684,0.00437349,0.0654333,0.19035,-0.193507,-0.34308,-0.390832,0.41884,0.361971,0.0119152,0.151275,0.283739,-0.271535,-0.513065,0.00567226,-0.137576,0.254631,-0.465041,-0.444427,0.353193,0.406253,0.327709,-0.149852,-0.26632,0.290607,0.424252,0.261187,0.0164799,-0.225342,0.00833002,0.451568,0.239017,0.13023,0.301406,0.497192,-0.419101,0.292522,0.288401,0.0416071,0.278682,0.208785,0.150791,0.518671,0.381324,0.464371,0.262628,-0.492968,-0.238639,-0.222908,-0.146305,-0.239995,-0.388867,-0.110842,-0.14236,0.466281,0.374665,0.366522,0.114515,-0.0292323,0.259462,0.186165,0.381188,0.215255,0.0927969,0.365289,0.122403,0.0223868,0.497951,0.278186,0.310526,-0.24986,-0.0347432,-0.379671,0.382322,0.218847,0.450481,0.400188,0.198817,-0.258177,0.203462,0.0296757,0.287774,0.121347,-0.0515755,0.21926,-0.184185,-0.0964144,-0.132754,0.407443,-0.210759,0.0399607,-0.11687,-0.346106,0.00276652,-0.301822,-0.158049,0.0988904,-0.157083,0.378103,-0.439385,0.483986,-0.381142,-0.305871,-0.236345,-0.0264875,0.335249,-0.0609875,-0.0521828,-0.318035,0.241482,0.0406147,0.555857,-0.120207,0.107159,-0.251077,0.114721,-0.460872,0.5535,0.404774,-0.309566,-0.339821,-0.0532723,-0.193885,0.535918,-0.294121,0.317771,-0.248095,-0.153387,-0.105731,-0.36832,0.223315,0.447184,0.239343,0.224932,0.283683,-0.418318,0.0154949,-0.39909,-0.160621,0.39469,0.26592,-0.222375,-0.0853579,0.192641,0.24737,0.355795,-0.277487,-0.0105664,0.31211,-0.202052,-0.472751,-0.127101,-0.046032,0.299426,-0.40467,-0.259691,0.442103,0.579554,-0.372374,-0.316199,-0.117656,0.192117,0.175695,0.0867118,-0.000105576,0.124497,0.113367,-0.385463,-0.271126,-0.327849,-0.112491,-0.359887,-0.418208,0.442254,0.224013,0.174565,0.0315575,-0.00113524,-0.070616,-0.158073,0.22046,0.418228,-0.507649,-0.0946235,-0.17436,-0.172389,0.515857,-0.535615,0.115551,-0.117768,-0.248132,-0.565871,-0.210178,0.573767,0.10051,-0.170051,0.0777305,-0.212095,0.434555,-0.347923,-0.336103,-0.399997,-0.116042,0.491917,0.331652,-0.479374,-0.0542003,0.316693,-0.273487,0.351004,0.280585,0.127813,0.390999,-0.0719595,-0.345573,-0.0694678,0.358957,0.375341,-0.399415,-0.314824,-0.207206,0.0283334,-0.235403,0.307235,0.0498089,0.00558989,0.170169,0.066076,0.204008,-0.055682,-0.198358,-0.305666,0.308303,0.337287,0.0861368,0.318578,0.199853,-0.0194266,0.106684,0.275394,-0.115495,-0.178688,-0.0887318,0.165304,-0.342485,0.376065,0.255329,-0.254825,-0.377069,0.405868,-0.305825,0.258997,0.402229,0.180169,-0.0412273,0.167055,0.0779095,-0.451144,-0.434194,-0.387941,-0.258898,0.0271551,-0.169623,0.23039,-0.136672,-0.150889,-0.394665,-0.417083,0.318909,-0.0999041,-0.232874,0.184294,0.110816,0.205498,-0.400081,0.100731,-0.0536666,0.366088,0.463322,0.0777831,0.042861,-0.398084,0.069168,0.0978931,0.476461,0.00632235,0.358042,0.316461,-0.0718945,0.197402,-0.0385618,-0.0570507,-0.0154181,0.262501,-0.313303,-0.0799478,-0.285445,0.415701,-0.373693,-0.243755,-0.141974,0.159297,0.280186,-0.437745,-0.175431,-0.189158,0.195305,0.118632,-0.0562256,0.381759,0.306611,0.126634,0.457037,-0.353251,0.192293,0.333885,-0.12812,0.286718,0.0721557,0.0646764,0.146296,0.441056,0.302565,0.459157,-0.042846,0.0474827,-0.152451,0.349803,-0.0794299,0.406655,-0.0378027,-0.442825,-0.177748,-0.283696,-0.242235,0.225737,-0.183252,-0.177887,0.20871,-0.339495,0.375101,0.0823673,-0.405005,0.309362,0.0250266,-0.0616146,-0.112311,0.264666,0.26521,0.311212,0.0333922,-0.256064,-0.175586,-0.233815,-0.0785808,0.10574,-0.237669,0.0460325,-0.123599,-0.00448025,0.487413,-0.441144,0.439014,0.333441,-0.218293,-0.294736,0.305455,0.245417,-0.2465,0.1818,-0.103162,0.0677976,0.403625,0.127545,0.24272,-0.29309,-0.422366,-0.0142684,-0.316673,-0.414671,0.459122,0.121228,-0.26982,0.410564,0.390481,-0.277021,-0.101789,-0.0392391,-0.508504,-0.0225519,-0.500357,-0.182022,-0.241099,0.590685,-0.0497542,0.130049,0.164851,0.307691,-0.413951,0.229456,0.126891,0.0122227,-0.331161,0.293421,0.218232,-0.132713,-0.121381,-0.217031,-0.241812,-0.266528,-0.470519,-0.119193,-0.183902,-0.274483,0.470089,0.395227,-0.483442,-0.165466,0.258126,0.131129,0.0276925,-0.431666,0.10912,-0.0311241,-0.316312,-0.0464083,0.176258,-0.243453,0.208415,-0.00342305,0.370583,-0.0542594,-0.218019,-0.177854,-0.220846,-0.219324,0.320934,0.211833,0.504392,0.401724,0.12254,-0.350509,-0.413555,0.120497,-0.00129016,0.477119,-0.262578,-0.430766,-0.354454,0.253211,0.238227,0.0455797,0.13884,-0.247483,0.191069,0.135311,0.481792,0.252115,-0.258826,0.240707,-0.0464912,-0.451141,0.011042,0.412285,-0.0141667,-0.376006,0.382891,-0.380646,0.174943,-0.212239,0.125715,0.491582,-0.0457587,-0.360176,-0.242725,-0.0814276,-0.0454845,0.127533,-0.339826,-0.204474,-0.0289368,0.269934,-0.214002,0.195557,-0.0462334,-0.477777,-0.247422,0.275526,-0.309204,0.0402475,0.0637741,0.300292,-0.270698,0.175235,0.152309,-0.4595,0.120879,0.429036,-0.353184,0.287281,0.0330214,0.0560056,-0.00111102,0.358777,-0.493328,-0.301241,-0.401267,-0.229505,-0.422516,0.349247,-0.24937,0.449852,-0.100069,-0.39468,-0.275375,0.43678,-0.114744,0.300484,0.284701,0.117211,0.245469,0.0503403,-0.264698,0.0985609,-0.30544,-0.199383,-0.492832,0.0889688,-0.0590628,-0.432195,0.160425,-0.346132,0.433349,0.11978,0.0429526,-0.226704,-0.281455,0.107909,-0.358018,-0.363641,-0.391947,-0.441516,-0.561781,0.198247,-0.0785785,0.424693,0.414765,-0.262856,0.512078,0.24727,-0.49123,-0.0837425,0.362167,0.371462,-0.418623,-0.252484,-0.246387,0.243673,0.314278,0.370777,0.235071,-0.161088,0.255627,0.456728,0.243707,-0.227924,0.24356,-0.162732,-0.071596,0.0937131,0.389499,-0.205956,0.418822,-0.171405,0.000486075,-0.0674732,0.298623,-0.0488436,-0.167076,-0.0942452,-0.327202,-0.104339,-0.0211148,-0.152349,0.446961,0.102512,-0.124421,-0.442121,-0.285081,0.508626,-0.305786,-0.38335,-0.208951,0.254719,0.335302,0.0963446,-0.122458,0.290824,0.185455,0.115487,-0.220882,-0.329247,-0.388748,-0.459382,-0.391099,0.171019,-0.22969,-0.0857358,-0.464991,-0.198566,-0.590321,-0.18788,-0.0662123,-0.550351,-0.483885,0.010319,-0.369996,0.0293158,-0.0487557,0.265947,-0.360976,-0.447905,-0.138686,0.354196,-0.0825363,-0.0415862,0.295509,0.215718,0.29613,0.00560684,0.156052,-0.200231,-0.41061,-0.0806673,0.407526,0.504868,-0.0144361,0.190785,0.228683,-0.171186,0.194277,0.400531,-0.295854,-0.26146,0.109685,0.422322,-0.373661,-0.486746,0.0422039,-0.24414,0.186289,0.410293,-0.252719,-0.0506881,0.00924199,0.0541488,-0.122945,0.216576,-0.385379,-0.154236,-0.123987,0.471415,-0.0974619,0.180414,-0.13962,-0.067991,0.375461,0.251004,-0.18829,-0.245605,-0.215357,-0.321309,-0.100785,-0.0842221,-0.309374,0.309978,0.33745,-0.507465,-0.406838,0.245089,0.195977,0.385763,-0.132876,0.372172,0.285556,-0.0331364,-0.441235,-0.349663,-0.0201187,-0.269841,-0.201056,0.0332046,-0.208472,0.232335,-0.063048,0.445208,0.171305,0.170476,-0.442171,-0.356832,0.185489,-0.205707,-0.0933969,0.349363,-0.442625,-0.0847322,-0.374642,-0.0882211,-0.012123,0.190777,-0.166728,0.0462681,-0.0501931,-0.317079,-0.305928,0.208751,-0.308886,-0.138009,-0.375863,-0.129001,0.21234,0.270204,0.118015,-0.0604233,-0.4348,-0.243114,0.102751,0.00655615,-0.270407,0.490302,-0.148006,0.449744,0.0309671,0.288635,0.117411,-0.221532,0.365955,0.31186,0.242082,0.408831,-0.509946,0.466031,-0.364357,0.0494468,0.08998,0.179665,0.489852,-0.392199,-0.381297,0.085431,-0.0879997,-0.237364,0.597058,0.416601,0.0172163,-0.107558,0.103883,-0.0398707,-0.446245,0.392053,0.342464,0.0554923,-0.327881,-0.209339,-0.143219,-0.482361,0.269995,0.27098,0.20531,-0.268867,0.351719,-0.25073,-0.344109,-0.0907873,0.161971,-0.32521,-0.202733,0.341684,0.131454,-0.408807,0.340715,-0.346834,-0.484221,0.498795,-0.432016,-0.254036,-0.0321427,0.177777,-0.0416384,-0.142118,-0.482211,-0.452454,-0.147541,-0.329392,-0.300582,-0.380919,-0.38572,-0.255017,-0.328436,0.205333,-0.389808,0.268413,-0.159139,-0.422995,0.0730191,0.393635,-0.0612794,-0.340853,0.179518,-0.437923,0.139836,-0.241452,-0.389269,-0.529989,0.265414,-0.147726,0.439244,-0.455046,-0.328843,-0.0385172,-0.43573,-0.393966,0.406683,0.392939,-0.29604,0.332521,0.395048,0.128374,0.293558,-0.163292,-0.317022,-0.23725,-0.117068,0.446088,0.0526149,0.444666,-0.258467,0.395771,0.43178,-0.365742,0.182639,0.123983,0.395544,0.207702,0.580437,0.222855,0.329471,0.378337,0.127789,0.38769,-0.0828392,-0.0328917,-0.454571,0.0859633,0.446629,-0.472883,0.385536,-0.559838,0.15835,-0.248194,-0.0657952,-0.239736,0.0955398,-0.185969,0.0336985,-0.476035,-0.617639,0.0655433,-0.113985,0.204935,0.0434642,-0.145875,0.434056,-0.487975,0.29389,-0.148124,0.551249,-0.256794,-0.043122,-0.118636,-0.205261,0.124132,0.127081,-0.388118,0.0863763,-0.262398,0.219036,0.334084,0.306578,0.124128,0.0374427,0.169712,0.297444,0.271968,0.48924,-0.0473014,-0.235432,0.201254,-0.138234,-0.135262,0.194955,-0.458031,0.459339,-0.530467,0.47126,0.132694,0.316597,-0.331506,-0.217816,-0.0777543,-0.152719,-0.383434,-0.160271,0.321065,0.0384895,0.445972,-0.496707,-0.107085,-0.385065,-0.370101,-0.308778,-0.596285,-0.297717,0.297736,-0.15384,-0.116028,-0.246963,-0.351419,-0.0991251,0.382058,0.00263757,-0.195782,0.422126,-0.294377,0.52312,-0.184956,-0.414116,-0.105311,-0.424496,-0.0385427,0.0878959,0.0931415,0.0676727,-0.474921,0.0993495,0.223714,0.443181,-0.514198,-0.498814,-0.367049,-0.126849,-0.250079,0.0768769,-0.273032,0.327083,0.153526,0.158588,0.332434,0.383955,0.194608,0.14691,0.0455764,-0.00753059,0.453237,0.205948,-0.147327,-0.491258,-0.106895,0.165423,0.371043,0.192678,-0.125786,0.40995,0.237277,-0.417706,-0.102442,-0.019219,0.297953,0.292068,-0.434264,-0.166367,0.374292,-0.0405698,-0.392719,-0.111119,-0.389767,-0.139737,0.112444,0.387911,-0.355898,-0.529241,0.161063,-0.203722,0.194255,0.136004,-0.0926113,-0.225387,-0.0101034,-0.0387282,-0.479317,0.174318,0.291299,0.196621,0.00625196,-0.527501,0.168609,-0.211445,0.131043,-0.459238,0.323854,0.00601788,0.381716,0.161615,-0.502612,-0.312045,0.347614,0.0754789,0.476863,-0.257287,-0.347764,-0.499767,0.248625,0.341877,0.142318,-0.00574832,-0.183707,-0.0365035,0.444991,0.223459,0.0531649,0.38521,-0.444767,-0.435709,-0.507428,0.2276,0.305706,0.320495,-0.189054,-0.32584,-0.438603,0.329579,0.435662,0.28247,-0.0792058,-0.400948,-0.457771,0.0347005,-0.309161,-0.397926,0.186048,-0.30724,0.323895,-0.314869,0.120568,0.499432,0.00346504,-0.0757631,-0.415488,-0.365232,0.00315275,-0.23727,-0.121012,-0.221985,-0.0253532,0.490168,-0.0309927,-0.448681,-0.263673,-0.465523,0.0287808,-0.166393,0.346374,0.341492,0.362681,0.114905,-0.0404126,0.0902446,0.313933,0.407217,0.178594,-0.0753952,0.534774,0.404009,-0.327535,-0.27321,-0.38237,0.0512448,0.0887988,0.0117665,0.300341,0.374943,0.306348,-0.32205,0.469642,-0.214088,-0.267396,0.211178,0.0231752,-0.20097,-0.592664,-0.0638742,0.100843,-0.412198,0.0893859,0.155445,0.280303,0.300487,-0.455287,0.315114,-0.240018,0.156307,0.53761,-0.0899402,0.176394,-0.204498,0.471276,-0.0781357,0.20669,0.387605,0.195861,-0.161982,0.103644,0.288378,-0.330822,0.112934,-0.0949061,0.0744853,-0.439582,0.314399,-0.505871,-0.296497,0.497636,0.0272344,-0.334409,-0.314221,-0.0705005,-0.29219,-0.419231,0.0899787,0.138196,-0.231057,0.1138,-0.194107,-0.466764,-0.174538,-0.0481825,-0.149795,-0.564005,-0.3371,0.208352,-0.353334,-0.0635608,-0.120282,-0.296731,0.0731935,0.164408,-0.0562633,0.227491,0.134726,-0.0653381,-0.0704367,-0.0896802,-0.254855,0.402552,0.361104,-0.290158,0.154751,-0.374203,-0.252649,0.0526862,0.0900212,-0.0716706,-0.274437,0.363008,-0.0394737,-0.173386,0.0508422,-0.0413053,0.000136527,-0.377738,0.436658,-0.23871,0.372912,-0.172634,0.134543,0.00999593,-0.1853,0.166443,-0.00192258,0.112776,0.177808,0.15503,-0.211622,0.267523,-0.387818,-0.0168869,0.110058,0.149997,-0.256914,-0.142147,-0.440019,0.459212,-0.292358,-0.0928038,-0.138474,-0.0883035,0.482051,-0.454094,0.172479,-0.298249,-0.213134,-0.065899,-0.482358,-0.630933,0.00508621,0.115814,0.496056,-0.336212,0.286711,-0.0454413,0.330955,0.21977,0.496059,0.480967,0.411548,-0.0769013,-0.183234,0.405147,-0.13693,0.590922,0.0134359,0.307065,-0.162876,0.140983,0.0506887,0.33354,-0.350272,-0.0428048,0.326319,0.194788,0.321755,-0.237451,-0.467839,0.291195,0.44495,0.109528,-0.0337877,-0.3127,0.040355,0.206197,0.180962,-0.141237,-0.196832,0.289325,0.403483,-0.0590776,0.157273,0.303184,0.172473,0.474168,-0.251635,0.0427542,-0.407416,0.367951,0.17771,0.118095,0.0424064,0.432013,0.0303185,-0.414913,-0.0289765,-0.20588,0.0626664,-0.120114,-0.0191295,-0.369753,0.103338,0.232903,0.0802244,0.307823,-0.18224,-0.124216,-0.118457,0.131663,-0.129529,0.245413,-0.00444865,0.325402,-0.369059,0.279672,-0.128851,0.151042,0.0187231,-0.493685,0.0161666,0.260166,0.387841,-0.190291,-0.140894,0.0963962,0.142207,-0.248203,0.0906799,-0.120134,-0.114229,0.210282,0.0690586,0.369701,0.390442,-0.0553966,-0.156417,-0.191284,0.0790927,0.259168,0.218868,0.125307,0.445753,0.437751,0.0139328,0.0345123,0.452518,0.270688,-0.396419,0.258322,-0.466174,-0.0663884,-0.35455,0.147306,0.0702393,-0.523975,0.267697,0.483943,0.388583,-0.378824,-0.419237,-0.401602,0.218343,-0.433946,-0.22491,0.280146,-0.0933758,-0.308766,-0.416815,-0.229627,0.146266,0.241092,-0.102202,-0.56799,-0.0821825,-0.22794,0.427022,-0.200844,-0.159326,0.295496,0.17,-0.221245,-0.0669681,-0.361862,-0.241486,0.367298,0.330753,-0.338043,-0.286257,-0.454577,-0.47745,-0.0323098,-0.394744,0.0437687,-0.00925454,-0.153543,0.208335,-0.068013,-0.422805,0.255096,0.43751,0.0351466,0.0780049,0.0430347,-0.178376,-0.275139,0.48251,-0.269068,0.0917597,0.393704,-0.38652,0.225515,0.101637,0.171301,0.21326,0.146747,-0.0975304,-0.470631,-0.289122,-0.011075,0.19315,-0.0991916,0.0803312,-0.0924151,-0.204433,-0.439388,0.382651,0.0891761,-0.0674655,0.153378,0.0691373,0.132857,-0.0530937,-0.106746,-0.543852,